{"learner":{"attributes":{"best_iteration":"109","best_score":"0.02673424076789484","scikit_learn":"{\"_estimator_type\": \"regressor\"}"},"feature_names":["abertura","minimo","maximo","fechamento","volume","retorno","volatilidade","SMA_10","EMA_10","rsi","SMA_20","std_dev","upper_band","lower_band","MACD","Signal_Line","OBV","fechamento_lag1","fechamento_lag2","fechamento_lag3","retorno_lag1","retorno_lag2","retorno_lag3","volume_lag1","volume_lag2","volume_lag3","mes","dia","dia_da_semana","hora_num","minuto","mercado_aberto","hora_decimal"],"feature_types":["float","float","float","float","int","float","float","float","float","float","float","float","float","float","float","float","float","float","float","float","float","float","float","float","float","float","int","int","int","int","int","int","float"],"gradient_booster":{"model":{"gbtree_model_param":{"num_parallel_tree":"1","num_trees":"160"},"iteration_indptr":[0,1,2,3,4,5,6,7,8,9,10,11,12,13,14,15,16,17,18,19,20,21,22,23,24,25,26,27,28,29,30,31,32,33,34,35,36,37,38,39,40,41,42,43,44,45,46,47,48,49,50,51,52,53,54,55,56,57,58,59,60,61,62,63,64,65,66,67,68,69,70,71,72,73,74,75,76,77,78,79,80,81,82,83,84,85,86,87,88,89,90,91,92,93,94,95,96,97,98,99,100,101,102,103,104,105,106,107,108,109,110,111,112,113,114,115,116,117,118,119,120,121,122,123,124,125,126,127,128,129,130,131,132,133,134,135,136,137,138,139,140,141,142,143,144,145,146,147,148,149,150,151,152,153,154,155,156,157,158,159,160],"tree_info":[0,0,0,0,0,0,0,0,0,0,0,0,0,0,0,0,0,0,0,0,0,0,0,0,0,0,0,0,0,0,0,0,0,0,0,0,0,0,0,0,0,0,0,0,0,0,0,0,0,0,0,0,0,0,0,0,0,0,0,0,0,0,0,0,0,0,0,0,0,0,0,0,0,0,0,0,0,0,0,0,0,0,0,0,0,0,0,0,0,0,0,0,0,0,0,0,0,0,0,0,0,0,0,0,0,0,0,0,0,0,0,0,0,0,0,0,0,0,0,0,0,0,0,0,0,0,0,0,0,0,0,0,0,0,0,0,0,0,0,0,0,0,0,0,0,0,0,0,0,0,0,0,0,0,0,0,0,0,0,0],"trees":[{"base_weights":[1.4108176E-2,-1.794183E-1,4.438751E-1,-2.4866769E-1,-3.5013188E-2,1.039267E-2,1.39998E-2,-8.730504E-3,-1.9050547E-1,-9.271644E-2,1.8524108E-2,-6.0645924E-3,-4.5182807E-3,-3.28632E-3,-5.747342E-2,-4.4175102E-3,3.5681512E-2,-1.8869063E-3,-7.643652E-4,-1.612303E-2,4.0261196E-3,2.4070803E-2,1.3900126E-3,-6.753273E-4,-1.953163E-4,-2.1595477E-4,3.582394E-4,3.4467314E-4,8.280451E-4],"categories":[],"categories_nodes":[],"categories_segments":[],"categories_sizes":[],"default_left":[0,0,0,0,0,0,0,0,0,0,0,0,0,0,0,0,0,0,0,0,0,0,0,0,0,0,0,0,0],"id":0,"left_children":[1,3,5,7,9,-1,-1,-1,11,13,15,-1,-1,-1,17,19,21,-1,-1,23,25,27,-1,-1,-1,-1,-1,-1,-1],"loss_changes":[3.268278E1,2.7012844E0,1.09233856E-1,3.9530945E-1,2.7666306E-1,0E0,0E0,0E0,6.729603E-3,1.9205451E-2,1.8657697E-2,0E0,0E0,0E0,1.173798E-3,2.1404917E-3,2.224069E-3,0E0,0E0,4.0607248E-4,1.2409443E-3,3.4921616E-4,0E0,0E0,0E0,0E0,0E0,0E0,0E0],"parents":[2147483647,0,0,1,1,2,2,3,3,4,4,8,8,9,9,10,10,14,14,15,15,16,16,19,19,20,20,21,21],"right_children":[2,4,6,8,10,-1,-1,-1,12,14,16,-1,-1,-1,18,20,22,-1,-1,24,26,28,-1,-1,-1,-1,-1,-1,-1],"split_conditions":[2.5E1,1.247E1,1.305E1,1.24E1,1.258E1,1.039267E-2,1.39998E-2,-8.730504E-3,1.247E1,1.254E1,1.263E1,-6.0645924E-3,-4.5182807E-3,-3.28632E-3,1.2620929E1,1.263E1,1.268E1,-1.8869063E-3,-7.643652E-4,1.26E1,1.264E1,2.63E5,1.3900126E-3,-6.753273E-4,-1.953163E-4,-2.1595477E-4,3.582394E-4,3.4467314E-4,8.280451E-4],"split_indices":[27,1,2,2,1,0,0,0,2,17,1,0,0,0,8,19,2,0,0,1,17,25,0,0,0,0,0,0,0],"split_type":[0,0,0,0,0,0,0,0,0,0,0,0,0,0,0,0,0,0,0,0,0,0,0,0,0,0,0,0,0],"sum_hessian":[3.91E2,2.7E2,1.21E2,1.82E2,8.8E1,2.6E1,9.5E1,1.03E2,7.9E1,4.2E1,4.6E1,5.8E1,2.1E1,2.7E1,1.5E1,2E1,2.6E1,1.2E1,3E0,8E0,1.2E1,1.4E1,1.2E1,4E0,4E0,5E0,7E0,4E0,1E1],"tree_param":{"num_deleted":"0","num_feature":"33","num_nodes":"29","size_leaf_vector":"1"}},{"base_weights":[9.718607E-3,-1.6492094E-1,4.2995515E-1,-2.3885775E-1,-3.0652728E-2,9.420773E-3,1.3390765E-2,-8.437448E-3,-1.8439627E-1,-7.880103E-2,2.0997524E-2,-5.9378566E-3,-4.522383E-3,-3.0992958E-3,-5.495545E-2,-3.0322075E-3,3.5823237E-2,-1.9144047E-3,-9.5231435E-4,-1.1351967E-2,4.8068655E-3,5.892783E-4,1.3502628E-3,-4.3559074E-4,-8.911371E-5,-1.107645E-4,3.751421E-4],"categories":[],"categories_nodes":[],"categories_segments":[],"categories_sizes":[],"default_left":[0,0,0,0,0,0,0,0,0,0,0,0,0,0,0,0,0,0,0,0,0,0,0,0,0,0,0],"id":1,"left_children":[1,3,5,7,9,-1,-1,-1,11,13,15,-1,-1,-1,17,19,21,-1,-1,23,25,-1,-1,-1,-1,-1,-1],"loss_changes":[2.9500265E1,2.8120503E0,8.4228516E-2,3.7062168E-1,2.5531554E-1,0E0,0E0,0E0,7.958412E-3,2.5297225E-2,1.7921517E-2,0E0,0E0,0E0,3.9369985E-3,1.3589513E-3,3.7233643E-3,0E0,0E0,2.2237306E-4,7.658369E-4,0E0,0E0,0E0,0E0,0E0,0E0],"parents":[2147483647,0,0,1,1,2,2,3,3,4,4,8,8,9,9,10,10,14,14,15,15,16,16,19,19,20,20],"right_children":[2,4,6,8,10,-1,-1,-1,12,14,16,-1,-1,-1,18,20,22,-1,-1,24,26,-1,-1,-1,-1,-1,-1],"split_conditions":[1.277E1,1.249E1,1.301E1,1.238E1,1.259E1,9.420773E-3,1.3390765E-2,-8.437448E-3,1.245E1,1.254E1,1.264E1,-5.9378566E-3,-4.522383E-3,-3.0992958E-3,1.2613E1,1.261E1,1.266E1,-1.9144047E-3,-9.5231435E-4,-2.544916E-2,1.264E1,5.892783E-4,1.3502628E-3,-4.3559074E-4,-8.911371E-5,-1.107645E-4,3.751421E-4],"split_indices":[3,3,3,0,1,0,0,0,3,17,3,0,0,0,7,1,3,0,0,14,17,0,0,0,0,0,0],"split_type":[0,0,0,0,0,0,0,0,0,0,0,0,0,0,0,0,0,0,0,0,0,0,0,0,0,0,0],"sum_hessian":[4E2,2.83E2,1.17E2,1.82E2,1.01E2,1.7E1,1E2,1E2,8.2E1,5.2E1,4.9E1,5.5E1,2.7E1,2.4E1,2.8E1,1.9E1,3E1,1.9E1,9E0,9E0,1E1,1.2E1,1.8E1,6E0,3E0,5E0,5E0],"tree_param":{"num_deleted":"0","num_feature":"33","num_nodes":"27","size_leaf_vector":"1"}},{"base_weights":[-3.672639E-4,-1.6928819E-1,4.1838935E-1,-2.3213863E-1,-2.3549514E-2,9.111299E-3,1.3035751E-2,-8.244296E-3,-1.8135539E-1,-7.9731084E-2,1.7175945E-2,-5.775286E-3,-4.304753E-3,-2.8840613E-3,-1.7480112E-3,-6.8818047E-3,3.196494E-2,-1.2795312E-2,4.327059E-3,5.8554765E-4,4.1252825E-2,-5.052967E-4,-6.421279E-5,-6.760597E-5,3.44131E-4,1.3253764E-3,5.9896946E-4],"categories":[],"categories_nodes":[],"categories_segments":[],"categories_sizes":[],"default_left":[0,0,0,0,0,0,0,0,0,0,0,0,0,0,0,0,0,0,0,0,0,0,0,0,0,0,0],"id":2,"left_children":[1,3,5,7,9,-1,-1,-1,11,13,15,-1,-1,-1,-1,17,19,21,23,-1,25,-1,-1,-1,-1,-1,-1],"loss_changes":[2.9285109E1,2.6966562E0,8.823204E-2,3.9656162E-1,2.0729129E-1,0E0,0E0,0E0,1.3343096E-2,7.7783763E-3,1.9076841E-2,0E0,0E0,0E0,0E0,1.4473236E-3,3.009729E-3,5.677687E-4,4.0194293E-4,0E0,2.3923628E-4,0E0,0E0,0E0,0E0,0E0,0E0],"parents":[2147483647,0,0,1,1,2,2,3,3,4,4,8,8,9,9,10,10,15,15,16,16,17,17,18,18,20,20],"right_children":[2,4,6,8,10,-1,-1,-1,12,14,16,-1,-1,-1,-1,18,20,22,24,-1,26,-1,-1,-1,-1,-1,-1],"split_conditions":[1.2959886E1,1.2486396E1,1.301E1,1.238E1,1.259E1,9.111299E-3,1.3035751E-2,-8.244296E-3,1.247E1,1.254E1,1.264E1,-5.775286E-3,-4.304753E-3,-2.8840613E-3,-1.7480112E-3,1.261E1,1.268E1,1.5333333E1,1.264E1,5.8554765E-4,2.4096386E-3,-5.052967E-4,-6.421279E-5,-6.760597E-5,3.44131E-4,1.3253764E-3,5.9896946E-4],"split_indices":[8,8,3,3,0,0,0,0,2,17,3,0,0,0,0,1,2,32,17,0,21,0,0,0,0,0,0],"split_type":[0,0,0,0,0,0,0,0,0,0,0,0,0,0,0,0,0,0,0,0,0,0,0,0,0,0,0],"sum_hessian":[4.12E2,2.94E2,1.18E2,2.05E2,8.9E1,1.7E1,1.01E2,1.09E2,9.6E1,3.7E1,5.2E1,7.1E1,2.5E1,1.9E1,1.8E1,2E1,3.2E1,1.3E1,7E0,1.5E1,1.7E1,9E0,4E0,4E0,3E0,1.4E1,3E0],"tree_param":{"num_deleted":"0","num_feature":"33","num_nodes":"27","size_leaf_vector":"1"}},{"base_weights":[-7.858646E-3,-1.6513352E-1,4.0112436E-1,-2.2614796E-1,-2.7551517E-2,4.943218E-3,4.0598395E-1,-2.60467E-1,-4.944722E-3,-8.1178054E-2,1.6292058E-2,1.03647215E-2,1.2837703E-2,-8.540758E-3,-6.9688675E-3,-3.1699028E-3,-6.655828E-2,-1.1772499E-2,4.076784E-2,-2.1092994E-3,-1.0346432E-3,-2.3821196E-2,-6.041527E-4,2.412765E-3,3.27919E-2,-3.5032653E-4,-8.529997E-4,-1.8482209E-4,3.1889533E-4,4.5814633E-4,1.1627085E-3],"categories":[],"categories_nodes":[],"categories_segments":[],"categories_sizes":[],"default_left":[0,0,0,0,0,0,0,0,0,0,0,0,0,0,0,0,0,0,0,0,0,0,0,0,0,0,0,0,0,0,0],"id":3,"left_children":[1,3,5,7,9,-1,11,13,-1,15,17,-1,-1,-1,-1,-1,19,21,23,-1,-1,25,27,-1,29,-1,-1,-1,-1,-1,-1],"loss_changes":[2.6631533E1,2.5037222E0,6.519127E-2,3.927164E-1,2.1998219E-1,0E0,8.010864E-4,2.32687E-2,0E0,8.002013E-3,3.6198843E-2,0E0,0E0,0E0,0E0,0E0,1.0643452E-3,3.3497084E-3,6.21929E-3,0E0,0E0,3.40065E-4,9.3940465E-4,0E0,2.0208694E-3,0E0,0E0,0E0,0E0,0E0,0E0],"parents":[2147483647,0,0,1,1,2,2,3,3,4,4,6,6,7,7,9,9,10,10,16,16,17,17,18,18,21,21,22,22,24,24],"right_children":[2,4,6,8,10,-1,12,14,-1,16,18,-1,-1,-1,-1,-1,20,22,24,-1,-1,26,28,-1,30,-1,-1,-1,-1,-1,-1],"split_conditions":[1.284E1,1.249E1,1.292E1,1.24E1,1.26E1,4.943218E-3,1.305E1,1.235E1,-4.944722E-3,1.252E1,1.264E1,1.03647215E-2,1.2837703E-2,-8.540758E-3,-6.9688675E-3,-3.1699028E-3,1.258E1,1.263E1,-2.3041475E-3,-2.1092994E-3,-1.0346432E-3,-7.898894E-4,4.5E1,2.412765E-3,1.267E1,-3.5032653E-4,-8.529997E-4,-1.8482209E-4,3.1889533E-4,4.5814633E-4,1.1627085E-3],"split_indices":[2,3,0,3,2,0,3,3,0,3,3,0,0,0,0,0,3,2,5,0,0,21,30,0,2,0,0,0,0,0,0],"split_type":[0,0,0,0,0,0,0,0,0,0,0,0,0,0,0,0,0,0,0,0,0,0,0,0,0,0,0,0,0,0,0],"sum_hessian":[4.12E2,2.98E2,1.14E2,2.06E2,9.2E1,3E0,1.11E2,1.3E2,7.6E1,4.1E1,5.1E1,3.4E1,7.7E1,6.5E1,6.5E1,1.3E1,2.8E1,2.4E1,2.7E1,2.4E1,4E0,1.1E1,1.3E1,3E0,2.4E1,4E0,7E0,9E0,4E0,7E0,1.7E1],"tree_param":{"num_deleted":"0","num_feature":"33","num_nodes":"31","size_leaf_vector":"1"}},{"base_weights":[3.0318652E-3,-1.5683763E-1,3.9653084E-1,-2.1649957E-1,-2.317578E-2,8.288858E-3,1.2385273E-2,-2.583152E-1,-1.70768E-1,-7.274692E-2,2.1714529E-2,-9.021944E-3,-7.171068E-3,-5.6188647E-3,-4.328157E-3,-3.0484532E-3,-5.9648007E-2,4.447414E-3,5.0245974E-2,-7.03434E-4,-1.9194614E-3,-1.2519741E-2,1.1957602E-2,1.0408687E-3,2.2669218E-3,-1.9713878E-4,-5.146179E-4,9.247685E-5,5.359422E-4],"categories":[],"categories_nodes":[],"categories_segments":[],"categories_sizes":[],"default_left":[0,0,0,0,0,0,0,0,0,0,0,0,0,0,0,0,0,0,0,0,0,0,0,0,0,0,0,0,0],"id":4,"left_children":[1,3,5,7,9,-1,-1,11,13,15,17,-1,-1,-1,-1,-1,19,21,23,-1,-1,25,27,-1,-1,-1,-1,-1,-1],"loss_changes":[2.5477217E1,2.291647E0,1.1539841E-1,3.3643436E-1,2.0185338E-1,0E0,0E0,1.1527061E-2,1.5893936E-2,1.0198981E-2,2.3424013E-2,0E0,0E0,0E0,0E0,0E0,3.5203397E-3,4.099929E-3,4.4649504E-3,0E0,0E0,1.6293884E-4,1.0983052E-3,0E0,0E0,0E0,0E0,0E0,0E0],"parents":[2147483647,0,0,1,1,2,2,3,3,4,4,7,7,8,8,9,9,10,10,16,16,17,17,18,18,21,21,22,22],"right_children":[2,4,6,8,10,-1,-1,12,14,16,18,-1,-1,-1,-1,-1,20,22,24,-1,-1,26,28,-1,-1,-1,-1,-1,-1],"split_conditions":[1.284E1,1.249E1,1.301E1,1.238E1,1.259E1,8.288858E-3,1.2385273E-2,1.232E1,1.244E1,1.252E1,1.268E1,-9.021944E-3,-7.171068E-3,-5.6188647E-3,-4.328157E-3,-3.0484532E-3,-4.7576886E-2,3.861484E1,9.7326E6,-7.03434E-4,-1.9194614E-3,1.28415E1,1.264E1,1.0408687E-3,2.2669218E-3,-1.9713878E-4,-5.146179E-4,9.247685E-5,5.359422E-4],"split_indices":[2,3,3,3,1,0,0,3,3,3,2,0,0,0,0,0,14,9,16,0,0,10,3,0,0,0,0,0,0],"split_type":[0,0,0,0,0,0,0,0,0,0,0,0,0,0,0,0,0,0,0,0,0,0,0,0,0,0,0,0,0],"sum_hessian":[4.03E2,2.87E2,1.16E2,1.98E2,8.9E1,1.6E1,1E2,1.01E2,9.7E1,4.2E1,4.7E1,2.7E1,7.4E1,5.6E1,4.1E1,1.1E1,3.1E1,3E1,1.7E1,4E0,2.7E1,9E0,2.1E1,1.2E1,5E0,5E0,4E0,9E0,1.2E1],"tree_param":{"num_deleted":"0","num_feature":"33","num_nodes":"29","size_leaf_vector":"1"}},{"base_weights":[1.8905104E-3,-1.5267727E-1,3.811502E-1,-2.1646532E-1,-2.4194144E-2,7.619824E-3,1.1752483E-2,-7.674711E-3,-1.6671461E-1,-7.1452245E-2,1.7278815E-2,-5.546418E-3,-4.3453155E-3,-2.8008518E-3,-4.9313813E-2,-4.007476E-3,3.0301036E-2,-1.7148923E-3,-7.64662E-4,-5.155441E-4,2.4091084E-3,1.6817093E-2,3.6278594E-2,-6.0651088E-5,3.5025214E-4,2.9062844E-4,5.751264E-4,5.1906105E-4,1.1509279E-3],"categories":[],"categories_nodes":[],"categories_segments":[],"categories_sizes":[],"default_left":[0,0,0,0,0,0,0,0,0,0,0,0,0,0,0,0,0,0,0,0,0,0,0,0,0,0,0,0,0],"id":5,"left_children":[1,3,5,7,9,-1,-1,-1,11,13,15,-1,-1,-1,17,19,21,-1,-1,-1,23,25,27,-1,-1,-1,-1,-1,-1],"loss_changes":[2.4092937E1,2.3879037E0,6.088257E-2,3.391819E-1,1.9330809E-1,0E0,0E0,0E0,8.580923E-3,1.77079E-2,1.48127545E-2,0E0,0E0,0E0,3.2182112E-3,1.817022E-3,2.0497367E-3,0E0,0E0,0E0,6.3943956E-4,1.5655067E-5,2.0695478E-4,0E0,0E0,0E0,0E0,0E0,0E0],"parents":[2147483647,0,0,1,1,2,2,3,3,4,4,8,8,9,9,10,10,14,14,15,15,16,16,20,20,21,21,22,22],"right_children":[2,4,6,8,10,-1,-1,-1,12,14,16,-1,-1,-1,18,20,22,-1,-1,-1,24,26,28,-1,-1,-1,-1,-1,-1],"split_conditions":[1.2735129E1,1.248E1,1.3E1,1.236E1,1.259E1,7.619824E-3,1.1752483E-2,-7.674711E-3,1.2421E1,1.254E1,1.266E1,-5.546418E-3,-4.3453155E-3,-2.8008518E-3,1.259E1,1.261E1,1.267E1,-1.7148923E-3,-7.64662E-4,-5.155441E-4,1.264E1,2.223E5,5.1842495E1,-6.0651088E-5,3.5025214E-4,2.9062844E-4,5.751264E-4,5.1906105E-4,1.1509279E-3],"split_indices":[13,1,2,1,1,0,0,0,7,17,2,0,0,0,2,18,2,0,0,0,17,4,9,0,0,0,0,0,0],"split_type":[0,0,0,0,0,0,0,0,0,0,0,0,0,0,0,0,0,0,0,0,0,0,0,0,0,0,0,0,0],"sum_hessian":[4.09E2,2.91E2,1.18E2,1.94E2,9.7E1,1.1E1,1.07E2,1.06E2,8.8E1,4.5E1,5.2E1,4.4E1,4.4E1,2.1E1,2.4E1,2E1,3.2E1,1.7E1,7E0,6E0,1.4E1,1.1E1,2.1E1,1E1,4E0,4E0,7E0,3E0,1.8E1],"tree_param":{"num_deleted":"0","num_feature":"33","num_nodes":"29","size_leaf_vector":"1"}},{"base_weights":[-1.1999247E-2,-1.4910829E-1,3.674052E-1,-2.0667098E-1,-2.3211135E-2,3.0489144E-1,1.1770339E-2,-2.4668926E-1,-1.6298527E-1,-7.2896026E-2,1.8320818E-2,4.508407E-3,9.4407E-3,-8.228901E-3,-6.7544617E-3,-5.5093924E-3,-4.2114523E-3,-2.6183939E-3,-5.19907E-2,-2.9402256E-3,3.0651122E-2,-5.710584E-2,-7.567234E-4,-1.2532329E-2,6.047162E-3,4.929056E-4,1.0589814E-3,-1.9292736E-3,-1.0314655E-3,-1.5039682E-4,-4.511588E-4,3.2294408E-4,-5.3009033E-5],"categories":[],"categories_nodes":[],"categories_segments":[],"categories_sizes":[],"default_left":[0,0,0,0,0,0,0,0,0,0,0,0,0,0,0,0,0,0,0,0,0,0,0,0,0,0,0,0,0,0,0,0,0],"id":6,"left_children":[1,3,5,7,9,11,-1,13,15,17,19,-1,-1,-1,-1,-1,-1,-1,21,23,25,27,-1,29,31,-1,-1,-1,-1,-1,-1,-1,-1],"loss_changes":[2.0966736E1,2.1403084E0,4.7197342E-2,3.146839E-1,1.953055E-1,5.7320595E-3,0E0,8.869171E-5,2.0920992E-2,8.392245E-3,1.3722187E-2,0E0,0E0,0E0,0E0,0E0,0E0,0E0,1.2978539E-3,1.7999442E-3,1.6014092E-3,4.0786713E-4,0E0,1.13058835E-4,4.2452797E-4,0E0,0E0,0E0,0E0,0E0,0E0,0E0,0E0],"parents":[2147483647,0,0,1,1,2,2,3,3,4,4,5,5,7,7,8,8,9,9,10,10,18,18,19,19,20,20,21,21,23,23,24,24],"right_children":[2,4,6,8,10,12,-1,14,16,18,20,-1,-1,-1,-1,-1,-1,-1,22,24,26,28,-1,30,32,-1,-1,-1,-1,-1,-1,-1,-1],"split_conditions":[1.277E1,1.249E1,1.305E1,1.236E1,1.257E1,-2.544916E-2,1.1770339E-2,1.231E1,1.243E1,1.254E1,1.264E1,4.508407E-3,9.4407E-3,-8.228901E-3,-6.7544617E-3,-5.5093924E-3,-4.2114523E-3,-2.6183939E-3,7.083E5,1.263E1,4.9704174E1,1.257E1,-7.567234E-4,2.1881582E-3,-1.5772871E-3,4.929056E-4,1.0589814E-3,-1.9292736E-3,-1.0314655E-3,-1.5039682E-4,-4.511588E-4,3.2294408E-4,-5.3009033E-5],"split_indices":[3,3,3,1,1,14,0,1,3,17,3,0,0,0,0,0,0,0,23,18,9,3,0,6,5,0,0,0,0,0,0,0,0],"split_type":[0,0,0,0,0,0,0,0,0,0,0,0,0,0,0,0,0,0,0,0,0,0,0,0,0,0,0,0,0,0,0,0,0],"sum_hessian":[4.01E2,2.95E2,1.06E2,2.02E2,9.3E1,3.4E1,7.2E1,1.03E2,9.9E1,4.2E1,5.1E1,3E0,3.1E1,4E1,6.3E1,4.8E1,5.1E1,2.3E1,1.9E1,1.9E1,3.2E1,1.5E1,4E0,9E0,1E1,9E0,2.3E1,1E1,5E0,3E0,6E0,6E0,4E0],"tree_param":{"num_deleted":"0","num_feature":"33","num_nodes":"33","size_leaf_vector":"1"}},{"base_weights":[1.4355084E-2,-1.3940173E-1,3.5931808E-1,-1.9703844E-1,-2.561616E-2,6.3409135E-3,1.1055007E-2,-2.3497641E-1,-1.4622198E-1,-6.951946E-2,1.4628644E-2,-7.6776594E-3,-6.200773E-3,-4.763342E-3,-3.6704584E-3,-2.8548467E-3,-5.4980278E-2,-6.7788E-3,3.0039694E-2,-1.742582E-3,-7.7911944E-4,-1.4390945E-3,-4.983258E-4,1.4867067E-2,3.7641287E-2,-2.7589916E-4,1.68492E-4,5.1145436E-4,2.521019E-4,6.333847E-4,1.2136155E-3],"categories":[],"categories_nodes":[],"categories_segments":[],"categories_sizes":[],"default_left":[0,0,0,0,0,0,0,0,0,0,0,0,0,0,0,0,0,0,0,0,0,0,0,0,0,0,0,0,0,0,0],"id":7,"left_children":[1,3,5,7,9,-1,-1,11,13,15,17,-1,-1,-1,-1,-1,19,21,23,-1,-1,25,-1,27,29,-1,-1,-1,-1,-1,-1],"loss_changes":[2.2539225E1,1.9230709E0,1.0008049E-1,3.4157658E-1,1.7770496E-1,0E0,0E0,1.2269497E-2,6.3527822E-3,1.2663111E-2,1.7688926E-2,0E0,0E0,0E0,0E0,0E0,1.4646873E-3,1.1836026E-3,3.015805E-3,0E0,0E0,9.27385E-4,0E0,2.5933841E-5,7.5653195E-5,0E0,0E0,0E0,0E0,0E0,0E0],"parents":[2147483647,0,0,1,1,2,2,3,3,4,4,7,7,8,8,9,9,10,10,16,16,17,17,18,18,21,21,23,23,24,24],"right_children":[2,4,6,8,10,-1,-1,12,14,16,18,-1,-1,-1,-1,-1,20,22,24,-1,-1,26,-1,28,30,-1,-1,-1,-1,-1,-1],"split_conditions":[2.5E1,1.249E1,1.298E1,1.241E1,1.258E1,6.3409135E-3,1.1055007E-2,1.233E1,1.245E1,1.252E1,1.264E1,-7.6776594E-3,-6.200773E-3,-4.763342E-3,-3.6704584E-3,-2.8548467E-3,1.259E1,1.265109E1,1.267E1,-1.742582E-3,-7.7911944E-4,1.81E5,-4.983258E-4,1.3916667E1,1.262E1,-2.7589916E-4,1.68492E-4,5.1145436E-4,2.521019E-4,6.333847E-4,1.2136155E-3],"split_indices":[27,3,3,2,1,0,0,1,3,3,3,0,0,0,0,0,17,8,2,0,0,23,0,32,19,0,0,0,0,0,0],"split_type":[0,0,0,0,0,0,0,0,0,0,0,0,0,0,0,0,0,0,0,0,0,0,0,0,0,0,0,0,0,0,0],"sum_hessian":[4.23E2,2.93E2,1.3E2,1.94E2,9.9E1,9E0,1.21E2,1.09E2,8.5E1,4.7E1,5.2E1,5.8E1,5.1E1,5.2E1,3.3E1,1.5E1,3.2E1,2.2E1,3E1,2.8E1,4E0,1.5E1,7E0,1.1E1,1.9E1,7E0,8E0,7E0,4E0,4E0,1.5E1],"tree_param":{"num_deleted":"0","num_feature":"33","num_nodes":"31","size_leaf_vector":"1"}},{"base_weights":[-6.624942E-3,-1.3715251E-1,3.443035E-1,-1.9252928E-1,-2.150922E-2,2.8874773E-1,1.1244595E-2,-6.875351E-3,-1.4954329E-1,-6.807017E-2,1.755099E-2,4.192972E-3,8.8928165E-3,-4.875926E-3,-3.655311E-3,-2.7799148E-3,-5.2154016E-2,3.1093915E-3,3.4871697E-2,-1.7415257E-3,-7.598427E-4,-1.02443695E-2,8.430958E-3,3.911948E-4,1.1210877E-3,-4.1758537E-4,-6.511688E-5,-1.0264715E-5,4.0405817E-4],"categories":[],"categories_nodes":[],"categories_segments":[],"categories_sizes":[],"default_left":[0,0,0,0,0,0,0,0,0,0,0,0,0,0,0,0,0,0,0,0,0,0,0,0,0,0,0,0,0],"id":8,"left_children":[1,3,5,7,9,11,-1,-1,13,15,17,-1,-1,-1,-1,-1,19,21,23,-1,-1,25,27,-1,-1,-1,-1,-1,-1],"loss_changes":[1.8415361E1,1.8722167E0,7.656574E-2,2.7765656E-1,1.7578803E-1,7.766485E-3,0E0,0E0,1.401329E-2,1.239042E-2,1.3148921E-2,0E0,0E0,0E0,0E0,0E0,3.117144E-3,2.2182574E-3,8.215178E-4,0E0,0E0,2.3683847E-4,9.769176E-4,0E0,0E0,0E0,0E0,0E0,0E0],"parents":[2147483647,0,0,1,1,2,2,3,3,4,4,5,5,8,8,9,9,10,10,16,16,17,17,18,18,21,21,22,22],"right_children":[2,4,6,8,10,12,-1,-1,14,16,18,-1,-1,-1,-1,-1,20,22,24,-1,-1,26,28,-1,-1,-1,-1,-1,-1],"split_conditions":[1.284E1,1.249E1,1.305E1,1.238E1,1.258E1,1.292E1,1.1244595E-2,-6.875351E-3,1.245E1,1.252E1,4.9704174E1,4.192972E-3,8.8928165E-3,-4.875926E-3,-3.655311E-3,-2.7799148E-3,1.2613E1,3.790676E1,1.267E1,-1.7415257E-3,-7.598427E-4,1.263E1,1.2641961E1,3.911948E-4,1.1210877E-3,-4.1758537E-4,-6.511688E-5,-1.0264715E-5,4.0405817E-4],"split_indices":[2,3,3,3,1,0,0,0,3,3,9,0,0,0,0,0,7,9,2,0,0,17,8,0,0,0,0,0,0],"split_type":[0,0,0,0,0,0,0,0,0,0,0,0,0,0,0,0,0,0,0,0,0,0,0,0,0,0,0,0,0],"sum_hessian":[4E2,2.92E2,1.08E2,1.97E2,9.5E1,4.2E1,6.6E1,1.04E2,9.3E1,4.3E1,5.2E1,3E0,3.9E1,6E1,3.3E1,1.5E1,2.8E1,2.9E1,2.3E1,2.2E1,6E0,8E0,2.1E1,3E0,2E1,5E0,3E0,8E0,1.3E1],"tree_param":{"num_deleted":"0","num_feature":"33","num_nodes":"29","size_leaf_vector":"1"}},{"base_weights":[2.131592E-3,-1.2929694E-1,3.33493E-1,-1.8621826E-1,-2.1383211E-2,6.7037246E-3,1.0318209E-2,-2.1581851E-1,-1.3980998E-1,-6.61528E-2,1.449238E-2,-7.1730423E-3,-5.836716E-3,-4.354585E-3,-3.0579008E-3,-2.302678E-3,-3.912258E-2,2.0845227E-3,4.194959E-2,-1.3165998E-3,-4.5149087E-4,-6.965256E-3,4.5811204E-4,9.115181E-4,2.2450017E-3,-1.2023449E-5,-5.031566E-4],"categories":[],"categories_nodes":[],"categories_segments":[],"categories_sizes":[],"default_left":[0,0,0,0,0,0,0,0,0,0,0,0,0,0,0,0,0,0,0,0,0,0,0,0,0,0,0],"id":9,"left_children":[1,3,5,7,9,-1,-1,11,13,15,17,-1,-1,-1,-1,-1,19,21,23,-1,-1,25,-1,-1,-1,-1,-1],"loss_changes":[1.7942308E1,1.808083E0,5.7644844E-2,2.3494959E-1,1.6639066E-1,0E0,0E0,1.0903835E-2,9.908676E-4,1.0180965E-2,1.9672293E-2,0E0,0E0,0E0,0E0,0E0,1.0597967E-3,4.9988627E-3,4.572075E-3,0E0,0E0,1.6026628E-3,0E0,0E0,0E0,0E0,0E0],"parents":[2147483647,0,0,1,1,2,2,3,3,4,4,7,7,8,8,9,9,10,10,16,16,17,17,18,18,21,21],"right_children":[2,4,6,8,10,-1,-1,12,14,16,18,-1,-1,-1,-1,-1,20,22,24,-1,-1,26,-1,-1,-1,-1,-1],"split_conditions":[1.2959886E1,1.249E1,1.299E1,1.242E1,1.257E1,6.7037246E-3,1.0318209E-2,1.233E1,1.247E1,1.256E1,1.266E1,-7.1730423E-3,-5.836716E-3,-4.354585E-3,-3.0579008E-3,-2.302678E-3,1.259E1,1.264E1,1.269E1,-1.3165998E-3,-4.5149087E-4,1.0030349E-2,4.5811204E-4,9.115181E-4,2.2450017E-3,-1.2023449E-5,-5.031566E-4],"split_indices":[8,3,3,2,1,0,0,1,3,3,3,0,0,0,0,0,2,3,17,0,0,6,0,0,0,0,0],"split_type":[0,0,0,0,0,0,0,0,0,0,0,0,0,0,0,0,0,0,0,0,0,0,0,0,0,0,0],"sum_hessian":[4.1E2,2.94E2,1.16E2,1.92E2,1.02E2,1.2E1,1.04E2,1.15E2,7.7E1,4.5E1,5.7E1,5E1,6.5E1,6.5E1,1.2E1,3.1E1,1.4E1,4E1,1.7E1,1.1E1,3E0,2.4E1,1.6E1,1.4E1,3E0,1.5E1,9E0],"tree_param":{"num_deleted":"0","num_feature":"33","num_nodes":"27","size_leaf_vector":"1"}},{"base_weights":[-2.5092377E-3,-1.3146205E-1,3.2264966E-1,-1.8056858E-1,-1.9392831E-2,2.6513037E-1,1.0574704E-2,-6.6212374E-3,-1.4099778E-1,-5.8899038E-2,1.418024E-2,3.4549355E-3,8.198838E-3,-4.527445E-3,-3.283871E-3,-7.046155E-2,-3.338909E-2,-6.204856E-3,2.584076E-2,-2.4011885E-3,-1.5975909E-3,-1.2370077E-3,-1.8533435E-2,-4.62869E-4,1.9062216E-3,1.306123E-2,3.2855414E-2,-1.4547586E-4,-8.275294E-4,1.8544077E-4,-2.1361827E-4,4.3527316E-4,1.8528699E-4,5.2055164E-4,1.0694057E-3],"categories":[],"categories_nodes":[],"categories_segments":[],"categories_sizes":[],"default_left":[0,0,0,0,0,0,0,0,0,0,0,0,0,0,0,0,0,0,0,0,0,0,0,0,0,0,0,0,0,0,0,0,0,0,0],"id":10,"left_children":[1,3,5,7,9,11,-1,-1,13,15,17,-1,-1,-1,-1,19,21,23,25,-1,-1,-1,27,-1,29,31,33,-1,-1,-1,-1,-1,-1,-1,-1],"loss_changes":[1.727571E1,1.6199808E0,1.073637E-1,2.944913E-1,1.21532574E-1,2.2397518E-2,0E0,0E0,1.663065E-2,1.0035634E-2,1.2045377E-2,0E0,0E0,0E0,0E0,3.527254E-4,9.838305E-4,1.4509431E-3,2.4394747E-3,0E0,0E0,0E0,7.3321885E-4,0E0,4.6851544E-4,3.9980514E-5,2.4702027E-4,0E0,0E0,0E0,0E0,0E0,0E0,0E0,0E0],"parents":[2147483647,0,0,1,1,2,2,3,3,4,4,5,5,8,8,9,9,10,10,15,15,16,16,17,17,18,18,22,22,24,24,25,25,26,26],"right_children":[2,4,6,8,10,12,-1,-1,14,16,18,-1,-1,-1,-1,20,22,24,26,-1,-1,-1,28,-1,30,32,34,-1,-1,-1,-1,-1,-1,-1,-1],"split_conditions":[2.5E1,1.25E1,1.308E1,1.239E1,1.26E1,1.294E1,1.0574704E-2,-6.6212374E-3,1.247E1,1.256E1,1.264E1,3.4549355E-3,8.198838E-3,-4.527445E-3,-3.283871E-3,1.253E1,1.2627E1,3.8975212E1,1.267E1,-2.4011885E-3,-1.5975909E-3,-1.2370077E-3,1.0013399E-2,-4.62869E-4,3.285E5,7.898894E-4,1.2598E1,-1.4547586E-4,-8.275294E-4,1.8544077E-4,-2.1361827E-4,4.3527316E-4,1.8528699E-4,5.2055164E-4,1.0694057E-3],"split_indices":[27,3,2,2,3,2,0,0,2,3,3,0,0,0,0,3,7,9,2,0,0,0,6,0,4,20,7,0,0,0,0,0,0,0,0],"split_type":[0,0,0,0,0,0,0,0,0,0,0,0,0,0,0,0,0,0,0,0,0,0,0,0,0,0,0,0,0,0,0,0,0,0,0],"sum_hessian":[4.1E2,2.94E2,1.16E2,2.04E2,9E1,4.3E1,7.3E1,9.9E1,1.05E2,4.1E1,4.9E1,3E0,4E1,7.7E1,2.8E1,2.7E1,1.4E1,1.8E1,3.1E1,1.5E1,1.2E1,8E0,6E0,8E0,1E1,1.2E1,1.9E1,3E0,3E0,7E0,3E0,9E0,3E0,4E0,1.5E1],"tree_param":{"num_deleted":"0","num_feature":"33","num_nodes":"35","size_leaf_vector":"1"}},{"base_weights":[-1.6101883E-3,-1.2722886E-1,3.1942907E-1,-1.7943412E-1,-1.9951195E-2,7.945026E-3,1.0241061E-2,-2.1136639E-1,-1.3770248E-1,-5.5419885E-2,2.046991E-2,-7.318761E-3,-5.8583994E-3,-4.4008456E-3,-3.1538785E-3,-6.666004E-2,-3.354063E-2,4.9981717E-3,3.9387386E-2,-2.2242977E-3,-1.2385797E-3,-2.6319266E-4,-3.739531E-2,-2.4050474E-3,1.4452617E-2,8.661444E-4,2.0179194E-3,-4.296341E-4,-1.3018028E-3,-1.6777038E-4,2.5664805E-4,2.2212982E-4,4.7938025E-4],"categories":[],"categories_nodes":[],"categories_segments":[],"categories_sizes":[],"default_left":[0,0,0,0,0,0,0,0,0,0,0,0,0,0,0,0,0,0,0,0,0,0,0,0,0,0,0,0,0,0,0,0,0],"id":11,"left_children":[1,3,5,7,9,-1,-1,11,13,15,17,-1,-1,-1,-1,19,21,23,25,-1,-1,-1,27,29,31,-1,-1,-1,-1,-1,-1,-1,-1],"loss_changes":[1.6776978E1,1.6709571E0,4.9736023E-2,2.3874426E-1,1.4306912E-1,0E0,0E0,1.1080742E-2,1.09398365E-2,1.07982755E-2,1.3559386E-2,0E0,0E0,0E0,0E0,3.3948272E-3,1.5813466E-3,1.924579E-3,4.2140894E-3,0E0,0E0,0E0,1.7313845E-3,6.06766E-4,1.0813354E-5,0E0,0E0,0E0,0E0,0E0,0E0,0E0,0E0],"parents":[2147483647,0,0,1,1,2,2,3,3,4,4,7,7,8,8,9,9,10,10,15,15,16,16,17,17,18,18,22,22,23,23,24,24],"right_children":[2,4,6,8,10,-1,-1,12,14,16,18,-1,-1,-1,-1,20,22,24,26,-1,-1,-1,28,30,32,-1,-1,-1,-1,-1,-1,-1,-1],"split_conditions":[1.277E1,1.249E1,1.305E1,1.238E1,1.261E1,7.945026E-3,1.0241061E-2,1.232E1,1.247E1,1.256E1,1.266E1,-7.318761E-3,-5.8583994E-3,-4.4008456E-3,-3.1538785E-3,8.254E5,1.1E1,1.264E1,1.27E1,-2.2242977E-3,-1.2385797E-3,-2.6319266E-4,-7.353261E-2,7.9239305E-4,-7.949126E-4,8.661444E-4,2.0179194E-3,-4.296341E-4,-1.3018028E-3,-1.6777038E-4,2.5664805E-4,2.2212982E-4,4.7938025E-4],"split_indices":[0,3,3,0,3,0,0,3,2,3,3,0,0,0,0,23,29,3,2,0,0,0,14,22,21,0,0,0,0,0,0,0,0],"split_type":[0,0,0,0,0,0,0,0,0,0,0,0,0,0,0,0,0,0,0,0,0,0,0,0,0,0,0,0,0,0,0,0,0],"sum_hessian":[4.14E2,2.98E2,1.16E2,2E2,9.8E1,3.7E1,7.9E1,1.11E2,8.9E1,5.2E1,4.6E1,3.2E1,7.9E1,6.7E1,2.2E1,3.3E1,1.9E1,2.6E1,2E1,2.4E1,9E0,3E0,1.6E1,1.5E1,1.1E1,1.6E1,4E0,4E0,1.2E1,1.2E1,3E0,3E0,8E0],"tree_param":{"num_deleted":"0","num_feature":"33","num_nodes":"33","size_leaf_vector":"1"}},{"base_weights":[6.905055E-4,-1.255902E-1,3.112112E-1,-1.757294E-1,-3.2168217E-2,7.6980325E-3,9.98583E-3,-1.978733E-1,-3.943875E-3,-6.633826E-2,1.7488176E-2,-6.94164E-3,-5.51387E-3,-2.686388E-3,-4.6444867E-2,3.267731E-3,3.988137E-2,-5.4023266E-2,-2.8881293E-2,-3.976226E-3,3.5796018E-4,8.8387827E-4,1.9913006E-3,-1.705908E-3,-7.6817034E-4,-1.1064099E-3,-5.781555E-4,-2.6281356E-4,2.490349E-4],"categories":[],"categories_nodes":[],"categories_segments":[],"categories_sizes":[],"default_left":[0,0,0,0,0,0,0,0,0,0,0,0,0,0,0,0,0,0,0,0,0,0,0,0,0,0,0,0,0],"id":12,"left_children":[1,3,5,7,9,-1,-1,11,-1,13,15,-1,-1,-1,17,19,21,23,25,27,-1,-1,-1,-1,-1,-1,-1,-1,-1],"loss_changes":[1.6547665E1,1.3995781E0,5.88274E-2,1.6513395E-1,1.8101683E-1,0E0,0E0,1.786375E-2,0E0,2.4927288E-2,1.3881091E-2,0E0,0E0,0E0,3.2314733E-3,1.8048262E-3,2.7371906E-3,4.811436E-4,2.8850976E-4,1.0125268E-3,0E0,0E0,0E0,0E0,0E0,0E0,0E0,0E0,0E0],"parents":[2147483647,0,0,1,1,2,2,3,3,4,4,7,7,9,9,10,10,14,14,15,15,16,16,17,17,18,18,19,19],"right_children":[2,4,6,8,10,-1,-1,12,-1,14,16,-1,-1,-1,18,20,22,24,26,28,-1,-1,-1,-1,-1,-1,-1,-1,-1],"split_conditions":[1.284E1,1.247E1,1.305E1,1.24E1,1.259E1,7.6980325E-3,9.98583E-3,1.234E1,-3.943875E-3,1.252E1,1.267E1,-6.94164E-3,-5.51387E-3,-2.686388E-3,1.257E1,1.264E1,1.25653515E1,1.258E1,2.5E1,1.264E1,3.5796018E-4,8.8387827E-4,1.9913006E-3,-1.705908E-3,-7.6817034E-4,-1.1064099E-3,-5.781555E-4,-2.6281356E-4,2.490349E-4],"split_indices":[2,3,3,3,1,0,0,2,0,3,2,0,0,0,17,3,13,3,30,17,0,0,0,0,0,0,0,0,0],"split_type":[0,0,0,0,0,0,0,0,0,0,0,0,0,0,0,0,0,0,0,0,0,0,0,0,0,0,0,0,0],"sum_hessian":[4.2E2,2.99E2,1.21E2,1.94E2,1.05E2,3.8E1,8.3E1,1.27E2,6.7E1,6.2E1,4.3E1,3.3E1,9.4E1,2.7E1,3.5E1,2.7E1,1.6E1,2.3E1,1.2E1,1.5E1,1.2E1,1.3E1,3E0,2E1,3E0,5E0,7E0,1.1E1,4E0],"tree_param":{"num_deleted":"0","num_feature":"33","num_nodes":"29","size_leaf_vector":"1"}},{"base_weights":[-5.451459E-3,-1.20898105E-1,2.9413489E-1,-1.646511E-1,-2.437074E-2,2.360878E-1,9.4103115E-3,-1.9338672E-1,-1.21642336E-1,-6.428297E-2,6.799643E-3,3.9812564E-3,7.3834998E-3,-6.5453183E-3,-5.189373E-3,-3.849647E-3,-2.8839058E-3,-2.4560273E-3,-1.5137248E-3,-8.284312E-3,2.1073094E-2,-1.5197686E-2,-2.0188552E-4,1.3990402E-4,2.459058E-2,-5.995687E-4,-1.6448497E-4,-2.864742E-4,1.5040397E-4,4.0697644E-4,8.3630916E-4],"categories":[],"categories_nodes":[],"categories_segments":[],"categories_sizes":[],"default_left":[0,0,0,0,0,0,0,0,0,0,0,0,0,0,0,0,0,0,0,0,0,0,0,0,0,0,0,0,0,0,0],"id":13,"left_children":[1,3,5,7,9,11,-1,13,15,17,19,-1,-1,-1,-1,-1,-1,-1,-1,21,23,25,27,-1,29,-1,-1,-1,-1,-1,-1],"loss_changes":[1.3800883E1,1.212316E0,5.1859856E-2,2.2118044E-1,1.13648325E-1,5.1498413E-4,0E0,2.145195E-2,1.6373396E-3,5.5937767E-3,1.1370181E-2,0E0,0E0,0E0,0E0,0E0,0E0,0E0,0E0,1.4497294E-3,1.4437791E-3,5.416197E-4,6.8161415E-4,0E0,4.1891728E-4,0E0,0E0,0E0,0E0,0E0,0E0],"parents":[2147483647,0,0,1,1,2,2,3,3,4,4,5,5,7,7,8,8,9,9,10,10,19,19,20,20,21,21,22,22,24,24],"right_children":[2,4,6,8,10,12,-1,14,16,18,20,-1,-1,-1,-1,-1,-1,-1,-1,22,24,26,28,-1,30,-1,-1,-1,-1,-1,-1],"split_conditions":[1.284E1,1.249E1,1.306E1,1.242E1,1.26E1,1.295E1,9.4103115E-3,1.236E1,1.246E1,1.2460778E1,1.266E1,3.9812564E-3,7.3834998E-3,-6.5453183E-3,-5.189373E-3,-3.849647E-3,-2.8839058E-3,-2.4560273E-3,-1.5137248E-3,1.261E1,4.4766853E1,1.25715065E1,3.861484E1,1.3990402E-4,1.2629E1,-5.995687E-4,-1.6448497E-4,-2.864742E-4,1.5040397E-4,4.0697644E-4,8.3630916E-4],"split_indices":[2,0,2,2,2,17,0,2,17,13,2,0,0,0,0,0,0,0,0,0,9,13,9,0,7,0,0,0,0,0,0],"split_type":[0,0,0,0,0,0,0,0,0,0,0,0,0,0,0,0,0,0,0,0,0,0,0,0,0,0,0,0,0,0,0],"sum_hessian":[3.97E2,2.87E2,1.1E2,1.97E2,9E1,3.1E1,7.9E1,1.16E2,8.1E1,3.9E1,5.1E1,4E0,2.7E1,4.8E1,6.8E1,6.1E1,2E1,1.5E1,2.4E1,2.5E1,2.6E1,1.3E1,1.2E1,5E0,2.1E1,8E0,5E0,4E0,8E0,6E0,1.5E1],"tree_param":{"num_deleted":"0","num_feature":"33","num_nodes":"31","size_leaf_vector":"1"}},{"base_weights":[-1.0101295E-2,-1.1789832E-1,2.888823E-1,-1.638393E-1,-2.4860531E-2,2.3270544E-1,9.425033E-3,-1.9334926E-1,-1.299474E-1,-6.0604535E-2,1.2071797E-2,3.096156E-3,7.225702E-3,-6.664203E-3,-5.3430987E-3,-4.3944973E-3,-3.539499E-3,-2.486558E-3,-4.283742E-2,-5.838394E-3,2.4803543E-2,-1.6517596E-3,-3.4395944E-2,4.2479378E-4,-4.479726E-4,3.8926362E-4,3.0968465E-2,-5.404358E-4,-1.1157215E-3,-1.3885401E-4,3.1339072E-4,7.407536E-4,1.2135792E-3],"categories":[],"categories_nodes":[],"categories_segments":[],"categories_sizes":[],"default_left":[0,0,0,0,0,0,0,0,0,0,0,0,0,0,0,0,0,0,0,0,0,0,0,0,0,0,0,0,0,0,0,0,0],"id":14,"left_children":[1,3,5,7,9,11,-1,13,15,17,19,-1,-1,-1,-1,-1,-1,-1,21,23,25,-1,27,29,-1,-1,31,-1,-1,-1,-1,-1,-1],"loss_changes":[1.33770895E1,1.299572E0,8.314133E-2,1.7890453E-1,1.3538277E-1,1.5255213E-2,0E0,7.4033737E-3,2.1053553E-3,1.7034352E-2,1.177424E-2,0E0,0E0,0E0,0E0,0E0,0E0,0E0,1.3043284E-3,1.2594102E-3,1.7857477E-3,0E0,2.9145554E-4,7.5733283E-4,0E0,0E0,1.3220683E-4,0E0,0E0,0E0,0E0,0E0,0E0],"parents":[2147483647,0,0,1,1,2,2,3,3,4,4,5,5,7,7,8,8,9,9,10,10,18,18,19,19,20,20,22,22,23,23,26,26],"right_children":[2,4,6,8,10,12,-1,14,16,18,20,-1,-1,-1,-1,-1,-1,-1,22,24,26,-1,28,30,-1,-1,32,-1,-1,-1,-1,-1,-1],"split_conditions":[2.5E1,1.248E1,1.305E1,1.239E1,1.258E1,1.276E1,9.425033E-3,1.232E1,1.242E1,1.252E1,1.264E1,3.096156E-3,7.225702E-3,-6.664203E-3,-5.3430987E-3,-4.3944973E-3,-3.539499E-3,-2.486558E-3,1.254E1,1.3152005E1,1.267E1,-1.6517596E-3,1.1E1,1.265E1,-4.479726E-4,3.8926362E-4,1.02266E7,-5.404358E-4,-1.1157215E-3,-1.3885401E-4,3.1339072E-4,7.407536E-4,1.2135792E-3],"split_indices":[27,3,3,2,1,1,0,3,17,3,3,0,0,0,0,0,0,0,17,12,2,0,29,18,0,0,16,0,0,0,0,0,0],"split_type":[0,0,0,0,0,0,0,0,0,0,0,0,0,0,0,0,0,0,0,0,0,0,0,0,0,0,0,0,0,0,0,0,0],"sum_hessian":[4.13E2,3.04E2,1.09E2,2.03E2,1.01E2,3.7E1,7.2E1,1.06E2,9.7E1,5.1E1,5E1,3E0,3.4E1,3.2E1,7.4E1,3.6E1,6.1E1,2.1E1,3E1,2.1E1,2.9E1,1E1,2E1,1.3E1,8E0,1.1E1,1.8E1,4E0,1.6E1,9E0,4E0,1.3E1,5E0],"tree_param":{"num_deleted":"0","num_feature":"33","num_nodes":"33","size_leaf_vector":"1"}},{"base_weights":[5.0001284E-3,-1.1571568E-1,2.8241146E-1,-1.6298503E-1,-2.7987527E-2,5.6015705E-3,8.758096E-3,-1.8885304E-1,-1.2818919E-1,-5.8855057E-2,1.3337568E-2,-6.516668E-3,-5.2324967E-3,-4.2923293E-3,-3.3180933E-3,-2.3965847E-3,-4.2752158E-2,-3.0242696E-3,2.27952E-2,-1.4413889E-3,-7.413654E-4,-3.8039841E-4,6.9674384E-3,2.777195E-4,2.5335727E-2,2.974777E-4,7.876396E-5,5.037533E-4,9.184896E-4],"categories":[],"categories_nodes":[],"categories_segments":[],"categories_sizes":[],"default_left":[0,0,0,0,0,0,0,0,0,0,0,0,0,0,0,0,0,0,0,0,0,0,0,0,0,0,0,0,0],"id":15,"left_children":[1,3,5,7,9,-1,-1,11,13,15,17,-1,-1,-1,-1,-1,19,21,23,-1,-1,-1,25,-1,27,-1,-1,-1,-1],"loss_changes":[1.3695757E1,1.1772914E0,5.851364E-2,1.4230919E-1,1.2962095E-1,0E0,0E0,4.705906E-3,5.645156E-3,1.6227067E-2,6.877685E-3,0E0,0E0,0E0,0E0,0E0,2.1553785E-3,1.7284511E-3,7.2847307E-4,0E0,0E0,0E0,8.91863E-5,0E0,5.235914E-4,0E0,0E0,0E0,0E0],"parents":[2147483647,0,0,1,1,2,2,3,3,4,4,7,7,8,8,9,9,10,10,16,16,17,17,18,18,22,22,24,24],"right_children":[2,4,6,8,10,-1,-1,12,14,16,18,-1,-1,-1,-1,-1,20,22,24,-1,-1,-1,26,-1,28,-1,-1,-1,-1],"split_conditions":[2.5E1,1.248E1,1.2993146E1,1.236E1,1.259E1,5.6015705E-3,8.758096E-3,1.232E1,1.2416612E1,1.252E1,1.264E1,-6.516668E-3,-5.2324967E-3,-4.2923293E-3,-3.3180933E-3,-2.3965847E-3,1.2591249E1,1.263E1,1.263E1,-1.4413889E-3,-7.413654E-4,-3.8039841E-4,1.283E5,2.777195E-4,2.5E1,2.974777E-4,7.876396E-5,5.037533E-4,9.184896E-4],"split_indices":[27,3,8,1,1,0,0,3,8,3,3,0,0,0,0,0,8,18,1,0,0,0,25,0,30,0,0,0,0],"split_type":[0,0,0,0,0,0,0,0,0,0,0,0,0,0,0,0,0,0,0,0,0,0,0,0,0,0,0,0,0],"sum_hessian":[4.07E2,2.84E2,1.23E2,1.84E2,1E2,1.3E1,1.1E2,1.03E2,8.1E1,5.7E1,4.3E1,3E1,7.3E1,4E1,4.1E1,2.3E1,3.4E1,1.6E1,2.7E1,2.5E1,9E0,8E0,8E0,5E0,2.2E1,4E0,4E0,1E1,1.2E1],"tree_param":{"num_deleted":"0","num_feature":"33","num_nodes":"29","size_leaf_vector":"1"}},{"base_weights":[-1.5988284E-3,-1.1112481E-1,2.7761576E-1,-1.4874706E-1,-1.25486E-2,6.9642616E-3,8.933021E-3,-1.7505382E-1,-1.0881389E-1,-4.114565E-2,1.6333645E-2,-6.112257E-3,-4.909897E-3,-3.612673E-3,-2.6985123E-3,-4.8863266E-2,-1.64934E-2,5.806425E-3,2.6596935E-2,-1.7379761E-3,-3.9131567E-2,-1.0445701E-2,-7.793212E-4,-4.8155105E-3,9.838609E-3,3.8722035E-4,2.986403E-2,-1.2477743E-3,-5.8515073E-4,-4.0068626E-4,-1.6338157E-4,-5.400896E-5,-1.9880533E-4,1.4234225E-4,4.1517892E-4,1.0808859E-3,5.527246E-4],"categories":[],"categories_nodes":[],"categories_segments":[],"categories_sizes":[],"default_left":[0,0,0,0,0,0,0,0,0,0,0,0,0,0,0,0,0,0,0,0,0,0,0,0,0,0,0,0,0,0,0,0,0,0,0,0,0],"id":16,"left_children":[1,3,5,7,9,-1,-1,11,13,15,17,-1,-1,-1,-1,19,21,23,25,-1,27,29,-1,31,33,-1,35,-1,-1,-1,-1,-1,-1,-1,-1,-1,-1],"loss_changes":[1.3241952E1,1.1515262E0,4.2672157E-2,2.173171E-1,7.252945E-2,0E0,0E0,1.0442257E-2,9.313822E-3,7.565379E-3,4.5994995E-3,0E0,0E0,0E0,0E0,6.45563E-4,4.1692285E-4,1.0324586E-3,5.984893E-4,0E0,1.0642223E-4,5.8225007E-5,0E0,2.6300593E-5,2.8077886E-4,0E0,5.352404E-4,0E0,0E0,0E0,0E0,0E0,0E0,0E0,0E0,0E0,0E0],"parents":[2147483647,0,0,1,1,2,2,3,3,4,4,7,7,8,8,9,9,10,10,15,15,16,16,17,17,18,18,20,20,21,21,23,23,24,24,26,26],"right_children":[2,4,6,8,10,-1,-1,12,14,16,18,-1,-1,-1,-1,20,22,24,26,-1,28,30,-1,32,34,-1,36,-1,-1,-1,-1,-1,-1,-1,-1,-1,-1],"split_conditions":[1.277E1,1.2530059E1,1.308E1,1.242E1,1.263E1,6.9642616E-3,8.933021E-3,1.234E1,1.247E1,1.2620929E1,4.982332E1,-6.112257E-3,-4.909897E-3,-3.612673E-3,-2.6985123E-3,1.254E1,7.9617836E-4,1.2638996E1,1.262E1,-1.7379761E-3,2.4E1,1.263E1,-7.793212E-4,1.264E1,1.265E1,3.8722035E-4,1.2643E1,-1.2477743E-3,-5.8515073E-4,-4.0068626E-4,-1.6338157E-4,-5.400896E-5,-1.9880533E-4,1.4234225E-4,4.1517892E-4,1.0808859E-3,5.527246E-4],"split_indices":[0,8,2,2,2,0,0,2,2,8,9,0,0,0,0,17,21,8,19,0,27,19,0,2,17,0,7,0,0,0,0,0,0,0,0,0,0],"split_type":[0,0,0,0,0,0,0,0,0,0,0,0,0,0,0,0,0,0,0,0,0,0,0,0,0,0,0,0,0,0,0,0,0,0,0,0,0],"sum_hessian":[4.31E2,3.1E2,1.21E2,2.24E2,8.6E1,4.1E1,8E1,1.33E2,9.1E1,4.3E1,4.3E1,3.3E1,1E2,5.3E1,3.8E1,3.2E1,1.1E1,2.2E1,2.1E1,1.4E1,1.8E1,8E0,3E0,6E0,1.6E1,5E0,1.6E1,1.5E1,3E0,4E0,4E0,3E0,3E0,8E0,8E0,9E0,7E0],"tree_param":{"num_deleted":"0","num_feature":"33","num_nodes":"37","size_leaf_vector":"1"}},{"base_weights":[-1.4416437E-3,-1.0554796E-1,2.6452273E-1,-1.4480382E-1,-1.4926562E-2,2.8419828E-3,2.680972E-1,-1.7374903E-1,-1.08696096E-1,-4.6501387E-2,1.0863231E-2,7.0702834E-3,8.672633E-3,-5.7827374E-3,-4.676066E-3,-3.765187E-3,-2.8244243E-3,-1.7655706E-3,-3.5748634E-2,-1.4311075E-3,2.0663261E-2,-1.1766093E-3,-4.2053603E-4,-7.697378E-3,6.6742464E-3,1.2984339E-2,2.6964633E-2,-4.0507794E-4,-8.915901E-5,-4.4467448E-5,2.975464E-4,2.691388E-4,6.5332174E-4,3.4785748E-4,8.952212E-4],"categories":[],"categories_nodes":[],"categories_segments":[],"categories_sizes":[],"default_left":[0,0,0,0,0,0,0,0,0,0,0,0,0,0,0,0,0,0,0,0,0,0,0,0,0,0,0,0,0,0,0,0,0,0,0],"id":17,"left_children":[1,3,5,7,9,-1,11,13,15,17,19,-1,-1,-1,-1,-1,-1,-1,21,23,25,-1,-1,27,29,31,33,-1,-1,-1,-1,-1,-1,-1,-1],"loss_changes":[1.1712497E1,1.0792942E0,4.6824455E-2,2.0268536E-1,7.6235816E-2,0E0,1.0810852E-2,9.381294E-3,1.1906743E-2,3.4740046E-3,6.294785E-3,0E0,0E0,0E0,0E0,0E0,0E0,0E0,1.3362691E-3,1.2703423E-3,1.0531265E-3,0E0,0E0,3.4391944E-4,3.0575466E-4,3.339327E-4,3.1704176E-4,0E0,0E0,0E0,0E0,0E0,0E0,0E0,0E0],"parents":[2147483647,0,0,1,1,2,2,3,3,4,4,6,6,7,7,8,8,9,9,10,10,18,18,19,19,20,20,23,23,24,24,25,25,26,26],"right_children":[2,4,6,8,10,-1,12,14,16,18,20,-1,-1,-1,-1,-1,-1,-1,22,24,26,-1,-1,28,30,32,34,-1,-1,-1,-1,-1,-1,-1,-1],"split_conditions":[2.5E1,1.252018E1,1.276E1,1.237E1,1.259E1,2.8419828E-3,1.306E1,1.232E1,1.2435812E1,1.254E1,1.263E1,7.0702834E-3,8.672633E-3,-5.7827374E-3,-4.676066E-3,-3.765187E-3,-2.8244243E-3,-1.7655706E-3,1.6645768E-1,1.264E1,1.266E1,-1.1766093E-3,-4.2053603E-4,1.261E1,1.264E1,8.124E5,1.2692512E1,-4.0507794E-4,-8.915901E-5,-4.4467448E-5,2.975464E-4,2.691388E-4,6.5332174E-4,3.4785748E-4,8.952212E-4],"split_indices":[27,8,1,1,1,0,17,1,8,17,1,0,0,0,0,0,0,0,11,18,17,0,0,18,17,25,12,0,0,0,0,0,0,0,0],"split_type":[0,0,0,0,0,0,0,0,0,0,0,0,0,0,0,0,0,0,0,0,0,0,0,0,0,0,0,0,0,0,0,0,0,0,0],"sum_hessian":[4.21E2,3.03E2,1.18E2,2.11E2,9.2E1,3E0,1.15E2,1.15E2,9.6E1,4.1E1,5.1E1,5E1,6.5E1,5.1E1,6.4E1,4.1E1,5.5E1,1.7E1,2.4E1,2.3E1,2.8E1,2E1,4E0,1.3E1,1E1,1.4E1,1.4E1,5E0,8E0,3E0,7E0,1.1E1,3E0,3E0,1.1E1],"tree_param":{"num_deleted":"0","num_feature":"33","num_nodes":"35","size_leaf_vector":"1"}},{"base_weights":[1.2704643E-3,-1.1000061E-1,2.5446787E-1,-1.4866407E-1,-2.6917797E-2,1.594752E-1,7.972986E-3,-1.7378038E-1,-1.181098E-1,-5.700502E-2,9.3930485E-3,1.8259119E-3,5.326496E-3,-6.099169E-3,-4.8334794E-3,-4.02395E-3,-3.219878E-3,-2.2420445E-3,-4.315564E-2,-4.2024134E-3,2.0331224E-2,-1.431176E-3,-8.648872E-4,-1.1214088E-4,-6.1606406E-4,3.2241503E-4,2.4451554E-2,1.964264E-4,-7.994798E-5,2.9106616E-4,8.132678E-4],"categories":[],"categories_nodes":[],"categories_segments":[],"categories_sizes":[],"default_left":[0,0,0,0,0,0,0,0,0,0,0,0,0,0,0,0,0,0,0,0,0,0,0,0,0,0,0,0,0,0,0],"id":18,"left_children":[1,3,5,7,9,11,-1,13,15,17,19,-1,-1,-1,-1,-1,-1,-1,21,23,25,-1,-1,27,-1,-1,29,-1,-1,-1,-1],"loss_changes":[1.1720015E1,9.243438E-1,9.392071E-2,1.3065481E-1,1.0213726E-1,1.771155E-2,0E0,6.8798065E-3,1.4942884E-3,9.297669E-3,6.4799506E-3,0E0,0E0,0E0,0E0,0E0,0E0,0E0,6.454475E-4,1.3338301E-3,6.849626E-4,0E0,0E0,3.064623E-4,0E0,0E0,3.640959E-4,0E0,0E0,0E0,0E0],"parents":[2147483647,0,0,1,1,2,2,3,3,4,4,5,5,7,7,8,8,9,9,10,10,18,18,19,19,20,20,23,23,26,26],"right_children":[2,4,6,8,10,12,-1,14,16,18,20,-1,-1,-1,-1,-1,-1,-1,22,24,26,-1,-1,28,-1,-1,30,-1,-1,-1,-1],"split_conditions":[1.271E1,1.247E1,1.2998239E1,1.239E1,1.26E1,1.2959886E1,7.972986E-3,1.231E1,1.243E1,1.252E1,1.264E1,1.8259119E-3,5.326496E-3,-6.099169E-3,-4.8334794E-3,-4.02395E-3,-3.219878E-3,-2.2420445E-3,1.256E1,1.0130157E-2,1.267E1,-1.431176E-3,-8.648872E-4,1.01114E7,-6.1606406E-4,3.2241503E-4,-3.0627872E-3,1.964264E-4,-7.994798E-5,2.9106616E-4,8.132678E-4],"split_indices":[2,3,8,2,2,8,0,3,2,3,3,0,0,0,0,0,0,0,3,6,2,0,0,16,0,0,20,0,0,0,0],"split_type":[0,0,0,0,0,0,0,0,0,0,0,0,0,0,0,0,0,0,0,0,0,0,0,0,0,0,0,0,0,0,0],"sum_hessian":[4.14E2,2.88E2,1.26E2,1.96E2,9.2E1,1.5E1,1.11E2,1.05E2,9.1E1,5E1,4.2E1,3E0,1.2E1,2.7E1,7.8E1,3.2E1,5.9E1,2E1,3E1,1.9E1,2.3E1,2.1E1,9E0,1.6E1,3E0,8E0,1.5E1,4E0,1.2E1,3E0,1.2E1],"tree_param":{"num_deleted":"0","num_feature":"33","num_nodes":"31","size_leaf_vector":"1"}},{"base_weights":[4.0779253E-3,-1.0102861E-1,2.5247785E-1,-1.4146316E-1,-1.5594923E-2,6.266367E-3,8.166339E-3,-1.614738E-1,-2.91872E-3,-4.156252E-2,1.4268138E-2,-5.7985536E-3,-4.4539473E-3,-5.057512E-2,-1.9249797E-2,2.7718942E-3,2.6727268E-2,-1.763274E-3,-1.1530394E-3,-1.4196543E-2,-9.258127E-4,-4.638004E-3,7.5270333E-3,2.540946E-4,2.929963E-2,-1.619339E-4,-4.888916E-4,2.9826164E-5,-2.1581513E-4,4.8158166E-5,2.6621102E-4,1.1720237E-3,7.115486E-4],"categories":[],"categories_nodes":[],"categories_segments":[],"categories_sizes":[],"default_left":[0,0,0,0,0,0,0,0,0,0,0,0,0,0,0,0,0,0,0,0,0,0,0,0,0,0,0,0,0,0,0,0,0],"id":19,"left_children":[1,3,5,7,9,-1,-1,11,-1,13,15,-1,-1,17,19,21,23,-1,-1,25,-1,27,29,-1,31,-1,-1,-1,-1,-1,-1,-1,-1],"loss_changes":[1.062554E1,9.857733E-1,4.7244072E-2,1.557703E-1,7.27119E-2,0E0,0E0,2.5929451E-2,0E0,9.081222E-3,6.228176E-3,0E0,0E0,1.2255758E-3,5.006315E-4,8.805528E-4,7.3809735E-4,0E0,0E0,1.5222328E-4,0E0,1.5110208E-4,1.053749E-4,0E0,5.4703094E-5,0E0,0E0,0E0,0E0,0E0,0E0,0E0,0E0],"parents":[2147483647,0,0,1,1,2,2,3,3,4,4,7,7,9,9,10,10,13,13,14,14,15,15,16,16,19,19,21,21,22,22,24,24],"right_children":[2,4,6,8,10,-1,-1,12,-1,14,16,-1,-1,18,20,22,24,-1,-1,26,-1,28,30,-1,32,-1,-1,-1,-1,-1,-1,-1,-1],"split_conditions":[1.284E1,1.249E1,1.305E1,1.241E1,1.261E1,6.266367E-3,8.166339E-3,1.232E1,-2.91872E-3,1.2613E1,4.982332E1,-5.7985536E-3,-4.4539473E-3,1.254E1,-6.259537E-3,4.0678E1,1.2684684E1,-1.763274E-3,-1.1530394E-3,8.9332E6,-9.258127E-4,1.4083333E1,1.2641365E1,2.540946E-4,3.1556133E-2,-1.619339E-4,-4.888916E-4,2.9826164E-5,-2.1581513E-4,4.8158166E-5,2.6621102E-4,1.1720237E-3,7.115486E-4],"split_indices":[2,3,3,3,3,0,0,3,0,7,9,0,0,17,15,9,12,0,0,16,0,32,8,0,11,0,0,0,0,0,0,0,0],"split_type":[0,0,0,0,0,0,0,0,0,0,0,0,0,0,0,0,0,0,0,0,0,0,0,0,0,0,0,0,0,0,0,0,0],"sum_hessian":[4.05E2,2.85E2,1.2E2,1.93E2,9.2E1,4.1E1,7.9E1,1.31E2,6.2E1,4.9E1,4.3E1,3.4E1,9.7E1,3.4E1,1.5E1,2.3E1,2E1,1.8E1,1.6E1,1.2E1,3E0,9E0,1.4E1,3E0,1.7E1,3E0,9E0,3E0,6E0,3E0,1.1E1,4E0,1.3E1],"tree_param":{"num_deleted":"0","num_feature":"33","num_nodes":"33","size_leaf_vector":"1"}},{"base_weights":[-1.6718196E-3,-9.6602455E-2,2.4414565E-1,-1.3387077E-1,-1.2296517E-2,2.0225593E-1,8.048291E-3,-1.5537533E-1,-9.7967744E-2,-4.2238824E-2,1.3619267E-2,2.959857E-3,6.2191924E-3,-5.664125E-3,-4.3237186E-3,-3.1262974E-3,-2.28187E-3,-1.702938E-3,-2.8979301E-2,-2.4057275E-3,2.1461863E-2,-1.7194228E-2,-1.0850716E-3,-7.479E-3,4.236579E-3,1.1942069E-2,2.5678938E-2,-2.3990392E-4,-5.893099E-4,-2.922862E-4,-4.942417E-5,-4.1935444E-5,2.3690415E-4,1.8369197E-4,3.9604187E-4,6.294012E-4,1.1237755E-3],"categories":[],"categories_nodes":[],"categories_segments":[],"categories_sizes":[],"default_left":[0,0,0,0,0,0,0,0,0,0,0,0,0,0,0,0,0,0,0,0,0,0,0,0,0,0,0,0,0,0,0,0,0,0,0,0,0],"id":20,"left_children":[1,3,5,7,9,11,-1,13,15,17,19,-1,-1,-1,-1,-1,-1,-1,21,23,25,27,-1,29,31,33,35,-1,-1,-1,-1,-1,-1,-1,-1,-1,-1],"loss_changes":[9.381164E0,9.095168E-1,5.895233E-2,1.3996601E-1,7.041332E-2,3.0908585E-3,0E0,1.9427776E-2,2.7391315E-3,6.4444095E-3,6.2098317E-3,0E0,0E0,0E0,0E0,0E0,0E0,0E0,1.4116634E-3,6.045553E-4,1.018147E-3,9.072735E-5,0E0,1.1596724E-4,1.7602474E-4,7.1033137E-6,4.3189712E-4,0E0,0E0,0E0,0E0,0E0,0E0,0E0,0E0,0E0,0E0],"parents":[2147483647,0,0,1,1,2,2,3,3,4,4,5,5,7,7,8,8,9,9,10,10,18,18,19,19,20,20,21,21,23,23,24,24,25,25,26,26],"right_children":[2,4,6,8,10,12,-1,14,16,18,20,-1,-1,-1,-1,-1,-1,-1,22,24,26,28,-1,30,32,34,36,-1,-1,-1,-1,-1,-1,-1,-1,-1,-1],"split_conditions":[1.2959886E1,1.25E1,1.307E1,1.242E1,1.259E1,1.292E1,8.048291E-3,1.232E1,1.246E1,1.254E1,1.264E1,2.959857E-3,6.2191924E-3,-5.664125E-3,-4.3237186E-3,-3.1262974E-3,-2.28187E-3,-1.702938E-3,1E0,1.261E1,1.267E1,1.26E1,-1.0850716E-3,-2.544916E-2,1.264E1,2.6773907E-2,6.202E5,-2.3990392E-4,-5.893099E-4,-2.922862E-4,-4.942417E-5,-4.1935444E-5,2.3690415E-4,1.8369197E-4,3.9604187E-4,6.294012E-4,1.1237755E-3],"split_indices":[8,3,3,2,1,0,0,3,3,17,3,0,0,0,0,0,0,0,28,1,2,2,0,14,17,11,4,0,0,0,0,0,0,0,0,0,0],"split_type":[0,0,0,0,0,0,0,0,0,0,0,0,0,0,0,0,0,0,0,0,0,0,0,0,0,0,0,0,0,0,0,0,0,0,0,0,0],"sum_hessian":[4E2,2.89E2,1.11E2,2E2,8.9E1,4.4E1,6.7E1,1.23E2,7.7E1,4.1E1,4.8E1,3E0,4.1E1,2.7E1,9.6E1,5.7E1,2E1,1.8E1,2.3E1,1.6E1,3.2E1,1E1,1.3E1,9E0,7E0,1.1E1,2.1E1,3E0,7E0,6E0,3E0,3E0,4E0,3E0,8E0,1.7E1,4E0],"tree_param":{"num_deleted":"0","num_feature":"33","num_nodes":"37","size_leaf_vector":"1"}},{"base_weights":[4.586474E-3,-9.482934E-2,2.3396838E-1,-1.2924057E-1,-1.4359195E-2,1.6801974E-1,7.327856E-3,-1.5752709E-1,-1.0193437E-1,-4.2363826E-2,1.0789438E-2,2.5373984E-3,5.351354E-3,-5.423021E-3,-4.346943E-3,-3.3863678E-3,-8.220228E-2,-1.6524044E-3,-3.0033935E-2,-7.550319E-4,2.3469334E-2,-2.5483943E-3,-1.1086178E-3,-4.9396703E-4,-9.6403115E-4,-6.027835E-3,6.0244473E-3,2.6072714E-2,1.7660379E-4,-3.7919998E-4,-6.356907E-5,2.906227E-4,7.642201E-5,3.740072E-4,8.388824E-4],"categories":[],"categories_nodes":[],"categories_segments":[],"categories_sizes":[],"default_left":[0,0,0,0,0,0,0,0,0,0,0,0,0,0,0,0,0,0,0,0,0,0,0,0,0,0,0,0,0,0,0,0,0,0,0],"id":21,"left_children":[1,3,5,7,9,11,-1,13,15,17,19,-1,-1,-1,-1,-1,21,-1,23,25,27,-1,-1,-1,-1,29,31,33,-1,-1,-1,-1,-1,-1,-1],"loss_changes":[8.824604E0,7.45795E-1,3.8384438E-2,1.2992549E-1,5.82079E-2,1.3349652E-3,0E0,5.159378E-4,1.2101054E-2,4.4605657E-3,6.4585586E-3,0E0,0E0,0E0,0E0,0E0,1.7035306E-3,0E0,9.788014E-5,8.9423894E-4,8.077696E-4,0E0,0E0,0E0,0E0,3.3506105E-4,1.15422066E-4,1.14269555E-4,0E0,0E0,0E0,0E0,0E0,0E0,0E0],"parents":[2147483647,0,0,1,1,2,2,3,3,4,4,5,5,7,7,8,8,9,9,10,10,16,16,18,18,19,19,20,20,25,25,26,26,27,27],"right_children":[2,4,6,8,10,12,-1,14,16,18,20,-1,-1,-1,-1,-1,22,-1,24,26,28,-1,-1,-1,-1,30,32,34,-1,-1,-1,-1,-1,-1,-1],"split_conditions":[2.5E1,1.25E1,1.301E1,1.236E1,1.259E1,1.276E1,7.327856E-3,1.232E1,1.244E1,1.254E1,1.264E1,2.5373984E-3,5.351354E-3,-5.423021E-3,-4.346943E-3,-3.3863678E-3,6.711E5,-1.6524044E-3,1.764E5,1.263E1,7.028904E-3,-2.5483943E-3,-1.1086178E-3,-4.9396703E-4,-9.6403115E-4,1.261E1,1.262E1,1.2629042E1,1.7660379E-4,-3.7919998E-4,-6.356907E-5,2.906227E-4,7.642201E-5,3.740072E-4,8.388824E-4],"split_indices":[27,3,3,1,1,1,0,3,17,17,1,0,0,0,0,0,23,0,25,3,6,0,0,0,0,18,1,8,0,0,0,0,0,0,0],"split_type":[0,0,0,0,0,0,0,0,0,0,0,0,0,0,0,0,0,0,0,0,0,0,0,0,0,0,0,0,0,0,0,0,0,0,0],"sum_hessian":[3.85E2,2.69E2,1.16E2,1.88E2,8.1E1,1.8E1,9.8E1,9E1,9.8E1,3.8E1,4.3E1,3E0,1.5E1,2.7E1,6.3E1,6E1,3.8E1,1.7E1,2.1E1,2.3E1,2E1,3.5E1,3E0,4E0,1.7E1,1.3E1,1E1,1.7E1,3E0,4E0,9E0,4E0,6E0,3E0,1.4E1],"tree_param":{"num_deleted":"0","num_feature":"33","num_nodes":"35","size_leaf_vector":"1"}},{"base_weights":[9.749246E-3,-9.3753934E-2,2.2871529E-1,-1.3190952E-1,-2.8493984E-2,1.5935631E-1,7.155811E-3,-1.5264225E-1,-1.0305996E-1,-5.2133113E-2,1.1029048E-2,2.4012423E-3,5.076758E-3,-5.3245868E-3,-4.205074E-3,-3.5198E-3,-2.7454544E-3,-2.0842792E-3,-3.4787178E-2,-1.1849176E-3,2.3948217E-2,-1.103492E-3,-3.1866788E-4,-8.219112E-3,5.9569967E-3,1.9193887E-4,2.6839018E-2,4.7475816E-5,-4.213837E-4,4.0340423E-5,2.255559E-4,8.834927E-4,3.493309E-4],"categories":[],"categories_nodes":[],"categories_segments":[],"categories_sizes":[],"default_left":[0,0,0,0,0,0,0,0,0,0,0,0,0,0,0,0,0,0,0,0,0,0,0,0,0,0,0,0,0,0,0,0,0],"id":22,"left_children":[1,3,5,7,9,11,-1,13,15,17,19,-1,-1,-1,-1,-1,-1,-1,21,23,25,-1,-1,27,29,-1,31,-1,-1,-1,-1,-1,-1],"loss_changes":[9.109578E0,6.760199E-1,4.977846E-2,8.7147E-2,9.587257E-2,1.327306E-3,0E0,5.490303E-3,1.6157627E-3,1.6836137E-2,6.182354E-3,0E0,0E0,0E0,0E0,0E0,0E0,0E0,1.2491159E-3,1.1039511E-3,7.92237E-4,0E0,0E0,6.5048534E-4,6.9115165E-5,0E0,2.917843E-4,0E0,0E0,0E0,0E0,0E0,0E0],"parents":[2147483647,0,0,1,1,2,2,3,3,4,4,5,5,7,7,8,8,9,9,10,10,18,18,19,19,20,20,23,23,24,24,26,26],"right_children":[2,4,6,8,10,12,-1,14,16,18,20,-1,-1,-1,-1,-1,-1,-1,22,24,26,-1,-1,28,30,-1,32,-1,-1,-1,-1,-1,-1],"split_conditions":[2.5E1,1.246E1,1.301E1,1.238E1,1.26E1,1.295E1,7.155811E-3,1.232E1,1.244E1,1.253E1,1.266E1,2.4012423E-3,5.076758E-3,-5.3245868E-3,-4.205074E-3,-3.5198E-3,-2.7454544E-3,-2.0842792E-3,1.6645768E-1,1.263E1,1.2693195E1,-1.103492E-3,-3.1866788E-4,1.512E5,1.264E1,1.9193887E-4,4.765687E-3,4.7475816E-5,-4.213837E-4,4.0340423E-5,2.255559E-4,8.834927E-4,3.493309E-4],"split_indices":[27,3,3,3,3,17,0,3,2,2,3,0,0,0,0,0,0,0,11,3,12,0,0,4,3,0,22,0,0,0,0,0,0],"split_type":[0,0,0,0,0,0,0,0,0,0,0,0,0,0,0,0,0,0,0,0,0,0,0,0,0,0,0,0,0,0,0,0,0],"sum_hessian":[4E2,2.72E2,1.28E2,1.71E2,1.01E2,1.8E1,1.1E2,9.7E1,7.4E1,6.3E1,3.8E1,3E0,1.5E1,2.8E1,6.9E1,2.9E1,4.5E1,3E1,3.3E1,2E1,1.8E1,3E1,3E0,1E1,1E1,3E0,1.5E1,4E0,6E0,3E0,7E0,1.2E1,3E0],"tree_param":{"num_deleted":"0","num_feature":"33","num_nodes":"33","size_leaf_vector":"1"}},{"base_weights":[2.3591972E-3,-8.875573E-2,2.1690112E-1,-1.2678486E-1,-1.6674163E-2,1.7721027E-1,7.095479E-3,-1.4751017E-1,-9.862869E-2,-5.014759E-2,7.593028E-3,2.8529833E-3,5.4870476E-3,-5.1392047E-3,-4.1111996E-3,-3.372127E-3,-2.625333E-3,-1.8740682E-3,-1.1015199E-3,-8.73661E-3,1.9506672E-2,-1.5950775E-2,1.0091463E-3,1.0889871E-2,2.4103425E-2,-6.57835E-4,-3.2308386E-4,2.2396087E-4,-1.4006751E-4,2.0040035E-4,3.745937E-4,4.387264E-4,8.8623044E-4],"categories":[],"categories_nodes":[],"categories_segments":[],"categories_sizes":[],"default_left":[0,0,0,0,0,0,0,0,0,0,0,0,0,0,0,0,0,0,0,0,0,0,0,0,0,0,0,0,0,0,0,0,0],"id":23,"left_children":[1,3,5,7,9,11,-1,13,15,17,19,-1,-1,-1,-1,-1,-1,-1,-1,21,23,25,27,29,31,-1,-1,-1,-1,-1,-1,-1,-1],"loss_changes":[8.1316595E0,7.9831624E-1,5.4625034E-2,9.690857E-2,8.323599E-2,3.6355257E-3,0E0,3.4327507E-3,3.0280352E-3,4.821904E-3,1.1843152E-2,0E0,0E0,0E0,0E0,0E0,0E0,0E0,0E0,1.8440916E-3,1.1238437E-3,2.2838428E-4,4.747608E-4,1.0689953E-5,7.019546E-4,0E0,0E0,0E0,0E0,0E0,0E0,0E0,0E0],"parents":[2147483647,0,0,1,1,2,2,3,3,4,4,5,5,7,7,8,8,9,9,10,10,19,19,20,20,21,21,22,22,23,23,24,24],"right_children":[2,4,6,8,10,12,-1,14,16,18,20,-1,-1,-1,-1,-1,-1,-1,-1,22,24,26,28,30,32,-1,-1,-1,-1,-1,-1,-1,-1],"split_conditions":[1.284E1,1.248E1,1.305E1,1.238E1,1.259E1,1.295E1,7.095479E-3,1.232E1,1.242E1,1.252E1,1.264E1,2.8529833E-3,5.4870476E-3,-5.1392047E-3,-4.1111996E-3,-3.372127E-3,-2.625333E-3,-1.8740682E-3,-1.1015199E-3,1.262E1,1.267E1,1.262558E1,-1.5772871E-3,2.328758E-3,1.2629E1,-6.57835E-4,-3.2308386E-4,2.2396087E-4,-1.4006751E-4,2.0040035E-4,3.745937E-4,4.387264E-4,8.8623044E-4],"split_indices":[2,3,3,3,2,17,0,3,17,3,3,0,0,0,0,0,0,0,0,3,2,8,5,6,7,0,0,0,0,0,0,0,0],"split_type":[0,0,0,0,0,0,0,0,0,0,0,0,0,0,0,0,0,0,0,0,0,0,0,0,0,0,0,0,0,0,0,0,0],"sum_hessian":[4.14E2,2.91E2,1.23E2,1.9E2,1.01E2,4.4E1,7.9E1,1.07E2,8.3E1,4.2E1,5.9E1,4E0,4E1,2.8E1,7.9E1,3.3E1,5E1,2E1,2.2E1,2.5E1,3.4E1,1.4E1,1.1E1,1.3E1,2.1E1,5E0,9E0,5E0,6E0,5E0,8E0,9E0,1.2E1],"tree_param":{"num_deleted":"0","num_feature":"33","num_nodes":"33","size_leaf_vector":"1"}},{"base_weights":[-2.0007633E-3,-8.5727E-2,2.1371768E-1,-1.1680542E-1,-6.8669594E-3,1.7685173E-1,6.9529186E-3,-1.4810021E-1,-9.143059E-2,-3.4030728E-2,1.2070784E-2,2.3567604E-3,5.4677925E-3,-5.0432696E-3,-3.962777E-3,-3.206208E-3,-2.3078355E-3,-3.743999E-2,-3.2233237E-4,3.0437151E-3,2.3320405E-2,-1.2559294E-3,-6.5920193E-4,-5.199866E-3,7.425499E-3,1.3292949E-2,2.7782185E-2,-3.2055718E-4,1.05588915E-4,4.0383337E-4,9.4202485E-5,1.7910004E-4,4.7878263E-4,9.432411E-4,2.9577254E-4],"categories":[],"categories_nodes":[],"categories_segments":[],"categories_sizes":[],"default_left":[0,0,0,0,0,0,0,0,0,0,0,0,0,0,0,0,0,0,0,0,0,0,0,0,0,0,0,0,0,0,0,0,0,0,0],"id":24,"left_children":[1,3,5,7,9,11,-1,13,15,17,19,-1,-1,-1,-1,-1,-1,21,-1,23,25,-1,-1,27,29,31,33,-1,-1,-1,-1,-1,-1,-1,-1],"loss_changes":[7.6221256E0,7.4425507E-1,3.7516594E-2,1.5957308E-1,4.516536E-2,8.539438E-3,0E0,8.542061E-3,1.932621E-2,2.4557374E-3,5.2096765E-3,0E0,0E0,0E0,0E0,0E0,0E0,1.2014061E-3,0E0,1.1222592E-3,6.59721E-4,0E0,0E0,5.637348E-4,4.7503342E-4,8.046022E-5,6.7377556E-4,0E0,0E0,0E0,0E0,0E0,0E0,0E0,0E0],"parents":[2147483647,0,0,1,1,2,2,3,3,4,4,5,5,7,7,8,8,9,9,10,10,17,17,19,19,20,20,23,23,24,24,25,25,26,26],"right_children":[2,4,6,8,10,12,-1,14,16,18,20,-1,-1,-1,-1,-1,-1,22,-1,24,26,-1,-1,28,30,32,34,-1,-1,-1,-1,-1,-1,-1,-1],"split_conditions":[1.2735129E1,1.253E1,1.308E1,1.239E1,1.259E1,1.276E1,6.9529186E-3,1.231E1,1.2421E1,1.2627E1,1.267E1,2.3567604E-3,5.4677925E-3,-5.0432696E-3,-3.962777E-3,-3.206208E-3,-2.3078355E-3,1.256E1,-3.2233237E-4,1.821E5,8.9332E6,-1.2559294E-3,-6.5920193E-4,7.621951E-4,1.01366E7,1.2598E1,8.506E5,-3.2055718E-4,1.05588915E-4,4.0383337E-4,9.4202485E-5,1.7910004E-4,4.7878263E-4,9.432411E-4,2.9577254E-4],"split_indices":[13,2,2,2,1,1,0,1,7,7,2,0,0,0,0,0,0,1,0,24,16,0,0,5,16,7,24,0,0,0,0,0,0,0,0],"split_type":[0,0,0,0,0,0,0,0,0,0,0,0,0,0,0,0,0,0,0,0,0,0,0,0,0,0,0,0,0,0,0,0,0,0,0],"sum_hessian":[4.2E2,3.03E2,1.17E2,2.17E2,8.6E1,4.2E1,7.5E1,9.5E1,1.22E2,3.5E1,5.1E1,3E0,3.9E1,3.8E1,5.7E1,5.6E1,6.6E1,3E1,5E0,2.9E1,2.2E1,2.2E1,8E0,1E1,1.9E1,8E0,1.4E1,6E0,4E0,7E0,1.2E1,3E0,5E0,1.1E1,3E0],"tree_param":{"num_deleted":"0","num_feature":"33","num_nodes":"35","size_leaf_vector":"1"}},{"base_weights":[3.1066055E-3,-8.41957E-2,2.0936845E-1,-1.1552421E-1,-1.2248918E-2,5.3759217E-3,6.8199816E-3,-1.3819152E-1,-8.9596376E-2,-3.9046917E-2,9.970417E-3,-5.181577E-3,-3.8632187E-3,-2.9566262E-3,-2.164933E-3,-1.3910385E-3,-2.1615777E-2,-1.9845054E-3,1.8006515E-2,-7.3438557E-4,-2.5009632E-4,1.167655E-3,-3.0178548E-4,2.3228645E-4,2.0793583E-2,2.7505873E-4,-6.790161E-5,6.8630074E-4,1.5538931E-4],"categories":[],"categories_nodes":[],"categories_segments":[],"categories_sizes":[],"default_left":[0,0,0,0,0,0,0,0,0,0,0,0,0,0,0,0,0,0,0,0,0,0,0,0,0,0,0,0,0],"id":25,"left_children":[1,3,5,7,9,-1,-1,11,13,15,17,-1,-1,-1,-1,-1,19,21,23,-1,-1,25,-1,-1,27,-1,-1,-1,-1],"loss_changes":[7.5085964E0,6.5900254E-1,2.6470661E-2,1.07512474E-1,5.3978343E-2,0E0,0E0,1.2551069E-2,8.19087E-3,4.229896E-3,4.83928E-3,0E0,0E0,0E0,0E0,0E0,3.2832148E-4,5.4627436E-4,6.97162E-4,0E0,0E0,4.5997876E-4,0E0,0E0,6.295936E-4,0E0,0E0,0E0,0E0],"parents":[2147483647,0,0,1,1,2,2,3,3,4,4,7,7,8,8,9,9,10,10,16,16,17,17,18,18,21,21,24,24],"right_children":[2,4,6,8,10,-1,-1,12,14,16,18,-1,-1,-1,-1,-1,20,22,24,-1,-1,26,-1,-1,28,-1,-1,-1,-1],"split_conditions":[1.28E1,1.25E1,1.306E1,1.238E1,1.259E1,5.3759217E-3,6.8199816E-3,1.23E1,1.243E1,1.256E1,1.264E1,-5.181577E-3,-3.8632187E-3,-2.9566262E-3,-2.164933E-3,-1.3910385E-3,1.2629E1,1.0030349E-2,1.262E1,-7.3438557E-4,-2.5009632E-4,1.01114E7,-3.0178548E-4,2.3228645E-4,6.3806525E-3,2.7505873E-4,-6.790161E-5,6.8630074E-4,1.5538931E-4],"split_indices":[3,3,3,0,1,0,0,3,1,3,3,0,0,0,0,0,7,6,19,0,0,16,0,0,6,0,0,0,0],"split_type":[0,0,0,0,0,0,0,0,0,0,0,0,0,0,0,0,0,0,0,0,0,0,0,0,0,0,0,0,0],"sum_hessian":[4.15E2,2.92E2,1.23E2,2.03E2,8.9E1,5E1,7.3E1,1.06E2,9.7E1,4E1,4.9E1,1.9E1,8.7E1,6.1E1,3.6E1,2.7E1,1.3E1,2E1,2.9E1,1E1,3E0,1.5E1,5E0,7E0,2.2E1,4E0,1.1E1,1.9E1,3E0],"tree_param":{"num_deleted":"0","num_feature":"33","num_nodes":"29","size_leaf_vector":"1"}},{"base_weights":[1.7481699E-3,-8.392251E-2,2.0252517E-1,-1.1204448E-1,-7.79281E-3,1.6512187E-1,6.6448147E-3,-1.299249E-1,-7.805651E-2,-3.0179925E-2,1.0383626E-2,2.2571038E-3,5.086214E-3,-4.416697E-3,-3.475641E-3,-2.6101705E-3,-1.9736502E-3,-3.3679653E-2,-3.1109128E-4,-1.0571228E-3,1.7776148E-2,-1.241744E-3,-2.8643392E-2,-5.752987E-3,2.88105E-3,8.616781E-4,1.4147676E-2,-9.063931E-4,-4.207921E-4,-2.2737979E-5,-2.4372576E-4,-1.3825035E-4,2.3457118E-4,2.532196E-4,5.602717E-4],"categories":[],"categories_nodes":[],"categories_segments":[],"categories_sizes":[],"default_left":[0,0,0,0,0,0,0,0,0,0,0,0,0,0,0,0,0,0,0,0,0,0,0,0,0,0,0,0,0,0,0,0,0,0,0],"id":26,"left_children":[1,3,5,7,9,11,-1,13,15,17,19,-1,-1,-1,-1,-1,-1,21,-1,23,25,-1,27,29,31,-1,33,-1,-1,-1,-1,-1,-1,-1,-1],"loss_changes":[7.361696E0,6.4140224E-1,5.4241657E-2,1.22948885E-1,3.3680655E-2,5.911112E-3,0E0,1.7505169E-2,2.8396547E-3,2.2159778E-3,3.909287E-3,0E0,0E0,0E0,0E0,0E0,0E0,1.840666E-5,0E0,3.6794404E-4,7.057721E-4,0E0,8.0997124E-5,1.004411E-4,4.4284092E-4,0E0,4.3672277E-4,0E0,0E0,0E0,0E0,0E0,0E0,0E0,0E0],"parents":[2147483647,0,0,1,1,2,2,3,3,4,4,5,5,7,7,8,8,9,9,10,10,17,17,19,19,20,20,22,22,23,23,24,24,26,26],"right_children":[2,4,6,8,10,12,-1,14,16,18,20,-1,-1,-1,-1,-1,-1,22,-1,24,26,-1,28,30,32,-1,34,-1,-1,-1,-1,-1,-1,-1,-1],"split_conditions":[2.5E1,1.253E1,1.308E1,1.243E1,1.259E1,1.276E1,6.6448147E-3,1.233E1,1.247E1,1.2620929E1,4.4766853E1,2.2571038E-3,5.086214E-3,-4.416697E-3,-3.475641E-3,-2.6101705E-3,-1.9736502E-3,-1.8531268E-2,-3.1109128E-4,3.861484E1,-3.1471283E-3,-1.241744E-3,2.4E1,2.726121E-3,2.1928288E-3,8.616781E-4,3.32E5,-9.063931E-4,-4.207921E-4,-2.2737979E-5,-2.4372576E-4,-1.3825035E-4,2.3457118E-4,2.532196E-4,5.602717E-4],"split_indices":[27,2,2,2,1,1,0,1,2,8,9,0,0,0,0,0,0,15,0,9,21,0,27,6,6,0,25,0,0,0,0,0,0,0,0],"split_type":[0,0,0,0,0,0,0,0,0,0,0,0,0,0,0,0,0,0,0,0,0,0,0,0,0,0,0,0,0,0,0,0,0,0,0],"sum_hessian":[4.26E2,2.99E2,1.27E2,2.18E2,8.1E1,4.6E1,8.1E1,1.41E2,7.7E1,3.6E1,4.5E1,3E0,4.3E1,5.9E1,8.2E1,4.1E1,3.6E1,3E1,6E0,1.8E1,2.7E1,9E0,2.1E1,8E0,1E1,5E0,2.2E1,1.8E1,3E0,3E0,5E0,4E0,6E0,1.1E1,1.1E1],"tree_param":{"num_deleted":"0","num_feature":"33","num_nodes":"35","size_leaf_vector":"1"}},{"base_weights":[-4.490029E-3,-8.133707E-2,1.9508202E-1,-1.1529413E-1,-2.9136641E-2,3.944578E-3,2.048722E-1,-4.2233444E-3,-9.7237244E-2,-5.0099824E-2,5.9836283E-3,5.5455654E-3,6.8971734E-3,-3.1882247E-3,-2.4667173E-3,-1.8932868E-3,-3.293809E-2,-4.3604476E-3,1.6067546E-2,-4.4373318E-4,-3.486465E-2,-1.0634275E-2,3.4504803E-3,8.920083E-3,2.3053862E-2,-1.1706883E-3,-6.793728E-4,-3.7621593E-4,-9.630203E-5,-8.742571E-5,1.8604516E-4,3.5983563E-4,1.649773E-4,2.8374195E-4,8.0910086E-4],"categories":[],"categories_nodes":[],"categories_segments":[],"categories_sizes":[],"default_left":[0,0,0,0,0,0,0,0,0,0,0,0,0,0,0,0,0,0,0,0,0,0,0,0,0,0,0,0,0,0,0,0,0,0,0],"id":27,"left_children":[1,3,5,7,9,-1,11,-1,13,15,17,-1,-1,-1,-1,-1,19,21,23,-1,25,27,29,31,33,-1,-1,-1,-1,-1,-1,-1,-1,-1,-1],"loss_changes":[6.288505E0,5.2132213E-1,4.404068E-2,6.868029E-2,8.7175235E-2,0E0,6.1149597E-3,0E0,5.914569E-3,1.4443234E-2,4.7639585E-3,0E0,0E0,0E0,0E0,0E0,6.7299604E-4,1.1637951E-3,9.428491E-4,0E0,6.4058974E-4,1.4372566E-4,2.1067543E-4,7.076224E-5,3.3059344E-4,0E0,0E0,0E0,0E0,0E0,0E0,0E0,0E0,0E0,0E0],"parents":[2147483647,0,0,1,1,2,2,3,3,4,4,6,6,8,8,9,9,10,10,16,16,17,17,18,18,20,20,21,21,22,22,23,23,24,24],"right_children":[2,4,6,8,10,-1,12,-1,14,16,18,-1,-1,-1,-1,-1,20,22,24,-1,26,28,30,32,34,-1,-1,-1,-1,-1,-1,-1,-1,-1,-1],"split_conditions":[2.5E1,1.2448394E1,1.30057E1,1.237E1,1.258E1,3.944578E-3,1.312E1,-4.2233444E-3,1.244E1,1.253E1,4.390134E1,5.5455654E-3,6.8971734E-3,-3.1882247E-3,-2.4667173E-3,-1.8932868E-3,1.2459293E1,1.261E1,5.713136E1,-4.4373318E-4,1.5666667E1,-4.7576886E-2,3.861484E1,3.25E5,-1.8125888E-2,-1.1706883E-3,-6.793728E-4,-3.7621593E-4,-9.630203E-5,-8.742571E-5,1.8604516E-4,3.5983563E-4,1.649773E-4,2.8374195E-4,8.0910086E-4],"split_indices":[27,8,8,2,1,0,2,0,2,2,9,0,0,0,0,0,13,1,9,0,32,14,9,24,14,0,0,0,0,0,0,0,0,0,0],"split_type":[0,0,0,0,0,0,0,0,0,0,0,0,0,0,0,0,0,0,0,0,0,0,0,0,0,0,0,0,0,0,0,0,0,0,0],"sum_hessian":[4.08E2,2.95E2,1.13E2,1.78E2,1.17E2,1.7E1,9.6E1,7.1E1,1.07E2,7.3E1,4.4E1,5.8E1,3.8E1,6.3E1,4.4E1,4E1,3.3E1,2.2E1,2.2E1,4E0,2.9E1,1.2E1,1E1,1.2E1,1E1,2E1,9E0,9E0,3E0,3E0,7E0,5E0,7E0,3E0,7E0],"tree_param":{"num_deleted":"0","num_feature":"33","num_nodes":"35","size_leaf_vector":"1"}},{"base_weights":[-4.0833214E-3,-7.6815344E-2,1.9118056E-1,-1.02736086E-1,-8.212752E-3,5.0744037E-3,6.5697455E-3,-1.2143476E-1,-7.2325096E-2,-2.9165117E-2,8.545637E-3,-4.330272E-3,-3.3424597E-3,-2.4101886E-3,-1.8412106E-3,-3.152205E-2,-2.1914863E-4,-3.5866688E-3,1.5944576E-2,-1.173751E-3,-2.4952343E-2,-6.7231995E-3,1.2989044E-4,1.0727346E-2,6.133995E-4,-3.3628463E-4,-8.257972E-4,-3.1387463E-4,-7.8327656E-5,2.050805E-4,5.37632E-4],"categories":[],"categories_nodes":[],"categories_segments":[],"categories_sizes":[],"default_left":[0,0,0,0,0,0,0,0,0,0,0,0,0,0,0,0,0,0,0,0,0,0,0,0,0,0,0,0,0,0,0],"id":28,"left_children":[1,3,5,7,9,-1,-1,11,13,15,17,-1,-1,-1,-1,19,-1,21,23,-1,25,27,-1,29,-1,-1,-1,-1,-1,-1,-1],"loss_changes":[5.965297E0,5.4329455E-1,3.281498E-2,1.17456675E-1,3.0095102E-2,0E0,0E0,1.51331425E-2,2.7053058E-3,1.7276071E-3,4.365965E-3,0E0,0E0,0E0,0E0,7.2201714E-4,0E0,5.008769E-4,4.8531266E-4,0E0,4.343642E-4,1.8796115E-4,0E0,3.2538152E-4,0E0,0E0,0E0,0E0,0E0,0E0,0E0],"parents":[2147483647,0,0,1,1,2,2,3,3,4,4,7,7,8,8,9,9,10,10,15,15,17,17,18,18,20,20,21,21,23,23],"right_children":[2,4,6,8,10,-1,-1,12,14,16,18,-1,-1,-1,-1,20,-1,22,24,-1,26,28,-1,30,-1,-1,-1,-1,-1,-1,-1],"split_conditions":[1.2735129E1,1.254E1,1.311E1,1.243E1,1.259E1,5.0744037E-3,6.5697455E-3,1.231E1,1.247E1,1.2643E1,1.263E1,-4.330272E-3,-3.3424597E-3,-2.4101886E-3,-1.8412106E-3,1.254E1,-2.1914863E-4,4.4766853E1,1.268E1,-1.173751E-3,-1.5923567E-3,1.262E1,1.2989044E-4,1.266E1,6.133995E-4,-3.3628463E-4,-8.257972E-4,-3.1387463E-4,-7.8327656E-5,2.050805E-4,5.37632E-4],"split_indices":[13,2,2,2,1,0,0,1,2,7,1,0,0,0,0,17,0,9,2,0,21,18,0,17,0,0,0,0,0,0,0],"split_type":[0,0,0,0,0,0,0,0,0,0,0,0,0,0,0,0,0,0,0,0,0,0,0,0,0,0,0,0,0,0,0],"sum_hessian":[4.18E2,3.05E2,1.13E2,2.21E2,8.4E1,6.7E1,4.6E1,1.35E2,8.6E1,3.7E1,4.7E1,3.7E1,9.8E1,4.6E1,4E1,3.3E1,4E0,1.8E1,2.9E1,1.3E1,2E1,1.3E1,5E0,1.5E1,1.4E1,4E0,1.6E1,6E0,7E0,1.1E1,4E0],"tree_param":{"num_deleted":"0","num_feature":"33","num_nodes":"31","size_leaf_vector":"1"}},{"base_weights":[-4.6451503E-4,-7.634644E-2,1.8734711E-1,-1.027717E-1,-6.975622E-3,1.5259154E-1,6.1035985E-3,-1.2130362E-1,-7.517254E-2,-3.243828E-2,9.636991E-3,2.2851562E-3,4.758936E-3,-4.4328175E-3,-3.3590028E-3,-2.5016186E-3,-1.803476E-3,-4.1491984E-4,-3.383802E-2,-5.7043853E-5,1.9721068E-2,-3.6382753E-2,-2.0279203E-2,2.1030176E-3,-2.9945755E-4,9.2803E-4,1.6112145E-2,-1.1838385E-3,-6.171083E-4,-8.0828904E-4,-2.563691E-4,-1.4183362E-4,1.8183899E-4,2.921877E-4,6.0239795E-4],"categories":[],"categories_nodes":[],"categories_segments":[],"categories_sizes":[],"default_left":[0,0,0,0,0,0,0,0,0,0,0,0,0,0,0,0,0,0,0,0,0,0,0,0,0,0,0,0,0,0,0,0,0,0,0],"id":29,"left_children":[1,3,5,7,9,11,-1,13,15,17,19,-1,-1,-1,-1,-1,-1,-1,21,23,25,27,29,31,-1,-1,33,-1,-1,-1,-1,-1,-1,-1,-1],"loss_changes":[5.9429307E0,5.4372644E-1,3.6128044E-2,1.0084629E-1,3.5421714E-2,7.3018074E-3,0E0,1.4827967E-2,5.9951544E-3,3.9150938E-4,4.9866503E-3,0E0,0E0,0E0,0E0,0E0,0E0,0E0,2.9729307E-4,5.998273E-4,5.13277E-4,3.565736E-4,3.1708344E-4,6.505364E-4,0E0,0E0,3.354135E-4,0E0,0E0,0E0,0E0,0E0,0E0,0E0,0E0],"parents":[2147483647,0,0,1,1,2,2,3,3,4,4,5,5,7,7,8,8,9,9,10,10,18,18,19,19,20,20,21,21,22,22,23,23,26,26],"right_children":[2,4,6,8,10,12,-1,14,16,18,20,-1,-1,-1,-1,-1,-1,-1,22,24,26,28,30,32,-1,-1,34,-1,-1,-1,-1,-1,-1,-1,-1],"split_conditions":[1.2735129E1,1.253E1,1.308E1,1.242E1,1.26E1,1.295E1,6.1035985E-3,1.232E1,1.247E1,1.2459293E1,4.6483078E1,2.2851562E-3,4.758936E-3,-4.4328175E-3,-3.3590028E-3,-2.5016186E-3,-1.803476E-3,-4.1491984E-4,1.5873016E-3,1.5847861E-3,1.15E1,-2.5121477E-3,7.980846E-4,3.861484E1,-2.9945755E-4,9.2803E-4,2.5E1,-1.1838385E-3,-6.171083E-4,-8.0828904E-4,-2.563691E-4,-1.4183362E-4,1.8183899E-4,2.921877E-4,6.0239795E-4],"split_indices":[13,2,2,2,2,17,0,17,2,13,9,0,0,0,0,0,0,0,22,20,32,14,20,9,0,0,30,0,0,0,0,0,0,0,0],"split_type":[0,0,0,0,0,0,0,0,0,0,0,0,0,0,0,0,0,0,0,0,0,0,0,0,0,0,0,0,0,0,0,0,0,0,0],"sum_hessian":[4.15E2,2.96E2,1.19E2,2.14E2,8.2E1,4.1E1,7.8E1,1.26E2,8.8E1,3.2E1,5E1,4E0,3.7E1,2.9E1,9.7E1,5.4E1,3.4E1,3E0,2.9E1,2.6E1,2.4E1,2.3E1,6E0,2.2E1,4E0,4E0,2E1,1.8E1,5E0,3E0,3E0,8E0,1.4E1,9E0,1.1E1],"tree_param":{"num_deleted":"0","num_feature":"33","num_nodes":"35","size_leaf_vector":"1"}},{"base_weights":[5.2901305E-4,-7.193552E-2,1.8106109E-1,-1.0021413E-1,-1.1260022E-2,4.8255594E-3,6.135602E-3,-1.1779686E-1,-7.66291E-2,-3.4673E-2,8.701119E-3,-4.0403823E-3,-3.247497E-3,-2.4858282E-3,-1.8607968E-3,-1.3130441E-3,-2.3060571E-2,1.3745748E-3,1.5693005E-2,-8.075073E-4,-4.0288208E-4,-3.7089076E-3,6.7433575E-3,1.4947414E-4,1.68734E-2,-3.49695E-5,-2.9326914E-4,3.4309385E-5,2.7315138E-4,2.2284508E-4,5.5412744E-4],"categories":[],"categories_nodes":[],"categories_segments":[],"categories_sizes":[],"default_left":[0,0,0,0,0,0,0,0,0,0,0,0,0,0,0,0,0,0,0,0,0,0,0,0,0,0,0,0,0,0,0],"id":30,"left_children":[1,3,5,7,9,-1,-1,11,13,15,17,-1,-1,-1,-1,-1,19,21,23,-1,-1,25,27,-1,29,-1,-1,-1,-1,-1,-1],"loss_changes":[5.298223E0,4.9474323E-1,2.2096395E-2,7.266712E-2,4.3765225E-2,0E0,0E0,3.311634E-3,2.7774572E-3,3.5321973E-3,2.590973E-3,0E0,0E0,0E0,0E0,0E0,4.1848328E-4,7.346054E-4,2.4463842E-4,0E0,0E0,2.0461467E-4,1.6150915E-4,0E0,2.0983955E-4,0E0,0E0,0E0,0E0,0E0,0E0],"parents":[2147483647,0,0,1,1,2,2,3,3,4,4,7,7,8,8,9,9,10,10,16,16,17,17,18,18,21,21,22,22,24,24],"right_children":[2,4,6,8,10,-1,-1,12,14,16,18,-1,-1,-1,-1,-1,20,22,24,-1,-1,26,28,-1,30,-1,-1,-1,-1,-1,-1],"split_conditions":[1.2887195E1,1.2486396E1,1.311E1,1.237E1,1.259E1,4.8255594E-3,6.135602E-3,1.231E1,1.2443131E1,1.254E1,1.264E1,-4.0403823E-3,-3.247497E-3,-2.4858282E-3,-1.8607968E-3,-1.3130441E-3,2.4E1,1.264E1,1.258E1,-8.075073E-4,-4.0288208E-4,1.0030349E-2,1.263E1,1.4947414E-4,1.267E1,-3.49695E-5,-2.9326914E-4,3.4309385E-5,2.7315138E-4,2.2284508E-4,5.5412744E-4],"split_indices":[8,8,2,1,1,0,0,1,8,17,1,0,0,0,0,0,27,18,17,0,0,6,17,0,2,0,0,0,0,0,0],"split_type":[0,0,0,0,0,0,0,0,0,0,0,0,0,0,0,0,0,0,0,0,0,0,0,0,0,0,0,0,0,0,0],"sum_hessian":[4.03E2,2.88E2,1.15E2,1.96E2,9.2E1,6.6E1,4.9E1,1.1E2,8.6E1,4.2E1,5E1,3.5E1,7.5E1,5.7E1,2.9E1,2.2E1,2E1,2.5E1,2.5E1,1.3E1,7E0,1.3E1,1.2E1,3E0,2.2E1,1E1,3E0,4E0,8E0,4E0,1.8E1],"tree_param":{"num_deleted":"0","num_feature":"33","num_nodes":"31","size_leaf_vector":"1"}},{"base_weights":[4.371695E-3,-7.0412844E-2,1.7669255E-1,-1.0026894E-1,-1.6232932E-2,4.7900914E-3,6.1668544E-3,-1.22974E-1,-8.405352E-2,-3.6103263E-2,8.529206E-3,-4.379679E-3,-3.3334058E-3,-2.7790144E-3,-6.773177E-2,-1.5003914E-3,-2.5136184E-2,-2.8937128E-3,1.4886733E-2,-2.1106368E-3,-1.1949635E-3,-2.7383866E-2,-1.8519974E-4,-3.255149E-4,1.9888878E-3,1.6115086E-2,7.6997276E-5,-2.4036884E-4,-8.751971E-4,-1.1330604E-4,1.9940513E-4,2.8762643E-4,5.762657E-4],"categories":[],"categories_nodes":[],"categories_segments":[],"categories_sizes":[],"default_left":[0,0,0,0,0,0,0,0,0,0,0,0,0,0,0,0,0,0,0,0,0,0,0,0,0,0,0,0,0,0,0,0,0],"id":31,"left_children":[1,3,5,7,9,-1,-1,11,13,15,17,-1,-1,-1,19,-1,21,23,25,-1,-1,27,-1,-1,29,31,-1,-1,-1,-1,-1,-1,-1],"loss_changes":[5.450728E0,4.7556448E-1,3.0081749E-2,5.9616327E-2,5.2463308E-2,0E0,0E0,4.797578E-3,9.69094E-3,7.743299E-3,3.5289105E-3,0E0,0E0,0E0,3.4417212E-4,0E0,1.3227388E-3,7.2087685E-4,4.2777834E-4,0E0,0E0,8.4080733E-4,0E0,0E0,3.4738347E-4,3.812858E-4,0E0,0E0,0E0,0E0,0E0,0E0,0E0],"parents":[2147483647,0,0,1,1,2,2,3,3,4,4,7,7,8,8,9,9,10,10,14,14,16,16,17,17,18,18,21,21,24,24,25,25],"right_children":[2,4,6,8,10,-1,-1,12,14,16,18,-1,-1,-1,20,-1,22,24,26,-1,-1,28,-1,-1,30,32,-1,-1,-1,-1,-1,-1,-1],"split_conditions":[1.284E1,1.247E1,1.31E1,1.236E1,1.26E1,4.7900914E-3,6.1668544E-3,1.231E1,1.243E1,1.252E1,1.264E1,-4.379679E-3,-3.3334058E-3,-2.7790144E-3,5.524E5,-1.5003914E-3,8.921E5,1.261E1,4.765687E-3,-2.1106368E-3,-1.1949635E-3,-7.353261E-2,-1.8519974E-4,-3.255149E-4,-7.930214E-4,1.267E1,7.6997276E-5,-2.4036884E-4,-8.751971E-4,-1.1330604E-4,1.9940513E-4,2.8762643E-4,5.762657E-4],"split_indices":[2,3,3,3,3,0,0,3,3,3,3,0,0,0,23,0,24,0,22,0,0,14,0,0,22,2,0,0,0,0,0,0,0],"split_type":[0,0,0,0,0,0,0,0,0,0,0,0,0,0,0,0,0,0,0,0,0,0,0,0,0,0,0,0,0,0,0,0,0],"sum_hessian":[4.21E2,2.94E2,1.27E2,1.89E2,1.05E2,8.4E1,4.3E1,7.6E1,1.13E2,5.8E1,4.7E1,2.2E1,5.4E1,7.1E1,4.2E1,2.4E1,3.4E1,1.7E1,3E1,3.7E1,5E0,3E1,4E0,6E0,1.1E1,2.7E1,3E0,3E0,2.7E1,5E0,6E0,1E1,1.7E1],"tree_param":{"num_deleted":"0","num_feature":"33","num_nodes":"33","size_leaf_vector":"1"}},{"base_weights":[6.8159675E-4,-7.026356E-2,1.7161494E-1,-1.00877434E-1,-1.994816E-2,4.6548387E-3,6.0702907E-3,-1.1425913E-1,-2.3507003E-3,-3.8038228E-2,1.0929411E-2,-4.303197E-3,-3.1914501E-3,-1.5224417E-3,-2.533074E-2,-1.5675862E-3,1.6813597E-2,-9.331312E-4,-1.8290568E-2,-4.3373904E-3,2.1401167E-4,1.205871E-2,2.2941032E-2,-3.962606E-4,-9.2683407E-4,-2.3350443E-4,1.2178421E-5,5.331859E-4,1.5416049E-4,2.9278564E-4,8.493554E-4],"categories":[],"categories_nodes":[],"categories_segments":[],"categories_sizes":[],"default_left":[0,0,0,0,0,0,0,0,0,0,0,0,0,0,0,0,0,0,0,0,0,0,0,0,0,0,0,0,0,0,0],"id":32,"left_children":[1,3,5,7,9,-1,-1,11,-1,13,15,-1,-1,-1,17,19,21,-1,23,25,-1,27,29,-1,-1,-1,-1,-1,-1,-1,-1],"loss_changes":[5.2508755E0,4.693346E-1,3.2814026E-2,4.8306584E-2,6.5769285E-2,0E0,0E0,1.1635423E-2,0E0,1.0666251E-2,3.261881E-3,0E0,0E0,0E0,1.0163318E-3,3.9245555E-4,5.974192E-4,0E0,8.7295566E-4,1.9931135E-4,0E0,6.599708E-4,5.732351E-4,0E0,0E0,0E0,0E0,0E0,0E0,0E0,0E0],"parents":[2147483647,0,0,1,1,2,2,3,3,4,4,7,7,9,9,10,10,14,14,15,15,16,16,18,18,19,19,21,21,22,22],"right_children":[2,4,6,8,10,-1,-1,12,-1,14,16,-1,-1,-1,18,20,22,-1,24,26,-1,28,30,-1,-1,-1,-1,-1,-1,-1,-1],"split_conditions":[1.28E1,1.246E1,1.31E1,1.238E1,1.261E1,4.6548387E-3,6.0702907E-3,1.23E1,-2.3507003E-3,1.252E1,1.264E1,-4.303197E-3,-3.1914501E-3,-1.5224417E-3,1.256E1,1.265E1,3.787E5,-9.331312E-4,-5.413937E-3,3.166E5,2.1401167E-4,1.01366E7,8.8077E6,-3.962606E-4,-9.2683407E-4,-2.3350443E-4,1.2178421E-5,5.331859E-4,1.5416049E-4,2.9278564E-4,8.493554E-4],"split_indices":[3,3,3,3,3,0,0,3,0,3,3,0,0,0,3,19,4,0,15,24,0,16,16,0,0,0,0,0,0,0,0],"split_type":[0,0,0,0,0,0,0,0,0,0,0,0,0,0,0,0,0,0,0,0,0,0,0,0,0,0,0,0,0,0,0],"sum_hessian":[4.31E2,3.05E2,1.26E2,1.89E2,1.16E2,8.6E1,4E1,1.16E2,7.3E1,7.3E1,4.3E1,2.1E1,9.5E1,3.5E1,3.8E1,1.4E1,2.9E1,1.9E1,1.9E1,1.1E1,3E0,1.8E1,1.1E1,1.5E1,4E0,6E0,5E0,9E0,9E0,4E0,7E0],"tree_param":{"num_deleted":"0","num_feature":"33","num_nodes":"31","size_leaf_vector":"1"}},{"base_weights":[-9.605946E-4,-6.72711E-2,1.6392823E-1,-9.5925115E-2,-1.5072244E-2,3.9661503E-3,5.3782635E-3,-1.0869555E-1,-2.00727E-3,-3.2193344E-2,1.0986209E-2,-3.9029578E-3,-2.946701E-3,-4.1887097E-2,-1.6946603E-2,2.4635575E-3,2.0276321E-2,-4.3769192E-2,-7.554531E-4,-7.798301E-3,-2.0792961E-2,-3.1228065E-3,8.333813E-3,8.9352607E-4,1.4753206E-2,-1.3604797E-3,-6.5297843E-4,-3.7043093E-4,2.9261111E-5,-7.302945E-4,-9.507179E-5,-1.6429584E-4,8.861303E-5,1.3225364E-4,2.9841287E-4,1.9992828E-4,4.90603E-4],"categories":[],"categories_nodes":[],"categories_segments":[],"categories_sizes":[],"default_left":[0,0,0,0,0,0,0,0,0,0,0,0,0,0,0,0,0,0,0,0,0,0,0,0,0,0,0,0,0,0,0,0,0,0,0,0,0],"id":33,"left_children":[1,3,5,7,9,-1,-1,11,-1,13,15,-1,-1,17,19,21,23,25,-1,27,29,31,33,-1,35,-1,-1,-1,-1,-1,-1,-1,-1,-1,-1,-1,-1],"loss_changes":[4.2314982E0,4.113692E-1,3.0340433E-2,5.8684945E-2,4.4522464E-2,0E0,0E0,1.4565945E-2,0E0,8.158047E-3,3.1171036E-3,0E0,0E0,2.9690564E-5,7.175412E-4,7.474794E-4,5.5833673E-4,9.0736896E-5,0E0,3.7127786E-4,9.865141E-4,1.8780713E-4,2.5808462E-5,0E0,7.2233845E-5,0E0,0E0,0E0,0E0,0E0,0E0,0E0,0E0,0E0,0E0,0E0,0E0],"parents":[2147483647,0,0,1,1,2,2,3,3,4,4,7,7,9,9,10,10,13,13,14,14,15,15,16,16,17,17,19,19,20,20,21,21,22,22,24,24],"right_children":[2,4,6,8,10,-1,-1,12,-1,14,16,-1,-1,18,20,22,24,26,-1,28,30,32,34,-1,36,-1,-1,-1,-1,-1,-1,-1,-1,-1,-1,-1,-1],"split_conditions":[2.5E1,1.248E1,1.308E1,1.243E1,1.263E1,3.9661503E-3,5.3782635E-3,1.234E1,-2.00727E-3,1.257E1,1.267E1,-3.9029578E-3,-2.946701E-3,1.256E1,-2.776408E-2,3.268E5,3.1556133E-2,8.019246E-4,-7.554531E-4,1.261E1,1.037E6,1.2647E1,1.265E1,8.9352607E-4,1.262E1,-1.3604797E-3,-6.5297843E-4,-3.7043093E-4,2.9261111E-5,-7.302945E-4,-9.507179E-5,-1.6429584E-4,8.861303E-5,1.3225364E-4,2.9841287E-4,1.9992828E-4,4.90603E-4],"split_indices":[27,17,2,2,2,0,0,2,0,2,2,0,0,17,15,25,11,5,0,17,24,7,19,0,17,0,0,0,0,0,0,0,0,0,0,0,0],"split_type":[0,0,0,0,0,0,0,0,0,0,0,0,0,0,0,0,0,0,0,0,0,0,0,0,0,0,0,0,0,0,0,0,0,0,0,0,0],"sum_hessian":[3.85E2,2.75E2,1.1E2,1.77E2,9.8E1,3.9E1,7.1E1,1.21E2,5.6E1,5.9E1,3.9E1,3.6E1,8.5E1,3.5E1,2.4E1,2.1E1,1.8E1,3E1,5E0,8E0,1.6E1,1.1E1,1E1,5E0,1.3E1,2.7E1,3E0,5E0,3E0,1.3E1,3E0,8E0,3E0,4E0,6E0,3E0,1E1],"tree_param":{"num_deleted":"0","num_feature":"33","num_nodes":"37","size_leaf_vector":"1"}},{"base_weights":[3.1823767E-3,-6.56288E-2,1.5974337E-1,-8.7875575E-2,-9.355143E-3,1.2705956E-1,1.7227061E-1,-1.018203E-1,-6.30102E-2,-2.9203666E-2,7.2448356E-3,1.5949273E-3,3.952222E-3,4.7802147E-3,6.132179E-3,-3.5013335E-3,-2.6958499E-3,-6.570673E-2,-1.2878537E-3,-1.0953569E-3,-2.2849953E-2,3.7606558E-4,1.8940028E-2,-9.5594645E-4,-2.0043736E-3,-2.9192751E-2,-1.5725283E-2,-6.2138815E-3,3.981733E-3,2.542877E-4,2.2593578E-2,-4.563975E-4,-9.760022E-4,-5.5430026E-4,-1.4746428E-4,-3.0326843E-4,1.445961E-5,2.2184371E-4,1.5509344E-5,9.2538353E-4,4.924615E-4],"categories":[],"categories_nodes":[],"categories_segments":[],"categories_sizes":[],"default_left":[0,0,0,0,0,0,0,0,0,0,0,0,0,0,0,0,0,0,0,0,0,0,0,0,0,0,0,0,0,0,0,0,0,0,0,0,0,0,0,0,0],"id":34,"left_children":[1,3,5,7,9,11,13,15,17,19,21,-1,-1,-1,-1,-1,-1,23,-1,-1,25,27,29,-1,-1,31,33,35,37,-1,39,-1,-1,-1,-1,-1,-1,-1,-1,-1,-1],"loss_changes":[4.481339E0,3.6097932E-1,3.0109882E-2,6.535959E-2,2.7558837E-2,6.4868927E-3,4.4107437E-3,1.2839794E-2,1.3489425E-3,9.302087E-4,3.6881298E-3,0E0,0E0,0E0,0E0,0E0,0E0,3.4072995E-4,0E0,0E0,5.803127E-4,7.3757686E-4,4.5839977E-4,0E0,0E0,1.8768944E-5,2.9582484E-4,2.917617E-4,2.3268527E-4,0E0,1.054788E-4,0E0,0E0,0E0,0E0,0E0,0E0,0E0,0E0,0E0,0E0],"parents":[2147483647,0,0,1,1,2,2,3,3,4,4,5,5,6,6,7,7,8,8,9,9,10,10,17,17,20,20,21,21,22,22,25,25,26,26,27,27,28,28,30,30],"right_children":[2,4,6,8,10,12,14,16,18,20,22,-1,-1,-1,-1,-1,-1,24,-1,-1,26,28,30,-1,-1,32,34,36,38,-1,40,-1,-1,-1,-1,-1,-1,-1,-1,-1,-1],"split_conditions":[2.5E1,1.2526033E1,1.304E1,1.241E1,1.259E1,1.279E1,5.149093E-2,1.233E1,2.4135157E-3,1.254E1,1.265E1,1.5949273E-3,3.952222E-3,4.7802147E-3,6.132179E-3,-3.5013335E-3,-2.6958499E-3,-2.3905998E-2,-1.2878537E-3,-1.0953569E-3,3.158E5,1.262E1,-2.4340203E-2,-9.5594645E-4,-2.0043736E-3,-2.469481E-2,1.259E1,1.261E1,1.4E1,2.542877E-4,2.6106902E-3,-4.563975E-4,-9.760022E-4,-5.5430026E-4,-1.4746428E-4,-3.0326843E-4,1.445961E-5,2.2184371E-4,1.5509344E-5,9.2538353E-4,4.924615E-4],"split_indices":[27,8,17,17,1,1,11,1,22,17,1,0,0,0,0,0,0,15,0,0,23,18,15,0,0,15,18,1,29,0,6,0,0,0,0,0,0,0,0,0,0],"split_type":[0,0,0,0,0,0,0,0,0,0,0,0,0,0,0,0,0,0,0,0,0,0,0,0,0,0,0,0,0,0,0,0,0,0,0,0,0,0,0,0,0],"sum_hessian":[4.14E2,2.88E2,1.26E2,2.06E2,8.2E1,3.8E1,8.8E1,1.3E2,7.6E1,3.7E1,4.5E1,3E0,3.5E1,6.7E1,2.1E1,5.4E1,7.6E1,6.5E1,1.1E1,1.5E1,2.2E1,2.9E1,1.6E1,3E0,6.2E1,1E1,1.2E1,1E1,1.9E1,5E0,1.1E1,3E0,7E0,9E0,3E0,6E0,4E0,9E0,1E1,3E0,8E0],"tree_param":{"num_deleted":"0","num_feature":"33","num_nodes":"41","size_leaf_vector":"1"}},{"base_weights":[-1.8305241E-3,-6.3123435E-2,1.5679437E-1,-9.260616E-2,-2.2286072E-2,3.670326E-3,4.952902E-3,-3.5260776E-3,-8.041283E-2,-4.0039364E-2,5.1446534E-3,-2.6892934E-3,-1.9525326E-3,-4.8612423E-2,-2.6732266E-2,-2.543106E-3,1.2338858E-2,-6.907654E-4,-4.9891837E-2,-2.8507266E-2,-3.4337424E-4,-8.335537E-3,6.730697E-4,8.188908E-3,1.5311037E-2,-1.5356658E-3,-7.4318645E-4,-3.532934E-4,-9.013172E-4,-3.330288E-4,-1.17090225E-4,-1.2745221E-4,1.6559282E-4,1.2088179E-4,3.711033E-4,1.992359E-4,5.434456E-4],"categories":[],"categories_nodes":[],"categories_segments":[],"categories_sizes":[],"default_left":[0,0,0,0,0,0,0,0,0,0,0,0,0,0,0,0,0,0,0,0,0,0,0,0,0,0,0,0,0,0,0,0,0,0,0,0,0],"id":35,"left_children":[1,3,5,7,9,-1,-1,-1,11,13,15,-1,-1,17,19,21,23,-1,25,27,-1,29,31,33,35,-1,-1,-1,-1,-1,-1,-1,-1,-1,-1,-1,-1],"loss_changes":[3.9767106E0,3.531152E-1,1.2407303E-2,4.252863E-2,6.1079197E-2,0E0,0E0,0E0,1.086092E-2,7.370755E-3,2.7967447E-3,0E0,0E0,3.2433122E-4,5.419813E-4,4.7134736E-4,1.9531371E-4,0E0,1.0025501E-4,3.660489E-4,0E0,6.6993234E-5,4.2894913E-4,1.7624901E-4,2.2001658E-4,0E0,0E0,0E0,0E0,0E0,0E0,0E0,0E0,0E0,0E0,0E0,0E0],"parents":[2147483647,0,0,1,1,2,2,3,3,4,4,8,8,9,9,10,10,13,13,14,14,15,15,16,16,18,18,19,19,21,21,22,22,23,23,24,24],"right_children":[2,4,6,8,10,-1,-1,-1,12,14,16,-1,-1,18,20,22,24,-1,26,28,-1,30,32,34,36,-1,-1,-1,-1,-1,-1,-1,-1,-1,-1,-1,-1],"split_conditions":[2.5E1,1.247E1,1.303E1,1.232E1,1.258E1,3.670326E-3,4.952902E-3,-3.5260776E-3,1.239E1,1.25E1,4.7505077E1,-2.6892934E-3,-1.9525326E-3,1.5736552E-3,1.3049E6,3.6838577E1,3.32E5,-6.907654E-4,4.0420373E-3,-2.5009826E-2,-3.4337424E-4,1.261E1,2.4152265E-3,1.266E1,2.5943853E-3,-1.5356658E-3,-7.4318645E-4,-3.532934E-4,-9.013172E-4,-3.330288E-4,-1.17090225E-4,-1.2745221E-4,1.6559282E-4,1.2088179E-4,3.711033E-4,1.992359E-4,5.434456E-4],"split_indices":[27,2,17,1,1,0,0,0,1,1,9,0,0,6,24,9,25,0,21,15,0,17,6,19,6,0,0,0,0,0,0,0,0,0,0,0,0],"split_type":[0,0,0,0,0,0,0,0,0,0,0,0,0,0,0,0,0,0,0,0,0,0,0,0,0,0,0,0,0,0,0,0,0,0,0,0,0],"sum_hessian":[4.07E2,2.94E2,1.13E2,1.7E2,1.24E2,2.5E1,8.8E1,5.3E1,1.17E2,7.5E1,4.9E1,7E1,4.7E1,4.4E1,3.1E1,2.4E1,2.5E1,3E0,4.1E1,2.7E1,4E0,8E0,1.6E1,1.2E1,1.3E1,3.8E1,3E0,3E0,2.4E1,4E0,4E0,8E0,8E0,7E0,5E0,4E0,9E0],"tree_param":{"num_deleted":"0","num_feature":"33","num_nodes":"37","size_leaf_vector":"1"}},{"base_weights":[-2.0569344E-3,-6.1317105E-2,1.5152209E-1,-8.6355895E-2,-1.51491435E-2,1.40568E-1,5.743156E-3,-1.0615967E-1,-7.2000645E-2,-3.178756E-2,7.2441725E-3,1.6867089E-3,4.2819222E-3,-3.7903462E-3,-2.9298582E-3,-2.4479618E-3,-6.043126E-2,-1.2637186E-3,-2.110383E-2,2.759695E-4,1.4200376E-2,-6.204803E-2,-7.170367E-4,-2.169156E-4,-2.2289671E-2,-7.48384E-3,3.911411E-3,1.5910625E-4,1.6377078E-2,-9.1633556E-4,-1.8998204E-3,-7.283711E-4,-3.1851768E-4,-9.389877E-5,-2.841053E-4,-6.814479E-5,2.0030736E-4,6.0949323E-4,3.358183E-4],"categories":[],"categories_nodes":[],"categories_segments":[],"categories_sizes":[],"default_left":[0,0,0,0,0,0,0,0,0,0,0,0,0,0,0,0,0,0,0,0,0,0,0,0,0,0,0,0,0,0,0,0,0,0,0,0,0,0,0],"id":36,"left_children":[1,3,5,7,9,11,-1,13,15,17,19,-1,-1,-1,-1,-1,21,-1,23,25,27,29,-1,-1,31,33,35,-1,37,-1,-1,-1,-1,-1,-1,-1,-1,-1,-1],"loss_changes":[3.758952E0,3.4317672E-1,2.3373604E-2,4.7224045E-2,3.9724737E-2,9.122252E-3,0E0,1.2117028E-3,7.838964E-3,5.847335E-3,2.2258041E-3,0E0,0E0,0E0,0E0,0E0,1.8243939E-3,0E0,3.6528334E-4,7.063204E-4,3.5855593E-4,2.0176172E-4,0E0,0E0,4.1562412E-4,3.9544946E-5,3.0584662E-4,0E0,1.4010724E-4,0E0,0E0,0E0,0E0,0E0,0E0,0E0,0E0,0E0,0E0],"parents":[2147483647,0,0,1,1,2,2,3,3,4,4,5,5,7,7,8,8,9,9,10,10,16,16,18,18,19,19,20,20,21,21,24,24,25,25,26,26,28,28],"right_children":[2,4,6,8,10,12,-1,14,16,18,20,-1,-1,-1,-1,-1,22,-1,24,26,28,30,-1,-1,32,34,36,-1,38,-1,-1,-1,-1,-1,-1,-1,-1,-1,-1],"split_conditions":[2.5E1,1.248E1,1.22324275E-2,1.236E1,1.259E1,1.279E1,5.743156E-3,1.23E1,1.242E1,1.253E1,1.264E1,1.6867089E-3,4.2819222E-3,-3.7903462E-3,-2.9298582E-3,-2.4479618E-3,9.47E5,-1.2637186E-3,-1.1539324E-1,3.790676E1,1.262E1,1.0166667E1,-7.170367E-4,-2.169156E-4,8.921E5,1.2718E1,2.1882048E-3,1.5910625E-4,1.2638E1,-9.1633556E-4,-1.8998204E-3,-7.283711E-4,-3.1851768E-4,-9.389877E-5,-2.841053E-4,-6.814479E-5,2.0030736E-4,6.0949323E-4,3.358183E-4],"split_indices":[27,3,14,3,1,1,0,3,17,3,1,0,0,0,0,0,23,0,14,9,19,32,0,0,25,10,6,0,7,0,0,0,0,0,0,0,0,0,0],"split_type":[0,0,0,0,0,0,0,0,0,0,0,0,0,0,0,0,0,0,0,0,0,0,0,0,0,0,0,0,0,0,0,0,0,0,0,0,0,0,0],"sum_hessian":[4.11E2,2.97E2,1.14E2,1.92E2,1.05E2,9.3E1,2.1E1,7.8E1,1.14E2,6E1,4.5E1,3E0,9E1,1.9E1,5.9E1,5.9E1,5.5E1,2.9E1,3.1E1,2.3E1,2.2E1,5.2E1,3E0,3E0,2.8E1,7E0,1.6E1,5E0,1.7E1,3E0,4.9E1,2.3E1,5E0,3E0,4E0,5E0,1.1E1,8E0,9E0],"tree_param":{"num_deleted":"0","num_feature":"33","num_nodes":"39","size_leaf_vector":"1"}},{"base_weights":[4.3834173E-3,-5.6190506E-2,1.4601289E-1,-7.948695E-2,-4.372041E-3,1.1978858E-1,4.9170484E-3,-9.62492E-2,-6.1058395E-2,-2.1559902E-2,9.531376E-3,1.2191605E-3,3.7094285E-3,-3.4299297E-3,-2.6696392E-3,-2.110029E-3,-4.949657E-2,-7.736178E-4,-7.6864418E-3,2.5922393E-3,1.5603489E-2,-6.8880554E-4,-5.0784048E-2,-3.7155151E-3,-3.5125352E-4,-2.1647073E-4,4.8040207E-3,1.2019838E-2,2.4125371E-2,-1.566096E-3,-7.0625066E-4,-2.1883249E-4,2.3767947E-5,3.06015E-5,2.2670985E-4,1.8577195E-4,4.7623157E-4,9.427857E-4,3.2379627E-4],"categories":[],"categories_nodes":[],"categories_segments":[],"categories_sizes":[],"default_left":[0,0,0,0,0,0,0,0,0,0,0,0,0,0,0,0,0,0,0,0,0,0,0,0,0,0,0,0,0,0,0,0,0,0,0,0,0,0,0],"id":37,"left_children":[1,3,5,7,9,11,-1,13,15,17,19,-1,-1,-1,-1,-1,21,-1,23,25,27,-1,29,31,-1,-1,33,35,37,-1,-1,-1,-1,-1,-1,-1,-1,-1,-1],"loss_changes":[3.551353E0,3.497365E-1,3.8537264E-2,5.590391E-2,2.1951765E-2,1.1469007E-2,0E0,3.3493042E-3,7.028848E-3,2.206359E-3,2.1084482E-3,0E0,0E0,0E0,0E0,0E0,4.3974072E-4,0E0,1.3217918E-4,5.769893E-4,5.345824E-4,0E0,4.721433E-4,1.187094E-4,0E0,0E0,2.1105213E-4,3.7340424E-4,3.4216046E-4,0E0,0E0,0E0,0E0,0E0,0E0,0E0,0E0,0E0,0E0],"parents":[2147483647,0,0,1,1,2,2,3,3,4,4,5,5,7,7,8,8,9,9,10,10,16,16,18,18,19,19,20,20,22,22,23,23,26,26,27,27,28,28],"right_children":[2,4,6,8,10,12,-1,14,16,18,20,-1,-1,-1,-1,-1,22,-1,24,26,28,-1,30,32,-1,-1,34,36,38,-1,-1,-1,-1,-1,-1,-1,-1,-1,-1],"split_conditions":[2.5E1,1.251E1,1.306E1,1.238E1,1.261E1,1.295E1,4.9170484E-3,1.231E1,1.244E1,1.258E1,4.982332E1,1.2191605E-3,3.7094285E-3,-3.4299297E-3,-2.6696392E-3,-2.110029E-3,1.0583333E1,-7.736178E-4,-7.930214E-4,1.26E1,7.115E5,-6.8880554E-4,3.220612E-3,1.263E1,-3.5125352E-4,-2.1647073E-4,1.264E1,2.5E1,2.6106902E-3,-1.566096E-3,-7.0625066E-4,-2.1883249E-4,2.3767947E-5,3.06015E-5,2.2670985E-4,1.8577195E-4,4.7623157E-4,9.427857E-4,3.2379627E-4],"split_indices":[27,3,3,3,3,17,0,3,17,3,9,0,0,0,0,0,32,0,5,19,4,0,21,19,0,0,17,30,6,0,0,0,0,0,0,0,0,0,0],"split_type":[0,0,0,0,0,0,0,0,0,0,0,0,0,0,0,0,0,0,0,0,0,0,0,0,0,0,0,0,0,0,0,0,0,0,0,0,0,0,0],"sum_hessian":[4.12E2,2.89E2,1.23E2,1.99E2,9E1,5.3E1,7E1,1.02E2,9.7E1,4E1,5E1,3E0,5E1,2.5E1,7.7E1,5.1E1,4.6E1,3E1,1E1,2.4E1,2.6E1,3E0,4.3E1,6E0,4E0,4E0,2E1,2E1,6E0,4E1,3E0,3E0,3E0,9E0,1.1E1,9E0,1.1E1,3E0,3E0],"tree_param":{"num_deleted":"0","num_feature":"33","num_nodes":"39","size_leaf_vector":"1"}},{"base_weights":[3.1625354E-3,-5.69028E-2,1.4361979E-1,-8.216001E-2,-1.2641256E-2,1.2544508E-1,5.115762E-3,-1.0181433E-1,-7.14844E-2,-2.9895067E-2,7.335371E-3,1.674757E-3,3.8561246E-3,-3.7363854E-3,-2.7918923E-3,-7.871773E-2,-1.8355778E-3,-3.6236625E-2,-1.8447356E-2,-1.5588648E-3,1.1694966E-2,-2.3979149E-3,-1.1890196E-3,-1.1472572E-3,-4.966965E-4,-1.5061278E-2,-8.975816E-4,3.782696E-3,-6.7272186E-3,1.6242504E-2,7.926941E-3,-5.25259E-4,-1.4120864E-4,-9.455681E-5,2.332592E-4,-2.6124952E-4,-6.2212945E-5,3.395748E-4,6.852207E-4,1.1909866E-4,3.2410707E-4],"categories":[],"categories_nodes":[],"categories_segments":[],"categories_sizes":[],"default_left":[0,0,0,0,0,0,0,0,0,0,0,0,0,0,0,0,0,0,0,0,0,0,0,0,0,0,0,0,0,0,0,0,0,0,0,0,0,0,0,0,0],"id":38,"left_children":[1,3,5,7,9,11,-1,13,15,17,19,-1,-1,-1,-1,21,-1,23,25,27,29,-1,-1,-1,-1,31,-1,33,35,37,39,-1,-1,-1,-1,-1,-1,-1,-1,-1,-1],"loss_changes":[3.408127E0,3.1533355E-1,3.7777662E-2,3.0489922E-2,3.6065277E-2,9.186745E-3,0E0,5.441904E-4,4.1226745E-3,3.3969283E-3,1.918219E-3,0E0,0E0,0E0,0E0,7.778406E-6,0E0,7.4809045E-4,4.0397048E-4,4.9476733E-4,4.3670926E-4,0E0,0E0,0E0,0E0,3.99061E-4,0E0,2.7369097E-4,6.491158E-5,1.9625458E-4,1.847659E-4,0E0,0E0,0E0,0E0,0E0,0E0,0E0,0E0,0E0,0E0],"parents":[2147483647,0,0,1,1,2,2,3,3,4,4,5,5,7,7,8,8,9,9,10,10,15,15,17,17,18,18,19,19,20,20,25,25,27,27,28,28,29,29,30,30],"right_children":[2,4,6,8,10,12,-1,14,16,18,20,-1,-1,-1,-1,22,-1,24,26,28,30,-1,-1,-1,-1,32,-1,34,36,38,40,-1,-1,-1,-1,-1,-1,-1,-1,-1,-1],"split_conditions":[1.27E1,1.248E1,1.31E1,1.235E1,1.259E1,1.295E1,5.115762E-3,1.229E1,1.244E1,1.254E1,1.266E1,1.674757E-3,3.8561246E-3,-3.7363854E-3,-2.7918923E-3,6.305E5,-1.8355778E-3,8.999E5,1.259E1,1.804E5,2.882E5,-2.3979149E-3,-1.1890196E-3,-1.1472572E-3,-4.966965E-4,1.2643E1,-8.975816E-4,1.703E5,1.263E1,6.202E5,1.265E1,-5.25259E-4,-1.4120864E-4,-9.455681E-5,2.332592E-4,-2.6124952E-4,-6.2212945E-5,3.395748E-4,6.852207E-4,1.1909866E-4,3.2410707E-4],"split_indices":[0,3,3,3,1,3,0,3,2,3,2,0,0,0,0,23,0,23,0,4,24,0,0,0,0,7,0,23,18,4,19,0,0,0,0,0,0,0,0,0,0],"split_type":[0,0,0,0,0,0,0,0,0,0,0,0,0,0,0,0,0,0,0,0,0,0,0,0,0,0,0,0,0,0,0,0,0,0,0,0,0,0,0,0,0],"sum_hessian":[4.02E2,2.82E2,1.2E2,1.79E2,1.03E2,7.5E1,4.5E1,6E1,1.19E2,5.5E1,4.8E1,4E0,7.1E1,1.3E1,4.7E1,6.6E1,5.3E1,3.4E1,2.1E1,1.6E1,3.2E1,6.3E1,3E0,3E1,4E0,1.8E1,3E0,8E0,8E0,1.3E1,1.9E1,1.4E1,4E0,3E0,5E0,5E0,3E0,9E0,4E0,9E0,1E1],"tree_param":{"num_deleted":"0","num_feature":"33","num_nodes":"41","size_leaf_vector":"1"}},{"base_weights":[2.2631304E-3,-5.5667017E-2,1.3626878E-1,-7.7179946E-2,-1.3879847E-2,8.034413E-2,1.4242761E-1,-9.8100424E-2,-6.5076604E-2,-3.0495891E-2,4.8908656E-3,1.1641859E-3,2.6443447E-3,3.9547374E-3,5.1816036E-3,-3.137316E-3,-2.3176982E-3,-2.2324068E-3,-5.4966275E-2,-3.5631645E-2,-1.4744555E-2,-8.694119E-3,8.063136E-3,-1.6891394E-3,-6.64587E-4,-1.1518211E-3,-5.492387E-4,-1.5205193E-4,-5.4324535E-4,-3.5549924E-4,-1.1398315E-4,-9.7503664E-4,1.1003085E-2,9.2975075E-5,-2.3583412E-4,2.529194E-4,5.7090755E-4],"categories":[],"categories_nodes":[],"categories_segments":[],"categories_sizes":[],"default_left":[0,0,0,0,0,0,0,0,0,0,0,0,0,0,0,0,0,0,0,0,0,0,0,0,0,0,0,0,0,0,0,0,0,0,0,0,0],"id":39,"left_children":[1,3,5,7,9,11,13,15,17,19,21,-1,-1,-1,-1,-1,-1,-1,23,25,27,29,31,-1,-1,-1,-1,-1,-1,-1,-1,33,35,-1,-1,-1,-1],"loss_changes":[3.035143E0,2.4434596E-1,2.9199839E-2,3.919339E-2,2.9467283E-2,1.1157766E-3,1.0956287E-2,5.607605E-4,6.9545507E-3,3.5193749E-3,2.009388E-3,0E0,0E0,0E0,0E0,0E0,0E0,0E0,1.3876855E-3,1.0677129E-3,3.6387797E-4,9.399891E-5,9.938839E-4,0E0,0E0,0E0,0E0,0E0,0E0,0E0,0E0,3.049169E-4,4.1774567E-4,0E0,0E0,0E0,0E0],"parents":[2147483647,0,0,1,1,2,2,3,3,4,4,5,5,6,6,7,7,8,8,9,9,10,10,18,18,19,19,20,20,21,21,22,22,31,31,32,32],"right_children":[2,4,6,8,10,12,14,16,18,20,22,-1,-1,-1,-1,-1,-1,-1,24,26,28,30,32,-1,-1,-1,-1,-1,-1,-1,-1,34,36,-1,-1,-1,-1],"split_conditions":[1.2735129E1,1.247E1,1.2998239E1,1.236E1,1.259E1,3.1374247E1,1.22324275E-2,1.236E1,1.242E1,1.256E1,3.861484E1,1.1641859E-3,2.6443447E-3,3.9547374E-3,5.1816036E-3,-3.137316E-3,-2.3176982E-3,-2.2324068E-3,4.86618E-3,1.255E1,-2.2009542E-2,1.261E1,2.4152265E-3,-1.6891394E-3,-6.64587E-4,-1.1518211E-3,-5.492387E-4,-1.5205193E-4,-5.4324535E-4,-3.5549924E-4,-1.1398315E-4,3.577E5,1.268E1,9.2975075E-5,-2.3583412E-4,2.529194E-4,5.7090755E-4],"split_indices":[13,17,8,3,3,9,14,18,3,17,9,0,0,0,0,0,0,0,22,3,14,17,6,0,0,0,0,0,0,0,0,4,3,0,0,0,0],"split_type":[0,0,0,0,0,0,0,0,0,0,0,0,0,0,0,0,0,0,0,0,0,0,0,0,0,0,0,0,0,0,0,0,0,0,0,0,0],"sum_hessian":[3.89E2,2.72E2,1.17E2,1.79E2,9.3E1,1.3E1,1.04E2,6.3E1,1.16E2,4.9E1,4.4E1,3E0,1E1,8.1E1,2.3E1,4.5E1,1.8E1,5.7E1,5.9E1,3.6E1,1.3E1,8E0,3.6E1,5.6E1,3E0,3E1,6E0,4E0,9E0,4E0,4E0,9E0,2.7E1,6E0,3E0,2.2E1,5E0],"tree_param":{"num_deleted":"0","num_feature":"33","num_nodes":"37","size_leaf_vector":"1"}},{"base_weights":[2.9722461E-5,-5.6043256E-2,1.3239849E-1,-7.38677E-2,-6.240337E-3,1.16897084E-1,4.5714765E-3,-8.614718E-2,-5.37448E-2,-2.2704152E-2,7.3055667E-3,2.3402257E-3,3.6549545E-3,-2.9606894E-3,-7.623238E-2,-1.7385301E-3,-1.2688384E-3,-2.534809E-4,-2.4270918E-2,2.8995847E-4,1.4641444E-2,-2.3674145E-3,-9.4048976E-4,-9.496515E-4,-1.9247282E-2,2.4711208E-3,-2.4169349E-4,1.020179E-2,8.0423924E-4,-6.730518E-4,-2.9000145E-4,-5.534853E-5,1.3815219E-4,3.7935402E-4,5.426216E-5],"categories":[],"categories_nodes":[],"categories_segments":[],"categories_sizes":[],"default_left":[0,0,0,0,0,0,0,0,0,0,0,0,0,0,0,0,0,0,0,0,0,0,0,0,0,0,0,0,0,0,0,0,0,0,0],"id":40,"left_children":[1,3,5,7,9,11,-1,13,15,17,19,-1,-1,-1,21,-1,-1,-1,23,25,27,-1,-1,-1,29,31,-1,33,-1,-1,-1,-1,-1,-1,-1],"loss_changes":[3.0431447E0,2.551993E-1,1.9980192E-2,4.7755003E-2,1.7338194E-2,4.5056343E-3,0E0,8.6429715E-3,1.5464276E-3,5.766172E-4,2.2087772E-3,0E0,0E0,0E0,6.793022E-3,0E0,0E0,0E0,5.406756E-4,4.3862048E-4,8.6082984E-4,0E0,0E0,0E0,4.2448146E-4,1.8349166E-4,0E0,3.2574905E-4,0E0,0E0,0E0,0E0,0E0,0E0,0E0],"parents":[2147483647,0,0,1,1,2,2,3,3,4,4,5,5,7,7,8,8,9,9,10,10,14,14,18,18,19,19,20,20,24,24,25,25,27,27],"right_children":[2,4,6,8,10,12,-1,14,16,18,20,-1,-1,-1,22,-1,-1,-1,24,26,28,-1,-1,-1,30,32,-1,34,-1,-1,-1,-1,-1,-1,-1],"split_conditions":[2.5E1,1.252E1,1.311E1,1.238E1,1.259E1,-2.1641804E-2,4.5714765E-3,1.232E1,1.245E1,-2.4472447E-2,1.264E1,2.3402257E-3,3.6549545E-3,-2.9606894E-3,1.241E1,-1.7385301E-3,-1.2688384E-3,-2.534809E-4,2.5E1,1.2768E1,7.286E5,-2.3674145E-3,-9.4048976E-4,-9.496515E-4,7.9872203E-4,1.264E1,-2.4169349E-4,1.01366E7,8.0423924E-4,-6.730518E-4,-2.9000145E-4,-5.534853E-5,1.3815219E-4,3.7935402E-4,5.426216E-5],"split_indices":[27,17,2,1,1,14,0,1,1,15,1,0,0,0,17,0,0,0,30,10,4,0,0,0,22,18,0,16,0,0,0,0,0,0,0],"split_type":[0,0,0,0,0,0,0,0,0,0,0,0,0,0,0,0,0,0,0,0,0,0,0,0,0,0,0,0,0,0,0,0,0,0,0],"sum_hessian":[4.08E2,2.87E2,1.21E2,2.11E2,7.6E1,7.2E1,4.9E1,1.29E2,8.2E1,3.4E1,4.2E1,1E1,6.2E1,5.3E1,7.6E1,5.7E1,2.5E1,4E0,3E1,2.2E1,2E1,7.1E1,5E0,1E1,2E1,1.8E1,4E0,1.6E1,4E0,1.4E1,6E0,6E0,1.2E1,1.2E1,4E0],"tree_param":{"num_deleted":"0","num_feature":"33","num_nodes":"35","size_leaf_vector":"1"}},{"base_weights":[-5.7800225E-4,-5.4677807E-2,1.2973699E-1,-7.792758E-2,-1.7010627E-2,1.1113529E-1,4.656707E-3,-9.578079E-2,-6.6076264E-2,-3.186898E-2,4.9881283E-3,1.2532996E-3,3.408521E-3,-3.3310617E-3,-2.5688987E-3,-2.147866E-3,-1.5850328E-3,-3.8829803E-2,-2.153257E-2,-6.9414335E-4,1.4975488E-2,-4.0525578E-2,-4.412484E-4,-1.0738849E-3,-1.838909E-2,-6.921855E-3,2.9479077E-3,1.7805576E-4,1.6605157E-2,-5.2938936E-4,-1.2651138E-3,-6.510342E-4,-3.0269305E-4,-2.6299237E-4,-4.5068264E-5,-5.1140782E-6,2.1770953E-4,6.372757E-4,3.6551474E-4],"categories":[],"categories_nodes":[],"categories_segments":[],"categories_sizes":[],"default_left":[0,0,0,0,0,0,0,0,0,0,0,0,0,0,0,0,0,0,0,0,0,0,0,0,0,0,0,0,0,0,0,0,0,0,0,0,0,0,0],"id":41,"left_children":[1,3,5,7,9,11,-1,13,15,17,19,-1,-1,-1,-1,-1,-1,21,23,25,27,29,-1,-1,31,33,35,-1,37,-1,-1,-1,-1,-1,-1,-1,-1,-1,-1],"loss_changes":[2.76365E0,2.4125803E-1,3.726995E-2,2.9852033E-2,3.5133548E-2,7.3041916E-3,0E0,7.119775E-4,3.9643645E-3,3.76869E-3,2.5074342E-3,0E0,0E0,0E0,0E0,0E0,0E0,9.174086E-4,5.9718546E-4,6.781727E-4,1.3716845E-4,5.35395E-4,0E0,0E0,4.682336E-4,9.679445E-5,2.565463E-4,0E0,7.728115E-6,0E0,0E0,0E0,0E0,0E0,0E0,0E0,0E0,0E0,0E0],"parents":[2147483647,0,0,1,1,2,2,3,3,4,4,5,5,7,7,8,8,9,9,10,10,17,17,18,18,19,19,20,20,21,21,24,24,25,25,26,26,28,28],"right_children":[2,4,6,8,10,12,-1,14,16,18,20,-1,-1,-1,-1,-1,-1,22,24,26,28,30,-1,-1,32,34,36,-1,38,-1,-1,-1,-1,-1,-1,-1,-1,-1,-1],"split_conditions":[2.5E1,1.243E1,1.31E1,1.235E1,1.26E1,1.276E1,4.656707E-3,1.23E1,1.242E1,1.252E1,1.265E1,1.2532996E-3,3.408521E-3,-3.3310617E-3,-2.5688987E-3,-2.147866E-3,-1.5850328E-3,3.2258064E-3,-5.654281E-3,1.263E1,-1.537279E-3,1.2465782E1,-4.412484E-4,-1.0738849E-3,1.257E1,1.261E1,1.265E1,1.7805576E-4,5.5626343E1,-5.2938936E-4,-1.2651138E-3,-6.510342E-4,-3.0269305E-4,-2.6299237E-4,-4.5068264E-5,-5.1140782E-6,2.1770953E-4,6.372757E-4,3.6551474E-4],"split_indices":[27,1,3,3,3,1,0,3,17,3,1,0,0,0,0,0,0,22,22,18,20,12,0,0,17,1,17,0,9,0,0,0,0,0,0,0,0,0,0],"split_type":[0,0,0,0,0,0,0,0,0,0,0,0,0,0,0,0,0,0,0,0,0,0,0,0,0,0,0,0,0,0,0,0,0,0,0,0,0,0,0],"sum_hessian":[3.9E2,2.76E2,1.14E2,1.7E2,1.06E2,6.9E1,4.5E1,6.5E1,1.05E2,6.3E1,4.3E1,3E0,6.6E1,2.2E1,4.3E1,7.1E1,3.4E1,3.6E1,2.7E1,2.8E1,1.5E1,3.3E1,3E0,3E0,2.4E1,1E1,1.8E1,3E0,1.2E1,3E0,3E1,1.6E1,8E0,7E0,3E0,1.1E1,7E0,4E0,8E0],"tree_param":{"num_deleted":"0","num_feature":"33","num_nodes":"39","size_leaf_vector":"1"}},{"base_weights":[-3.7569245E-3,-5.0438553E-2,1.2628871E-1,-7.405014E-2,-1.2754424E-2,3.3146506E-3,4.24415E-3,-9.156828E-2,-6.0460854E-2,-2.8665876E-2,6.0451296E-3,-3.416526E-3,-2.5191745E-3,-2.0347508E-3,-1.535676E-3,-3.6741097E-2,-2.0697566E-2,-2.5476108E-3,1.1590437E-2,-5.2073476E-4,-1.1716658E-3,-1.0356045E-3,-1.8246343E-2,-6.6676936E-3,2.1786257E-3,5.872135E-4,9.8143285E-3,-6.293778E-4,-2.7704556E-4,-2.5646208E-4,-1.00855825E-4,1.9338471E-4,-1.2694931E-4,2.3873975E-4,5.139942E-4],"categories":[],"categories_nodes":[],"categories_segments":[],"categories_sizes":[],"default_left":[0,0,0,0,0,0,0,0,0,0,0,0,0,0,0,0,0,0,0,0,0,0,0,0,0,0,0,0,0,0,0,0,0,0,0],"id":42,"left_children":[1,3,5,7,9,-1,-1,11,13,15,17,-1,-1,-1,-1,19,21,23,25,-1,-1,-1,27,29,31,-1,33,-1,-1,-1,-1,-1,-1,-1,-1],"loss_changes":[2.4589496E0,2.6421064E-1,1.0037899E-2,3.8028598E-2,3.487216E-2,0E0,0E0,3.658414E-3,3.7655532E-3,3.2933354E-3,2.6025954E-3,0E0,0E0,0E0,0E0,6.679222E-4,5.2212924E-4,4.4292107E-4,2.7581304E-4,0E0,0E0,0E0,5.697161E-4,4.5881316E-5,3.2819415E-4,0E0,2.5765365E-4,0E0,0E0,0E0,0E0,0E0,0E0,0E0,0E0],"parents":[2147483647,0,0,1,1,2,2,3,3,4,4,7,7,8,8,9,9,10,10,15,15,16,16,17,17,18,18,22,22,23,23,24,24,26,26],"right_children":[2,4,6,8,10,-1,-1,12,14,16,18,-1,-1,-1,-1,20,22,24,26,-1,-1,-1,28,30,32,-1,34,-1,-1,-1,-1,-1,-1,-1,-1],"split_conditions":[1.277E1,1.246E1,1.309E1,1.236E1,1.258E1,3.3146506E-3,4.24415E-3,1.229E1,1.242E1,1.252E1,1.264E1,-3.416526E-3,-2.5191745E-3,-2.0347508E-3,-1.535676E-3,-6.1068702E-3,-5.3475937E-3,1.261E1,1.15E1,-5.2073476E-4,-1.1716658E-3,-1.0356045E-3,1.257E1,1.261E1,-1.5772871E-3,5.872135E-4,1.6416666E1,-6.293778E-4,-2.7704556E-4,-2.5646208E-4,-1.00855825E-4,1.9338471E-4,-1.2694931E-4,2.3873975E-4,5.139942E-4],"split_indices":[0,17,3,3,1,0,0,3,3,3,3,0,0,0,0,5,22,1,32,0,0,0,17,18,5,0,32,0,0,0,0,0,0,0,0],"split_type":[0,0,0,0,0,0,0,0,0,0,0,0,0,0,0,0,0,0,0,0,0,0,0,0,0,0,0,0,0,0,0,0,0,0,0],"sum_hessian":[4.03E2,2.97E2,1.06E2,1.82E2,1.15E2,5.6E1,5E1,7.7E1,1.05E2,6.2E1,5.3E1,1.6E1,6.1E1,5.5E1,5E1,2.9E1,3.3E1,2.1E1,3.2E1,4E0,2.5E1,3E0,3E1,1.1E1,1E1,4E0,2.8E1,2.2E1,8E0,6E0,5E0,6E0,4E0,2.4E1,4E0],"tree_param":{"num_deleted":"0","num_feature":"33","num_nodes":"35","size_leaf_vector":"1"}},{"base_weights":[-2.0766403E-3,-5.1170792E-2,1.2219773E-1,-7.4393064E-2,-1.6496839E-2,9.917802E-2,3.97616E-3,-9.060154E-2,-6.254025E-2,-3.3205252E-2,1.9979817E-3,1.3556242E-3,3.0726609E-3,-3.122034E-3,-2.3168754E-3,-7.000143E-2,-1.5695906E-3,-3.9088376E-2,-2.2506753E-2,-7.8100273E-3,1.0758591E-2,-2.1520248E-3,-8.8627334E-4,-5.2791025E-4,-1.2329763E-3,-2.4446912E-2,-4.290758E-4,-4.5017004E-3,-7.712245E-4,6.3573074E-4,8.338561E-3,-7.932987E-4,-3.254628E-4,-2.4112701E-4,-8.881091E-6,3.536968E-4,9.988546E-5],"categories":[],"categories_nodes":[],"categories_segments":[],"categories_sizes":[],"default_left":[0,0,0,0,0,0,0,0,0,0,0,0,0,0,0,0,0,0,0,0,0,0,0,0,0,0,0,0,0,0,0,0,0,0,0,0,0],"id":43,"left_children":[1,3,5,7,9,11,-1,13,15,17,19,-1,-1,-1,-1,21,-1,23,25,27,29,-1,-1,-1,-1,31,-1,33,-1,-1,35,-1,-1,-1,-1,-1,-1],"loss_changes":[2.4345086E0,2.290622E-1,1.3754249E-2,2.7185619E-2,3.591256E-2,2.202481E-3,0E0,4.568219E-3,4.11582E-3,2.959624E-3,4.8957765E-3,0E0,0E0,0E0,0E0,1.8066466E-3,0E0,9.189695E-4,3.2366253E-5,1.48296E-3,5.807013E-4,0E0,0E0,0E0,0E0,2.0177197E-4,0E0,3.5451658E-4,0E0,0E0,4.1023025E-4,0E0,0E0,0E0,0E0,0E0,0E0],"parents":[2147483647,0,0,1,1,2,2,3,3,4,4,5,5,7,7,8,8,9,9,10,10,15,15,17,17,18,18,19,19,20,20,25,25,27,27,30,30],"right_children":[2,4,6,8,10,12,-1,14,16,18,20,-1,-1,-1,-1,22,-1,24,26,28,30,-1,-1,-1,-1,32,-1,34,-1,-1,36,-1,-1,-1,-1,-1,-1],"split_conditions":[1.273E1,1.2448394E1,1.305E1,1.237E1,1.2591249E1,1.292E1,3.97616E-3,1.233E1,1.241E1,1.253E1,1.265E1,1.3556242E-3,3.0726609E-3,-3.122034E-3,-2.3168754E-3,3.2493907E-3,-1.5695906E-3,1.245E1,-2.5121477E-3,-6.1194263E-3,-3.1620553E-3,-2.1520248E-3,-8.8627334E-4,-5.2791025E-4,-1.2329763E-3,8.999E5,-4.290758E-4,1.263E1,-7.712245E-4,6.3573074E-4,1.3166667E1,-7.932987E-4,-3.254628E-4,-2.4112701E-4,-8.881091E-6,3.536968E-4,9.988546E-5],"split_indices":[2,8,17,2,8,0,0,17,17,2,2,0,0,0,0,5,0,19,14,15,21,0,0,0,0,23,0,19,0,0,32,0,0,0,0,0,0],"split_type":[0,0,0,0,0,0,0,0,0,0,0,0,0,0,0,0,0,0,0,0,0,0,0,0,0,0,0,0,0,0,0,0,0,0,0,0,0],"sum_hessian":[3.97E2,2.85E2,1.12E2,1.7E2,1.15E2,3.8E1,7.4E1,6.9E1,1.01E2,6E1,5.5E1,3E0,3.5E1,3.1E1,3.8E1,5.5E1,4.6E1,3.7E1,2.3E1,2.6E1,2.9E1,5.2E1,3E0,4E0,3.3E1,1.7E1,6E0,2.3E1,3E0,4E0,2.5E1,1.4E1,3E0,1.2E1,1.1E1,1.4E1,1.1E1],"tree_param":{"num_deleted":"0","num_feature":"33","num_nodes":"37","size_leaf_vector":"1"}},{"base_weights":[-1.2994814E-3,-4.8651587E-2,1.1647445E-1,-6.996865E-2,-1.33939E-2,6.734991E-2,1.22075126E-1,-8.484741E-2,-5.8565993E-2,-2.8394995E-2,5.554277E-3,8.70409E-4,2.2550297E-3,3.4256624E-3,4.643701E-3,-3.0759824E-3,-2.2965644E-3,-1.9389592E-3,-4.8072588E-2,-1.0458668E-3,-1.8348254E-2,-2.0934967E-3,1.0900794E-2,-3.0075481E-2,-1.5071003E-3,-2.0179914E-2,-9.687423E-5,2.2980373E-3,-7.153988E-3,8.403549E-3,6.3620566E-4,-4.1346072E-4,-1.165502E-3,-2.2988318E-4,-6.7235396E-4,-1.2506246E-4,1.475048E-4,-9.625196E-5,-2.5159837E-4,1.2334823E-4,3.4446307E-4],"categories":[],"categories_nodes":[],"categories_segments":[],"categories_sizes":[],"default_left":[0,0,0,0,0,0,0,0,0,0,0,0,0,0,0,0,0,0,0,0,0,0,0,0,0,0,0,0,0,0,0,0,0,0,0,0,0,0,0,0,0],"id":44,"left_children":[1,3,5,7,9,11,13,15,17,19,21,-1,-1,-1,-1,-1,-1,-1,23,-1,25,27,29,31,-1,33,-1,35,37,39,-1,-1,-1,-1,-1,-1,-1,-1,-1,-1,-1],"loss_changes":[2.2364042E0,2.1401769E-1,2.3418188E-2,2.5229812E-2,3.1140245E-2,2.0149648E-3,8.641005E-3,3.1537414E-3,3.5128891E-3,3.323786E-3,2.0263793E-3,0E0,0E0,0E0,0E0,0E0,0E0,0E0,1.2489408E-4,0E0,6.5485574E-4,4.831298E-4,5.681529E-4,4.6534603E-4,0E0,4.7081057E-4,0E0,2.2371885E-4,2.1726708E-5,2.8311438E-4,0E0,0E0,0E0,0E0,0E0,0E0,0E0,0E0,0E0,0E0,0E0],"parents":[2147483647,0,0,1,1,2,2,3,3,4,4,5,5,6,6,7,7,8,8,9,9,10,10,18,18,20,20,21,21,22,22,23,23,25,25,27,27,28,28,29,29],"right_children":[2,4,6,8,10,12,14,16,18,20,22,-1,-1,-1,-1,-1,-1,-1,24,-1,26,28,30,32,-1,34,-1,36,38,40,-1,-1,-1,-1,-1,-1,-1,-1,-1,-1,-1],"split_conditions":[1.27E1,1.246E1,1.2998239E1,1.236E1,1.26E1,1.2972485E1,1.312E1,1.23E1,1.242E1,1.253E1,1.264E1,8.70409E-4,2.2550297E-3,3.4256624E-3,4.643701E-3,-3.0759824E-3,-2.2965644E-3,-1.9389592E-3,1.5736552E-3,-1.0458668E-3,1.037E6,3.019E5,8.124E5,7.621951E-4,-1.5071003E-3,-3.0512488E-2,-9.687423E-5,1.445E5,1.81E5,2.5E1,6.3620566E-4,-4.1346072E-4,-1.165502E-3,-2.2988318E-4,-6.7235396E-4,-1.2506246E-4,1.475048E-4,-9.625196E-5,-2.5159837E-4,1.2334823E-4,3.4446307E-4],"split_indices":[0,3,8,3,3,8,3,3,3,3,3,0,0,0,0,0,0,0,6,0,24,25,4,5,0,14,0,23,23,30,0,0,0,0,0,0,0,0,0,0,0],"split_type":[0,0,0,0,0,0,0,0,0,0,0,0,0,0,0,0,0,0,0,0,0,0,0,0,0,0,0,0,0,0,0,0,0,0,0,0,0,0,0,0,0],"sum_hessian":[3.99E2,2.85E2,1.14E2,1.77E2,1.08E2,1.3E1,1.01E2,7.4E1,1.03E2,6E1,4.8E1,3E0,1E1,8.5E1,1.6E1,2E1,5.4E1,6.2E1,4.1E1,3.5E1,2.5E1,2E1,2.8E1,6E0,3.5E1,2.2E1,3E0,1.1E1,9E0,2.4E1,4E0,3E0,3E0,4E0,1.8E1,3E0,8E0,3E0,6E0,1.1E1,1.3E1],"tree_param":{"num_deleted":"0","num_feature":"33","num_nodes":"41","size_leaf_vector":"1"}},{"base_weights":[-3.7031882E-3,-4.633348E-2,1.1658135E-1,-6.620912E-2,-1.2557106E-2,1.02577515E-1,4.2288494E-3,-7.333118E-2,-1.481828E-3,-2.727825E-2,6.2426757E-3,3.1298513E-3,1.4150548E-3,-2.6832982E-3,-2.0471772E-3,-1.0323859E-3,-1.9291192E-2,-8.280754E-4,1.0603074E-2,-1.3803089E-2,-2.3916602E-2,-1.8111093E-4,1.8355505E-3,8.622612E-3,6.5446616E-4,-4.8878125E-4,-4.9159527E-5,-4.9587246E-4,-9.316063E-4,-3.350544E-5,2.2119712E-4,3.9472754E-4,1.6116619E-4],"categories":[],"categories_nodes":[],"categories_segments":[],"categories_sizes":[],"default_left":[0,0,0,0,0,0,0,0,0,0,0,0,0,0,0,0,0,0,0,0,0,0,0,0,0,0,0,0,0,0,0,0,0],"id":45,"left_children":[1,3,5,7,9,11,-1,13,-1,15,17,-1,-1,-1,-1,-1,19,21,23,25,27,-1,29,31,-1,-1,-1,-1,-1,-1,-1,-1,-1],"loss_changes":[2.0770187E0,1.9989544E-1,2.173078E-2,1.889205E-2,3.116677E-2,1.9669533E-3,0E0,4.5619607E-3,0E0,2.9261597E-3,1.5503449E-3,0E0,0E0,0E0,0E0,0E0,4.821876E-4,2.8857545E-4,5.002746E-4,4.8814388E-4,3.3030286E-4,0E0,2.3712721E-4,3.420487E-4,0E0,0E0,0E0,0E0,0E0,0E0,0E0,0E0,0E0],"parents":[2147483647,0,0,1,1,2,2,3,3,4,4,5,5,7,7,9,9,10,10,16,16,17,17,18,18,19,19,20,20,22,22,23,23],"right_children":[2,4,6,8,10,12,-1,14,-1,16,18,-1,-1,-1,-1,-1,20,22,24,26,28,-1,30,32,-1,-1,-1,-1,-1,-1,-1,-1,-1],"split_conditions":[1.276E1,1.245E1,7.6216883E-3,1.239E1,1.258E1,1.6333334E1,4.2288494E-3,1.23E1,-1.481828E-3,1.2535083E1,1.263E1,3.1298513E-3,1.4150548E-3,-2.6832982E-3,-2.0471772E-3,-1.0323859E-3,7.621951E-4,3.861484E1,6.190065E1,1.2620929E1,1.2721832E1,-1.8111093E-4,1.265E1,1.262E1,6.5446616E-4,-4.8878125E-4,-4.9159527E-5,-4.9587246E-4,-9.316063E-4,-3.350544E-5,2.2119712E-4,3.9472754E-4,1.6116619E-4],"split_indices":[1,1,14,1,1,32,0,1,0,8,1,0,0,0,0,0,21,9,9,8,12,0,18,10,0,0,0,0,0,0,0,0,0],"split_type":[0,0,0,0,0,0,0,0,0,0,0,0,0,0,0,0,0,0,0,0,0,0,0,0,0,0,0,0,0,0,0,0,0],"sum_hessian":[4.03E2,2.98E2,1.05E2,1.87E2,1.11E2,7E1,3.5E1,1.29E2,5.8E1,6.2E1,4.9E1,6.7E1,3E0,2.7E1,1.02E2,3.1E1,3.1E1,1.9E1,3E1,1.6E1,1.5E1,6E0,1.3E1,2.7E1,3E0,1.3E1,3E0,9E0,6E0,9E0,4E0,1E1,1.7E1],"tree_param":{"num_deleted":"0","num_feature":"33","num_nodes":"33","size_leaf_vector":"1"}},{"base_weights":[-1.3064418E-3,-4.3085687E-2,1.1073265E-1,-6.1209E-2,-6.7720134E-3,6.1723232E-2,1.1541285E-1,-6.9386624E-2,-4.4440724E-2,-2.037468E-2,6.188465E-3,9.022164E-4,2.0679443E-3,3.7245606E-3,2.9433705E-3,-2.4490147E-3,-6.310954E-2,-4.576319E-2,-5.508156E-4,-8.2870777E-4,-1.3692549E-2,1.041528E-3,1.3981819E-2,-1.929538E-3,-1.0460472E-3,-1.4933456E-3,-1.088016E-3,-1.5522708E-2,-1.3184547E-4,4.2685783E-3,-1.2694836E-3,1.0812283E-2,7.4247835E-4,-5.708951E-4,-2.9900292E-4,8.707047E-6,1.9339561E-4,-1.5435695E-4,1.096344E-5,4.3046472E-4,9.6150805E-5],"categories":[],"categories_nodes":[],"categories_segments":[],"categories_sizes":[],