{"learner":{"attributes":{"best_iteration":"65","best_score":"0.0286078107639935","scikit_learn":"{\"_estimator_type\": \"regressor\"}"},"feature_names":["abertura","minimo","maximo","fechamento","volume","volatilidade","mes","dia_da_semana","hora_num","minuto","mercado_aberto"],"feature_types":["float","float","float","float","int","float","int","int","int","int","int"],"gradient_booster":{"model":{"gbtree_model_param":{"num_parallel_tree":"1","num_trees":"116"},"iteration_indptr":[0,1,2,3,4,5,6,7,8,9,10,11,12,13,14,15,16,17,18,19,20,21,22,23,24,25,26,27,28,29,30,31,32,33,34,35,36,37,38,39,40,41,42,43,44,45,46,47,48,49,50,51,52,53,54,55,56,57,58,59,60,61,62,63,64,65,66,67,68,69,70,71,72,73,74,75,76,77,78,79,80,81,82,83,84,85,86,87,88,89,90,91,92,93,94,95,96,97,98,99,100,101,102,103,104,105,106,107,108,109,110,111,112,113,114,115,116],"tree_info":[0,0,0,0,0,0,0,0,0,0,0,0,0,0,0,0,0,0,0,0,0,0,0,0,0,0,0,0,0,0,0,0,0,0,0,0,0,0,0,0,0,0,0,0,0,0,0,0,0,0,0,0,0,0,0,0,0,0,0,0,0,0,0,0,0,0,0,0,0,0,0,0,0,0,0,0,0,0,0,0,0,0,0,0,0,0,0,0,0,0,0,0,0,0,0,0,0,0,0,0,0,0,0,0,0,0,0,0,0,0,0,0,0,0,0,0],"trees":[{"base_weights":[8.731303E-3,-1.760855E-1,4.4345334E-1,-2.460359E-1,-2.792442E-2,3.175001E-1,2.3037506E-2,-1.4524785E-2,-1.9088227E-1,-8.639984E-2,2.385971E-2,5.5000144E-3,1.6722227E-2,-1.0491371E-2,-8.111113E-3,-9.699984E-2,-1.9999938E-3,-1.4813035E-3,4.5161247E-2,-5.4130307E-3,-3.8611095E-3,-7.272634E-4,3.5294925E-4,1.5333303E-3,2.7647046E-3],"categories":[],"categories_nodes":[],"categories_segments":[],"categories_sizes":[],"default_left":[0,0,0,0,0,0,0,0,0,0,0,0,0,0,0,0,0,0,0,0,0,0,0,0,0],"id":0,"left_children":[1,3,5,7,9,11,-1,-1,13,15,17,-1,-1,-1,-1,19,-1,21,23,-1,-1,-1,-1,-1,-1],"loss_changes":[3.7438015E1,3.3821335E0,1.565342E-1,4.889202E-1,3.2303995E-1,3.3530235E-2,0E0,0E0,2.1344423E-2,2.0711988E-2,3.0835643E-2,0E0,0E0,0E0,0E0,5.4833293E-4,0E0,3.1150656E-3,2.8573498E-3,0E0,0E0,0E0,0E0,0E0,0E0],"parents":[2147483647,0,0,1,1,2,2,3,3,4,4,5,5,8,8,9,9,10,10,15,15,17,17,18,18],"right_children":[2,4,6,8,10,12,-1,-1,14,16,18,-1,-1,-1,-1,20,-1,22,24,-1,-1,-1,-1,-1,-1],"split_conditions":[1.275E1,1.249E1,1.301E1,1.238E1,1.258E1,1.279E1,2.3037506E-2,-1.4524785E-2,1.244E1,1.256E1,1.265E1,5.5000144E-3,1.6722227E-2,-1.0491371E-2,-8.111113E-3,1.253E1,-1.9999938E-3,1.262E1,1.268E1,-5.4130307E-3,-3.8611095E-3,-7.272634E-4,3.5294925E-4,1.5333303E-3,2.7647046E-3],"split_indices":[1,3,3,3,1,1,0,0,3,3,3,0,0,0,0,3,0,3,2,0,0,0,0,0,0],"split_type":[0,0,0,0,0,0,0,0,0,0,0,0,0,0,0,0,0,0,0,0,0,0,0,0,0],"sum_hessian":[4.64E2,3.26E2,1.38E2,2.21E2,1.05E2,1.9E1,1.19E2,1.2E2,1.01E2,4.9E1,5.6E1,2E0,1.7E1,5.7E1,4.4E1,3.9E1,1E1,2.6E1,3E1,2.2E1,1.7E1,1E1,1.6E1,1.4E1,1.6E1],"tree_param":{"num_deleted":"0","num_feature":"11","num_nodes":"25","size_leaf_vector":"1"}},{"base_weights":[3.6596188E-3,-1.5988608E-1,4.1869104E-1,-2.3129848E-1,-2.6599731E-2,3.23797E-1,2.2056302E-2,-2.719533E-1,-1.768001E-1,-7.934397E-2,2.0706253E-2,5.8622677E-3,1.6737735E-2,-1.4619857E-2,-1.2020795E-2,-9.603849E-3,-7.3001594E-3,-4.7648735E-3,-4.821682E-2,-3.3063889E-3,4.4071823E-2,-2.701974E-3,-1.6000032E-3,-5.73362E-4,6.6579477E-4,1.5737269E-3,2.8125222E-3],"categories":[],"categories_nodes":[],"categories_segments":[],"categories_sizes":[],"default_left":[0,0,0,0,0,0,0,0,0,0,0,0,0,0,0,0,0,0,0,0,0,0,0,0,0,0,0],"id":1,"left_children":[1,3,5,7,9,11,-1,13,15,17,19,-1,-1,-1,-1,-1,-1,-1,21,23,25,-1,-1,-1,-1,-1,-1],"loss_changes":[3.1697441E1,3.182477E0,1.381836E-1,4.3492413E-1,2.9606682E-1,2.6388407E-2,0E0,9.007454E-3,1.7122507E-2,2.3213923E-2,3.549307E-2,0E0,0E0,0E0,0E0,0E0,0E0,0E0,2.5364757E-4,4.4935597E-3,3.1389073E-3,0E0,0E0,0E0,0E0,0E0,0E0],"parents":[2147483647,0,0,1,1,2,2,3,3,4,4,5,5,7,7,8,8,9,9,10,10,18,18,19,19,20,20],"right_children":[2,4,6,8,10,12,-1,14,16,18,20,-1,-1,-1,-1,-1,-1,-1,22,24,26,-1,-1,-1,-1,-1,-1],"split_conditions":[1.277E1,1.249E1,1.303E1,1.239E1,1.258E1,1.28E1,2.2056302E-2,1.235E1,1.245E1,1.255E1,1.265E1,5.8622677E-3,1.6737735E-2,-1.4619857E-2,-1.2020795E-2,-9.603849E-3,-7.3001594E-3,-4.7648735E-3,1.258E1,1.263E1,1.267E1,-2.701974E-3,-1.6000032E-3,-5.73362E-4,6.6579477E-4,1.5737269E-3,2.8125222E-3],"split_indices":[3,3,3,3,1,0,0,3,3,3,3,0,0,0,0,0,0,0,3,3,3,0,0,0,0,0,0],"split_type":[0,0,0,0,0,0,0,0,0,0,0,0,0,0,0,0,0,0,0,0,0,0,0,0,0,0,0],"sum_hessian":[4.65E2,3.34E2,1.31E2,2.17E2,1.17E2,2.8E1,1.03E2,1.22E2,9.5E1,5.5E1,6.2E1,2E0,2.6E1,6.9E1,5.3E1,6E1,3.5E1,3.5E1,2E1,3.1E1,3.1E1,1.3E1,7E0,2.1E1,1E1,1.7E1,1.4E1],"tree_param":{"num_deleted":"0","num_feature":"11","num_nodes":"27","size_leaf_vector":"1"}},{"base_weights":[8.656271E-3,-1.588771E-1,3.9594156E-1,-2.1982887E-1,-1.6898522E-2,5.84718E-3,4.0115932E-1,-2.5930575E-1,-1.6852109E-1,-7.300692E-2,1.925109E-2,1.700942E-2,2.1350173E-2,-1.4672281E-2,-1.1849592E-2,-8.816743E-3,-5.9539825E-3,-4.1887234E-3,-2.0899377E-3,-7.743279E-3,3.5793554E-2,-8.468485E-4,-5.4896675E-5,1.0144374E-3,2.3073782E-3],"categories":[],"categories_nodes":[],"categories_segments":[],"categories_sizes":[],"default_left":[0,0,0,0,0,0,0,0,0,0,0,0,0,0,0,0,0,0,0,0,0,0,0,0,0],"id":2,"left_children":[1,3,5,7,9,-1,11,13,15,17,19,-1,-1,-1,-1,-1,-1,-1,-1,21,23,-1,-1,-1,-1],"loss_changes":[3.0298483E1,2.81744E0,1.5834427E-1,4.18108E-1,2.0220686E-1,0E0,7.219124E-2,2.720356E-2,1.8406868E-2,9.603694E-3,2.751692E-2,0E0,0E0,0E0,0E0,0E0,0E0,0E0,0E0,1.4476904E-3,5.164128E-3,0E0,0E0,0E0,0E0],"parents":[2147483647,0,0,1,1,2,2,3,3,4,4,6,6,7,7,8,8,9,9,10,10,19,19,20,20],"right_children":[2,4,6,8,10,-1,12,14,16,18,20,-1,-1,-1,-1,-1,-1,-1,-1,22,24,-1,-1,-1,-1],"split_conditions":[1.284E1,1.25E1,1.294E1,1.239E1,1.259E1,5.84718E-3,1.305E1,1.233E1,1.247E1,1.256E1,1.264E1,1.700942E-2,2.1350173E-2,-1.4672281E-2,-1.1849592E-2,-8.816743E-3,-5.9539825E-3,-4.1887234E-3,-2.0899377E-3,1.263E1,1.266E1,-8.468485E-4,-5.4896675E-5,1.0144374E-3,2.3073782E-3],"split_indices":[2,3,2,3,3,0,3,3,3,3,3,0,0,0,0,0,0,0,0,2,3,0,0,0,0],"split_type":[0,0,0,0,0,0,0,0,0,0,0,0,0,0,0,0,0,0,0,0,0,0,0,0,0],"sum_hessian":[4.65E2,3.25E2,1.4E2,2.27E2,9.8E1,3E0,1.37E2,1.26E2,1.01E2,3.8E1,6E1,4.5E1,9.2E1,4.5E1,8.1E1,8.5E1,1.6E1,2.7E1,1.1E1,2.3E1,3.7E1,9E0,1.4E1,1.6E1,2.1E1],"tree_param":{"num_deleted":"0","num_feature":"11","num_nodes":"25","size_leaf_vector":"1"}},{"base_weights":[-1.0469808E-2,-1.5326762E-1,3.7640357E-1,-2.1566965E-1,-3.3468254E-2,5.6279185E-3,3.8187918E-1,-1.270423E-2,-1.7430012E-1,-8.65929E-2,1.3538748E-2,1.6137565E-2,2.0165788E-2,-9.328793E-3,-7.1600997E-3,-5.329003E-3,-3.285901E-3,-1.1001446E-2,4.0017065E-2,-1.1805355E-3,9.795239E-6,9.671582E-4,2.3183492E-3],"categories":[],"categories_nodes":[],"categories_segments":[],"categories_sizes":[],"default_left":[0,0,0,0,0,0,0,0,0,0,0,0,0,0,0,0,0,0,0,0,0,0,0],"id":3,"left_children":[1,3,5,7,9,-1,11,-1,13,15,17,-1,-1,-1,-1,-1,-1,19,21,-1,-1,-1,-1],"loss_changes":[2.602269E1,2.5644302E0,1.404953E-1,3.1487465E-1,2.9834273E-1,0E0,2.699852E-2,0E0,1.603818E-2,1.63607E-2,4.2026363E-2,0E0,0E0,0E0,0E0,0E0,0E0,4.8050974E-3,3.172718E-3,0E0,0E0,0E0,0E0],"parents":[2147483647,0,0,1,1,2,2,3,3,4,4,6,6,8,8,9,9,10,10,17,17,18,18],"right_children":[2,4,6,8,10,-1,12,-1,14,16,18,-1,-1,-1,-1,-1,-1,20,22,-1,-1,-1,-1],"split_conditions":[1.284E1,1.248E1,1.279E1,1.237E1,1.258E1,5.6279185E-3,1.307E1,-1.270423E-2,1.244E1,1.252E1,1.264E1,1.6137565E-2,2.0165788E-2,-9.328793E-3,-7.1600997E-3,-5.329003E-3,-3.285901E-3,1.261E1,1.267E1,-1.1805355E-3,9.795239E-6,9.671582E-4,2.3183492E-3],"split_indices":[2,3,1,3,3,0,2,0,3,3,3,0,0,0,0,0,0,3,2,0,0,0,0],"split_type":[0,0,0,0,0,0,0,0,0,0,0,0,0,0,0,0,0,0,0,0,0,0,0],"sum_hessian":[4.69E2,3.43E2,1.26E2,2.25E2,1.18E2,3E0,1.23E2,1.14E2,1.11E2,5.5E1,6.3E1,3.7E1,8.6E1,7.6E1,3.5E1,2.6E1,2.9E1,3.3E1,3E1,1.5E1,1.8E1,8E0,2.2E1],"tree_param":{"num_deleted":"0","num_feature":"11","num_nodes":"23","size_leaf_vector":"1"}},{"base_weights":[1.7501727E-3,-1.4385147E-1,3.6081478E-1,-1.9940758E-1,-2.0555088E-2,2.5486088E-1,1.8865613E-2,-2.3760143E-1,-1.6047609E-1,-6.882802E-2,1.9609518E-2,5.416882E-3,1.3663133E-2,-1.345098E-2,-1.0958971E-2,-8.656002E-3,-6.622036E-3,-4.1291877E-3,-2.2104941E-3,-9.3285245E-4,4.091886E-2,-6.6281104E-4,4.0095914E-4,1.3094282E-3,2.3259013E-3],"categories":[],"categories_nodes":[],"categories_segments":[],"categories_sizes":[],"default_left":[0,0,0,0,0,0,0,0,0,0,0,0,0,0,0,0,0,0,0,0,0,0,0,0,0],"id":4,"left_children":[1,3,5,7,9,11,-1,13,15,17,19,-1,-1,-1,-1,-1,-1,-1,-1,21,23,-1,-1,-1,-1],"loss_changes":[2.410089E1,2.2426581E0,1.363163E-1,2.9791927E-1,2.010526E-1,2.7017474E-2,0E0,5.8608055E-3,1.783681E-2,1.2265071E-2,2.4989601E-2,0E0,0E0,0E0,0E0,0E0,0E0,0E0,0E0,3.4158807E-3,1.0911264E-3,0E0,0E0,0E0,0E0],"parents":[2147483647,0,0,1,1,2,2,3,3,4,4,5,5,7,7,8,8,9,9,10,10,19,19,20,20],"right_children":[2,4,6,8,10,12,-1,14,16,18,20,-1,-1,-1,-1,-1,-1,-1,-1,22,24,-1,-1,-1,-1],"split_conditions":[1.284E1,1.251E1,1.298E1,1.236E1,1.258E1,1.279E1,1.8865613E-2,1.231E1,1.246E1,1.257E1,1.264E1,5.416882E-3,1.3663133E-2,-1.345098E-2,-1.0958971E-2,-8.656002E-3,-6.622036E-3,-4.1291877E-3,-2.2104941E-3,1.261E1,1.268E1,-6.6281104E-4,4.0095914E-4,1.3094282E-3,2.3259013E-3],"split_indices":[2,2,1,1,1,1,0,1,2,2,1,0,0,0,0,0,0,0,0,1,2,0,0,0,0],"split_type":[0,0,0,0,0,0,0,0,0,0,0,0,0,0,0,0,0,0,0,0,0,0,0,0,0],"sum_hessian":[4.59E2,3.27E2,1.32E2,2.25E2,1.02E2,2E1,1.12E2,1.11E2,1.14E2,4.6E1,5.6E1,3E0,1.7E1,3.6E1,7.5E1,7.5E1,3.9E1,2.8E1,1.8E1,2.9E1,2.7E1,1.2E1,1.7E1,9E0,1.8E1],"tree_param":{"num_deleted":"0","num_feature":"11","num_nodes":"25","size_leaf_vector":"1"}},{"base_weights":[-2.3585223E-3,-1.3410649E-1,3.4121776E-1,-1.9238971E-1,-2.1873416E-2,2.572805E-1,1.7889762E-2,-2.2651896E-1,-1.4892153E-1,-6.6589355E-2,1.6197428E-2,4.376968E-3,1.3411728E-2,-1.2925728E-2,-1.0487372E-2,-8.119608E-3,-6.348764E-3,-4.065629E-3,-4.47973E-2,-6.7389677E-3,3.012774E-2,-2.5817545E-3,-1.3831881E-3,-8.2037924E-4,-1.3744831E-5,1.1860746E-3,2.6393773E-3],"categories":[],"categories_nodes":[],"categories_segments":[],"categories_sizes":[],"default_left":[0,0,0,0,0,0,0,0,0,0,0,0,0,0,0,0,0,0,0,0,0,0,0,0,0,0,0],"id":5,"left_children":[1,3,5,7,9,11,-1,13,15,17,19,-1,-1,-1,-1,-1,-1,-1,21,23,25,-1,-1,-1,-1,-1,-1],"loss_changes":[2.1230001E1,2.213294E0,8.883762E-2,2.970953E-1,2.002563E-1,2.3002625E-2,0E0,1.1780739E-2,9.238958E-3,1.36832595E-2,2.0651741E-2,0E0,0E0,0E0,0E0,0E0,0E0,0E0,1.3833083E-3,1.5579554E-3,4.5543723E-3,0E0,0E0,0E0,0E0,0E0,0E0],"parents":[2147483647,0,0,1,1,2,2,3,3,4,4,5,5,7,7,8,8,9,9,10,10,18,18,19,19,20,20],"right_children":[2,4,6,8,10,12,-1,14,16,18,20,-1,-1,-1,-1,-1,-1,-1,22,24,26,-1,-1,-1,-1,-1,-1],"split_conditions":[1.277E1,1.249E1,1.302E1,1.238E1,1.258E1,1.279E1,1.7889762E-2,1.232E1,1.244E1,1.254E1,1.264E1,4.376968E-3,1.3411728E-2,-1.2925728E-2,-1.0487372E-2,-8.119608E-3,-6.348764E-3,-4.065629E-3,1.257E1,1.261E1,1.268E1,-2.5817545E-3,-1.3831881E-3,-8.2037924E-4,-1.3744831E-5,1.1860746E-3,2.6393773E-3],"split_indices":[0,3,3,3,1,1,0,3,3,3,3,0,0,0,0,0,0,0,3,3,3,0,0,0,0,0,0],"split_type":[0,0,0,0,0,0,0,0,0,0,0,0,0,0,0,0,0,0,0,0,0,0,0,0,0,0,0],"sum_hessian":[4.67E2,3.38E2,1.29E2,2.22E2,1.16E2,2.4E1,1.05E2,1.22E2,1E2,5.3E1,6.3E1,2E0,2.2E1,3.7E1,8.5E1,5.8E1,4.2E1,3E1,2.3E1,2.4E1,3.9E1,1.5E1,8E0,9E0,1.5E1,3.2E1,7E0],"tree_param":{"num_deleted":"0","num_feature":"11","num_nodes":"27","size_leaf_vector":"1"}},{"base_weights":[-9.353811E-3,-1.3014056E-1,3.223914E-1,-1.8060578E-1,-1.7877633E-2,2.7388108E-1,1.7560067E-2,-2.0839052E-1,-1.3393362E-1,-6.273284E-2,1.680932E-2,4.305601E-3,1.39955385E-2,-1.1461955E-2,-9.200979E-3,-7.1353028E-3,-5.288399E-3,-3.6064794E-3,-1.6665569E-3,-1.7050335E-3,3.2009095E-2,-5.3950376E-4,3.444004E-4,1.0779222E-3,1.9287461E-3],"categories":[],"categories_nodes":[],"categories_segments":[],"categories_sizes":[],"default_left":[0,0,0,0,0,0,0,0,0,0,0,0,0,0,0,0,0,0,0,0,0,0,0,0,0],"id":6,"left_children":[1,3,5,7,9,11,-1,13,15,17,19,-1,-1,-1,-1,-1,-1,-1,-1,21,23,-1,-1,-1,-1],"loss_changes":[1.831407E1,1.8946714E0,7.431698E-2,2.7164412E-1,1.6442302E-1,3.2506227E-2,0E0,3.047371E-2,6.896615E-3,1.0304719E-2,1.6939417E-2,0E0,0E0,0E0,0E0,0E0,0E0,0E0,0E0,2.26023E-3,1.4327504E-3,0E0,0E0,0E0,0E0],"parents":[2147483647,0,0,1,1,2,2,3,3,4,4,5,5,7,7,8,8,9,9,10,10,19,19,20,20],"right_children":[2,4,6,8,10,12,-1,14,16,18,20,-1,-1,-1,-1,-1,-1,-1,-1,22,24,-1,-1,-1,-1],"split_conditions":[1.284E1,1.249E1,1.306E1,1.24E1,1.257E1,1.276E1,1.7560067E-2,1.235E1,1.248E1,1.256E1,1.265E1,4.305601E-3,1.39955385E-2,-1.1461955E-2,-9.200979E-3,-7.1353028E-3,-5.288399E-3,-3.6064794E-3,-1.6665569E-3,1.264E1,1.268E1,-5.3950376E-4,3.444004E-4,1.0779222E-3,1.9287461E-3],"split_indices":[2,3,3,3,1,1,0,3,2,3,3,0,0,0,0,0,0,0,0,2,2,0,0,0,0],"split_type":[0,0,0,0,0,0,0,0,0,0,0,0,0,0,0,0,0,0,0,0,0,0,0,0,0],"sum_hessian":[4.55E2,3.34E2,1.21E2,2.3E2,1.04E2,4.9E1,7.2E1,1.42E2,8.8E1,4.5E1,5.9E1,2E0,4.7E1,7.2E1,7E1,6.4E1,2.4E1,3.3E1,1.2E1,2.7E1,3.2E1,1.3E1,1.4E1,1.4E1,1.8E1],"tree_param":{"num_deleted":"0","num_feature":"11","num_nodes":"25","size_leaf_vector":"1"}},{"base_weights":[9.23344E-3,-1.2117493E-1,3.0892745E-1,-1.7495209E-1,-2.7614469E-2,2.5481063E-1,1.666658E-2,-2.048047E-1,-1.3665886E-1,-7.1164496E-2,1.0415323E-2,4.7887326E-3,1.3155025E-2,-1.1750719E-2,-9.524924E-3,-7.485982E-3,-6.0671107E-3,-4.25334E-3,-2.4252196E-3,-1.0876834E-2,2.9584857E-2,-9.754714E-4,-5.1245093E-5,1.1152657E-3,2.4068144E-3],"categories":[],"categories_nodes":[],"categories_segments":[],"categories_sizes":[],"default_left":[0,0,0,0,0,0,0,0,0,0,0,0,0,0,0,0,0,0,0,0,0,0,0,0,0],"id":7,"left_children":[1,3,5,7,9,11,-1,13,15,17,19,-1,-1,-1,-1,-1,-1,-1,-1,21,23,-1,-1,-1,-1],"loss_changes":[1.8562592E1,1.6605673E0,1.0523987E-1,2.120738E-1,2.0279741E-1,3.9402246E-2,0E0,5.363941E-3,8.3708763E-4,1.3830453E-2,2.7260398E-2,0E0,0E0,0E0,0E0,0E0,0E0,0E0,0E0,2.7015316E-3,3.6529135E-3,0E0,0E0,0E0,0E0],"parents":[2147483647,0,0,1,1,2,2,3,3,4,4,5,5,7,7,8,8,9,9,10,10,19,19,20,20],"right_children":[2,4,6,8,10,12,-1,14,16,18,20,-1,-1,-1,-1,-1,-1,-1,-1,22,24,-1,-1,-1,-1],"split_conditions":[1.284E1,1.248E1,1.305E1,1.238E1,1.258E1,1.279E1,1.666658E-2,1.232E1,1.243E1,1.253E1,1.264E1,4.7887326E-3,1.3155025E-2,-1.1750719E-2,-9.524924E-3,-7.485982E-3,-6.0671107E-3,-4.25334E-3,-2.4252196E-3,1.261E1,1.268E1,-9.754714E-4,-5.1245093E-5,1.1152657E-3,2.4068144E-3],"split_indices":[2,3,3,3,3,1,0,3,3,3,3,0,0,0,0,0,0,0,0,3,3,0,0,0,0],"split_type":[0,0,0,0,0,0,0,0,0,0,0,0,0,0,0,0,0,0,0,0,0,0,0,0,0],"sum_hessian":[4.73E2,3.3E2,1.43E2,2.09E2,1.21E2,4.8E1,9.5E1,1.15E2,9.4E1,5.6E1,6.5E1,3E0,4.5E1,3.2E1,8.3E1,4.6E1,4.8E1,3.3E1,2.3E1,3.1E1,3.4E1,1.6E1,1.5E1,2.6E1,8E0],"tree_param":{"num_deleted":"0","num_feature":"11","num_nodes":"25","size_leaf_vector":"1"}},{"base_weights":[-3.021382E-3,-1.18191406E-1,2.90555E-1,-1.6330956E-1,-1.7475948E-2,2.3769563E-1,1.583397E-2,-1.8908548E-1,-1.2072668E-1,-5.5804234E-2,1.5206156E-2,4.6091676E-3,1.2267397E-2,-1.0604582E-2,-8.531066E-3,-6.4888E-3,-4.7865426E-3,-3.356351E-3,-1.6287301E-3,-1.9782737E-3,2.9230326E-2,-6.299178E-4,1.5782056E-4,7.004314E-4,1.6860267E-3],"categories":[],"categories_nodes":[],"categories_segments":[],"categories_sizes":[],"default_left":[0,0,0,0,0,0,0,0,0,0,0,0,0,0,0,0,0,0,0,0,0,0,0,0,0],"id":8,"left_children":[1,3,5,7,9,11,-1,13,15,17,19,-1,-1,-1,-1,-1,-1,-1,-1,21,23,-1,-1,-1,-1],"loss_changes":[1.5959417E1,1.5375948E0,1.083889E-1,2.3401356E-1,1.3362937E-1,3.0831099E-2,0E0,2.4982452E-2,8.160114E-3,1.0701552E-2,1.4035673E-2,0E0,0E0,0E0,0E0,0E0,0E0,0E0,0E0,1.5120964E-3,1.7147772E-3,0E0,0E0,0E0,0E0],"parents":[2147483647,0,0,1,1,2,2,3,3,4,4,5,5,7,7,8,8,9,9,10,10,19,19,20,20],"right_children":[2,4,6,8,10,12,-1,14,16,18,20,-1,-1,-1,-1,-1,-1,-1,-1,22,24,-1,-1,-1,-1],"split_conditions":[1.284E1,1.248E1,1.307E1,1.242E1,1.258E1,1.279E1,1.583397E-2,1.232E1,1.248E1,1.257E1,1.263E1,4.6091676E-3,1.2267397E-2,-1.0604582E-2,-8.531066E-3,-6.4888E-3,-4.7865426E-3,-3.356351E-3,-1.6287301E-3,1.263E1,1.267E1,-6.299178E-4,1.5782056E-4,7.004314E-4,1.6860267E-3],"split_indices":[2,1,2,2,1,1,0,1,2,2,1,0,0,0,0,0,0,0,0,2,2,0,0,0,0],"split_type":[0,0,0,0,0,0,0,0,0,0,0,0,0,0,0,0,0,0,0,0,0,0,0,0,0],"sum_hessian":[4.7E2,3.38E2,1.32E2,2.33E2,1.05E2,4.7E1,8.5E1,1.43E2,9E1,4.8E1,5.7E1,3E0,4.4E1,5.9E1,8.4E1,6.3E1,2.7E1,3.1E1,1.7E1,2.6E1,3.1E1,8E0,1.8E1,8E0,2.3E1],"tree_param":{"num_deleted":"0","num_feature":"11","num_nodes":"25","size_leaf_vector":"1"}},{"base_weights":[-7.3846115E-4,-1.0908096E-1,2.766896E-1,-1.5902984E-1,-2.484284E-2,1.9415183E-1,1.4442474E-2,-1.8655205E-1,-1.3079964E-1,-6.367013E-2,9.781865E-3,2.319765E-3,9.974332E-3,-1.097765E-2,-8.703173E-3,-7.3062144E-3,-5.8536436E-3,-4.0220246E-3,-4.6482295E-2,-1.1656302E-2,2.3330644E-2,-2.5731695E-3,-1.6147224E-3,-8.793382E-4,-7.1568924E-5,7.278614E-4,1.7109897E-3],"categories":[],"categories_nodes":[],"categories_segments":[],"categories_sizes":[],"default_left":[0,0,0,0,0,0,0,0,0,0,0,0,0,0,0,0,0,0,0,0,0,0,0,0,0,0,0],"id":9,"left_children":[1,3,5,7,9,11,-1,13,15,17,19,-1,-1,-1,-1,-1,-1,-1,21,23,25,-1,-1,-1,-1,-1,-1],"loss_changes":[1.4127032E1,1.4182181E0,7.640076E-2,1.403141E-1,1.7135951E-1,6.509781E-3,0E0,5.05805E-3,5.611539E-3,1.3555706E-2,2.0023296E-2,0E0,0E0,0E0,0E0,0E0,0E0,0E0,5.994886E-4,1.6120665E-3,3.5143252E-3,0E0,0E0,0E0,0E0,0E0,0E0],"parents":[2147483647,0,0,1,1,2,2,3,3,4,4,5,5,7,7,8,8,9,9,10,10,18,18,19,19,20,20],"right_children":[2,4,6,8,10,12,-1,14,16,18,20,-1,-1,-1,-1,-1,-1,-1,22,24,26,-1,-1,-1,-1,-1,-1],"split_conditions":[1.273E1,1.247E1,1.301E1,1.237E1,1.258E1,1.28E1,1.4442474E-2,1.231E1,1.242E1,1.252E1,1.263E1,2.319765E-3,9.974332E-3,-1.097765E-2,-8.703173E-3,-7.3062144E-3,-5.8536436E-3,-4.0220246E-3,1.256E1,1.263E1,1.268E1,-2.5731695E-3,-1.6147224E-3,-8.793382E-4,-7.1568924E-5,7.278614E-4,1.7109897E-3],"split_indices":[2,3,3,3,3,3,0,3,3,3,3,0,0,0,0,0,0,0,3,2,2,0,0,0,0,0,0],"split_type":[0,0,0,0,0,0,0,0,0,0,0,0,0,0,0,0,0,0,0,0,0,0,0,0,0,0,0],"sum_hessian":[4.68E2,3.37E2,1.31E2,2.11E2,1.26E2,1.9E1,1.12E2,1.04E2,1.07E2,5.9E1,6.7E1,1E0,1.8E1,2.4E1,8E1,4.6E1,6.1E1,2.8E1,3.1E1,2.6E1,4.1E1,2.1E1,1E1,1.6E1,1E1,2.4E1,1.7E1],"tree_param":{"num_deleted":"0","num_feature":"11","num_nodes":"27","size_leaf_vector":"1"}},{"base_weights":[-2.6156122E-4,-1.05165474E-1,2.6549697E-1,-1.4636146E-1,-1.3320468E-2,2.2461943E-1,1.4624463E-2,-1.7081644E-1,-1.1079429E-1,-4.624363E-2,1.5291231E-2,3.643926E-3,1.14368675E-2,-9.5648E-3,-7.7021606E-3,-5.8596754E-3,-4.227684E-3,-2.8339487E-3,-2.4543073E-2,8.644036E-4,2.7828647E-2,-3.0407906E-4,-1.2635653E-3,-2.911717E-4,4.5145475E-4,1.0426622E-3,1.7941402E-3],"categories":[],"categories_nodes":[],"categories_segments":[],"categories_sizes":[],"default_left":[0,0,0,0,0,0,0,0,0,0,0,0,0,0,0,0,0,0,0,0,0,0,0,0,0,0,0],"id":10,"left_children":[1,3,5,7,9,11,-1,13,15,17,19,-1,-1,-1,-1,-1,-1,-1,21,23,25,-1,-1,-1,-1,-1,-1],"loss_changes":[1.3298377E1,1.292057E0,8.325863E-2,1.8634558E-1,1.01499796E-1,1.9571543E-2,0E0,1.7936707E-2,6.714821E-3,9.931557E-3,1.0466703E-2,0E0,0E0,0E0,0E0,0E0,0E0,0E0,8.8306144E-5,1.5814959E-3,9.933375E-4,0E0,0E0,0E0,0E0,0E0,0E0],"parents":[2147483647,0,0,1,1,2,2,3,3,4,4,5,5,7,7,8,8,9,9,10,10,18,18,19,19,20,20],"right_children":[2,4,6,8,10,12,-1,14,16,18,20,-1,-1,-1,-1,-1,-1,-1,22,24,26,-1,-1,-1,-1,-1,-1],"split_conditions":[1.277E1,1.25E1,1.307E1,1.24E1,1.26E1,1.292E1,1.4624463E-2,1.234E1,1.246E1,1.256E1,1.265E1,3.643926E-3,1.14368675E-2,-9.5648E-3,-7.7021606E-3,-5.8596754E-3,-4.227684E-3,-2.8339487E-3,8.5E4,1.263E1,1.267E1,-3.0407906E-4,-1.2635653E-3,-2.911717E-4,4.5145475E-4,1.0426622E-3,1.7941402E-3],"split_indices":[3,3,3,3,3,3,0,3,3,3,3,0,0,0,0,0,0,0,4,3,3,0,0,0,0,0,0],"split_type":[0,0,0,0,0,0,0,0,0,0,0,0,0,0,0,0,0,0,0,0,0,0,0,0,0,0,0],"sum_hessian":[4.75E2,3.41E2,1.34E2,2.35E2,1.06E2,5.7E1,7.7E1,1.37E2,9.8E1,4.9E1,5.7E1,2E0,5.5E1,5.7E1,8E1,7.6E1,2.2E1,3.2E1,1.7E1,2.7E1,3E1,1E0,1.6E1,1.5E1,1.2E1,1.8E1,1.2E1],"tree_param":{"num_deleted":"0","num_feature":"11","num_nodes":"27","size_leaf_vector":"1"}},{"base_weights":[-3.291623E-3,-1.0068166E-1,2.5127548E-1,-1.4179468E-1,-1.7222637E-2,1.7809296E-1,1.3137683E-2,-1.6697949E-1,-1.125734E-1,-4.9614925E-2,1.3297209E-2,3.2864255E-3,9.323071E-3,-9.1491295E-3,-7.5065442E-3,-1.19381055E-1,-4.522014E-3,-3.2124368E-3,-3.6631793E-2,-1.0368526E-3,2.8655577E-2,-6.004537E-3,-1.5651704E-3,-2.004832E-3,-1.1661E-3,-5.058582E-4,2.458596E-4,8.646965E-4,1.5151005E-3],"categories":[],"categories_nodes":[],"categories_segments":[],"categories_sizes":[],"default_left":[0,0,0,0,0,0,0,0,0,0,0,0,0,0,0,0,0,0,0,0,0,0,0,0,0,0,0,0,0],"id":11,"left_children":[1,3,5,7,9,11,-1,13,15,17,19,-1,-1,-1,-1,21,-1,-1,23,25,27,-1,-1,-1,-1,-1,-1,-1,-1],"loss_changes":[1.1826434E1,1.1813397E0,6.408501E-2,1.5120268E-1,1.1434961E-1,7.4908137E-3,0E0,5.423546E-3,5.777359E-3,8.286044E-3,1.323858E-2,0E0,0E0,0E0,0E0,1.303792E-3,0E0,0E0,5.405918E-4,1.7798148E-3,1.8438324E-5,0E0,0E0,0E0,0E0,0E0,0E0,0E0,0E0],"parents":[2147483647,0,0,1,1,2,2,3,3,4,4,5,5,7,7,8,8,9,9,10,10,15,15,18,18,19,19,20,20],"right_children":[2,4,6,8,10,12,-1,14,16,18,20,-1,-1,-1,-1,22,-1,-1,24,26,28,-1,-1,-1,-1,-1,-1,-1,-1],"split_conditions":[1.277E1,1.247E1,1.298E1,1.236E1,1.258E1,1.279E1,1.3137683E-2,1.232E1,1.243E1,1.252E1,1.264E1,3.2864255E-3,9.323071E-3,-9.1491295E-3,-7.5065442E-3,1.247E1,-4.522014E-3,-3.2124368E-3,1.256E1,1.262E1,1.265E1,-6.004537E-3,-1.5651704E-3,-2.004832E-3,-1.1661E-3,-5.058582E-4,2.458596E-4,8.646965E-4,1.5151005E-3],"split_indices":[0,1,1,1,1,1,0,1,1,1,1,0,0,0,0,0,0,0,1,0,1,0,0,0,0,0,0,0,0],"split_type":[0,0,0,0,0,0,0,0,0,0,0,0,0,0,0,0,0,0,0,0,0,0,0,0,0,0,0,0,0],"sum_hessian":[4.75E2,3.44E2,1.31E2,2.3E2,1.14E2,2E1,1.11E2,1.21E2,1.09E2,5.5E1,5.9E1,2E0,1.8E1,5.7E1,6.4E1,8E1,2.9E1,2.4E1,3.1E1,3.1E1,2.8E1,7.9E1,1E0,2.3E1,8E0,1.2E1,1.9E1,5E0,2.3E1],"tree_param":{"num_deleted":"0","num_feature":"11","num_nodes":"29","size_leaf_vector":"1"}},{"base_weights":[-1.672669E-3,-9.707356E-2,2.4143533E-1,-1.3727155E-1,-2.5548523E-2,2.0633586E-1,1.3420966E-2,-1.6100927E-1,-1.12070106E-1,-5.810836E-2,6.3930154E-3,3.8346131E-3,1.0466461E-2,-9.340315E-3,-7.48039E-3,-6.2525943E-3,-4.9364525E-3,-3.5694123E-3,-2.0781772E-3,-9.611534E-3,2.2697926E-2,-8.1416685E-4,-2.5990803E-5,5.9125765E-4,1.4757407E-3],"categories":[],"categories_nodes":[],"categories_segments":[],"categories_sizes":[],"default_left":[0,0,0,0,0,0,0,0,0,0,0,0,0,0,0,0,0,0,0,0,0,0,0,0,0],"id":12,"left_children":[1,3,5,7,9,11,-1,13,15,17,19,-1,-1,-1,-1,-1,-1,-1,-1,21,23,-1,-1,-1,-1],"loss_changes":[1.1109558E1,9.8554826E-1,7.2476864E-2,1.1356497E-1,1.3037291E-1,8.39448E-3,0E0,4.700184E-3,6.704688E-3,1.065506E-2,1.6919138E-2,0E0,0E0,0E0,0E0,0E0,0E0,0E0,0E0,1.9932545E-3,2.022773E-3,0E0,0E0,0E0,0E0],"parents":[2147483647,0,0,1,1,2,2,3,3,4,4,5,5,7,7,8,8,9,9,10,10,19,19,20,20],"right_children":[2,4,6,8,10,12,-1,14,16,18,20,-1,-1,-1,-1,-1,-1,-1,-1,22,24,-1,-1,-1,-1],"split_conditions":[1.284E1,1.247E1,1.308E1,1.237E1,1.257E1,1.279E1,1.3420966E-2,1.231E1,1.242E1,1.252E1,1.264E1,3.8346131E-3,1.0466461E-2,-9.340315E-3,-7.48039E-3,-6.2525943E-3,-4.9364525E-3,-3.5694123E-3,-2.0781772E-3,1.261E1,1.267E1,-8.1416685E-4,-2.5990803E-5,5.9125765E-4,1.4757407E-3],"split_indices":[2,3,3,3,3,1,0,3,3,3,3,0,0,0,0,0,0,0,0,3,2,0,0,0,0],"split_type":[0,0,0,0,0,0,0,0,0,0,0,0,0,0,0,0,0,0,0,0,0,0,0,0,0],"sum_hessian":[4.77E2,3.43E2,1.34E2,2.19E2,1.24E2,6.2E1,7.2E1,1.1E2,1.09E2,6.1E1,6.3E1,2E0,6E1,2.9E1,8.1E1,5.1E1,5.8E1,3.2E1,2.9E1,3.2E1,3.1E1,1.8E1,1.4E1,1.3E1,1.8E1],"tree_param":{"num_deleted":"0","num_feature":"11","num_nodes":"25","size_leaf_vector":"1"}},{"base_weights":[-3.919421E-3,-9.023497E-2,2.2467552E-1,-1.244201E-1,-1.0023126E-2,1.5385605E-1,1.1834982E-2,-1.4519735E-1,-8.940499E-2,-4.1232783E-2,1.1470525E-2,3.0490558E-3,8.021141E-3,-8.417721E-3,-6.493011E-3,-4.7338367E-3,-3.4523334E-3,-4.6871454E-2,-1.9065762E-2,-4.909689E-4,2.5158336E-2,-2.716516E-3,-1.9025883E-3,-2.6347637E-4,-1.0006587E-3,-4.7971407E-4,2.2483955E-4,8.817112E-4,1.6860486E-3],"categories":[],"categories_nodes":[],"categories_segments":[],"categories_sizes":[],"default_left":[0,0,0,0,0,0,0,0,0,0,0,0,0,0,0,0,0,0,0,0,0,0,0,0,0,0,0,0,0],"id":13,"left_children":[1,3,5,7,9,11,-1,13,15,17,19,-1,-1,-1,-1,-1,-1,21,23,25,27,-1,-1,-1,-1,-1,-1,-1,-1],"loss_changes":[8.998014E0,9.063721E-1,7.002449E-2,1.5580273E-1,6.755391E-2,3.0249357E-3,0E0,2.9280901E-2,3.0146837E-3,4.2310506E-3,9.835953E-3,0E0,0E0,0E0,0E0,0E0,0E0,3.7752092E-5,2.5247457E-5,1.541513E-3,1.2092907E-3,0E0,0E0,0E0,0E0,0E0,0E0,0E0,0E0],"parents":[2147483647,0,0,1,1,2,2,3,3,4,4,5,5,7,7,8,8,9,9,10,10,17,17,18,18,19,19,20,20],"right_children":[2,4,6,8,10,12,-1,14,16,18,20,-1,-1,-1,-1,-1,-1,22,24,26,28,-1,-1,-1,-1,-1,-1,-1,-1],"split_conditions":[1.284E1,1.25E1,1.301E1,1.241E1,1.26E1,1.282E1,1.1834982E-2,1.234E1,1.247E1,1.257E1,1.265E1,3.0490558E-3,8.021141E-3,-8.417721E-3,-6.493011E-3,-4.7338367E-3,-3.4523334E-3,1.253E1,8.5E4,1.262E1,1.267E1,-2.716516E-3,-1.9025883E-3,-2.6347637E-4,-1.0006587E-3,-4.7971407E-4,2.2483955E-4,8.817112E-4,1.6860486E-3],"split_indices":[2,3,3,3,3,3,0,3,3,3,3,0,0,0,0,0,0,3,4,3,3,0,0,0,0,0,0,0,0],"split_type":[0,0,0,0,0,0,0,0,0,0,0,0,0,0,0,0,0,0,0,0,0,0,0,0,0,0,0,0,0],"sum_hessian":[4.54E2,3.3E2,1.24E2,2.31E2,9.9E1,2E1,1.04E2,1.43E2,8.8E1,4E1,5.9E1,2E0,1.8E1,5.3E1,9E1,6.7E1,2.1E1,3.1E1,9E0,3.2E1,2.7E1,1.4E1,1.7E1,1E0,8E0,1.1E1,2.1E1,1.6E1,1.1E1],"tree_param":{"num_deleted":"0","num_feature":"11","num_nodes":"29","size_leaf_vector":"1"}},{"base_weights":[-3.0041658E-3,-8.691897E-2,2.153231E-1,-1.209082E-1,-1.1906545E-2,1.7564534E-1,1.1783148E-2,-1.4526702E-1,-9.57448E-2,-4.055722E-2,1.130312E-2,3.5999299E-3,9.041986E-3,-8.220773E-3,-6.5700435E-3,-5.1607904E-3,-3.8097948E-3,-2.6728788E-3,-2.9817056E-2,-3.335105E-3,2.2272518E-2,-1.6389756E-3,-9.795825E-4,-5.0835137E-4,3.2284526E-5,6.6342886E-4,1.501955E-3],"categories":[],"categories_nodes":[],"categories_segments":[],"categories_sizes":[],"default_left":[0,0,0,0,0,0,0,0,0,0,0,0,0,0,0,0,0,0,0,0,0,0,0,0,0,0,0],"id":14,"left_children":[1,3,5,7,9,11,-1,13,15,17,19,-1,-1,-1,-1,-1,-1,-1,21,23,25,-1,-1,-1,-1,-1,-1],"loss_changes":[8.776101E0,8.807268E-1,6.594324E-2,1.3197398E-1,7.2940424E-2,1.3360381E-2,0E0,9.991884E-3,9.661436E-3,5.1951036E-3,9.869206E-3,0E0,0E0,0E0,0E0,0E0,0E0,0E0,2.3627281E-4,7.408697E-4,2.0489693E-3,0E0,0E0,0E0,0E0,0E0,0E0],"parents":[2147483647,0,0,1,1,2,2,3,3,4,4,5,5,7,7,8,8,9,9,10,10,18,18,19,19,20,20],"right_children":[2,4,6,8,10,12,-1,14,16,18,20,-1,-1,-1,-1,-1,-1,-1,22,24,26,-1,-1,-1,-1,-1,-1],"split_conditions":[1.284E1,1.248E1,1.308E1,1.239E1,1.258E1,1.279E1,1.1783148E-2,1.231E1,1.243E1,1.252E1,1.263E1,3.5999299E-3,9.041986E-3,-8.220773E-3,-6.5700435E-3,-5.1607904E-3,-3.8097948E-3,-2.6728788E-3,1.256E1,1.263E1,1.268E1,-1.6389756E-3,-9.795825E-4,-5.0835137E-4,3.2284526E-5,6.6342886E-4,1.501955E-3],"split_indices":[2,1,2,2,1,1,0,1,1,1,1,0,0,0,0,0,0,0,1,2,2,0,0,0,0,0,0],"split_type":[0,0,0,0,0,0,0,0,0,0,0,0,0,0,0,0,0,0,0,0,0,0,0,0,0,0,0],"sum_hessian":[4.77E2,3.45E2,1.32E2,2.37E2,1.08E2,4.8E1,8.4E1,1.18E2,1.19E2,4.8E1,6E1,3E0,4.5E1,4.5E1,7.3E1,8.3E1,3.6E1,2E1,2.8E1,2.6E1,3.4E1,2E1,8E0,9E0,1.7E1,1.7E1,1.7E1],"tree_param":{"num_deleted":"0","num_feature":"11","num_nodes":"27","size_leaf_vector":"1"}},{"base_weights":[2.2439432E-4,-8.418485E-2,2.0724104E-1,-1.17812656E-1,-2.1060484E-2,1.783423E-1,1.1579639E-2,-1.3818312E-1,-9.559687E-2,-4.8022173E-2,6.715144E-3,3.0100981E-3,9.05256E-3,-8.281487E-3,-6.461458E-3,-5.424557E-3,-4.2518447E-3,-3.000016E-3,-3.4881316E-2,-8.751135E-3,1.8344795E-2,-1.8319272E-3,-9.2080113E-4,-6.56271E-4,-7.9649144E-5,5.276952E-4,1.4360393E-3],"categories":[],"categories_nodes":[],"categories_segments":[],"categories_sizes":[],"default_left":[0,0,0,0,0,0,0,0,0,0,0,0,0,0,0,0,0,0,0,0,0,0,0,0,0,0,0],"id":15,"left_children":[1,3,5,7,9,11,-1,13,15,17,19,-1,-1,-1,-1,-1,-1,-1,21,23,25,-1,-1,-1,-1,-1,-1],"loss_changes":[8.26523E0,7.107575E-1,5.5108547E-2,8.5897446E-2,8.869007E-2,1.0542393E-2,0E0,6.1204433E-3,5.479872E-3,7.351294E-3,1.0772717E-2,0E0,0E0,0E0,0E0,0E0,0E0,0E0,2.2219494E-4,7.931981E-4,2.445382E-3,0E0,0E0,0E0,0E0,0E0,0E0],"parents":[2147483647,0,0,1,1,2,2,3,3,4,4,5,5,7,7,8,8,9,9,10,10,18,18,19,19,20,20],"right_children":[2,4,6,8,10,12,-1,14,16,18,20,-1,-1,-1,-1,-1,-1,-1,22,24,26,-1,-1,-1,-1,-1,-1],"split_conditions":[1.284E1,1.247E1,1.308E1,1.237E1,1.258E1,1.276E1,1.1579639E-2,1.23E1,1.242E1,1.252E1,1.263E1,3.0100981E-3,9.05256E-3,-8.281487E-3,-6.461458E-3,-5.424557E-3,-4.2518447E-3,-3.000016E-3,1.257E1,1.261E1,1.268E1,-1.8319272E-3,-9.2080113E-4,-6.56271E-4,-7.9649144E-5,5.276952E-4,1.4360393E-3],"split_indices":[2,3,3,3,3,1,0,3,3,3,3,0,0,0,0,0,0,0,3,3,2,0,0,0,0,0,0],"split_type":[0,0,0,0,0,0,0,0,0,0,0,0,0,0,0,0,0,0,0,0,0,0,0,0,0,0,0],"sum_hessian":[4.71E2,3.35E2,1.36E2,2.18E2,1.17E2,6.6E1,7E1,1.11E2,1.07E2,5.9E1,5.8E1,2E0,6.4E1,2.3E1,8.8E1,4.4E1,6.3E1,2.9E1,3E1,2.5E1,3.3E1,2.6E1,4E0,1.5E1,1E1,2E1,1.3E1],"tree_param":{"num_deleted":"0","num_feature":"11","num_nodes":"27","size_leaf_vector":"1"}},{"base_weights":[-1.1137835E-3,-7.904734E-2,1.9838116E-1,-1.0893633E-1,-1.2105844E-2,1.7189659E-1,1.1275017E-2,-1.2598671E-1,-8.118106E-2,-3.8256872E-2,1.0646869E-2,2.6263872E-3,8.727836E-3,-6.9698147E-3,-5.5425637E-3,-4.415859E-3,-3.3714466E-3,-2.2532651E-3,-2.3649374E-2,-2.128707E-3,2.1093547E-2,-1.3392568E-3,-7.4476516E-4,-3.7834828E-4,1.3631821E-4,7.298656E-4,1.6962767E-3],"categories":[],"categories_nodes":[],"categories_segments":[],"categories_sizes":[],"default_left":[0,0,0,0,0,0,0,0,0,0,0,0,0,0,0,0,0,0,0,0,0,0,0,0,0,0,0],"id":16,"left_children":[1,3,5,7,9,11,-1,13,15,17,19,-1,-1,-1,-1,-1,-1,-1,21,23,25,-1,-1,-1,-1,-1,-1],"loss_changes":[7.41622E0,6.849606E-1,5.7481766E-2,1.01929665E-1,6.4073056E-2,1.3693333E-2,0E0,1.3977051E-2,3.1716228E-3,3.9069355E-3,7.7857175E-3,0E0,0E0,0E0,0E0,0E0,0E0,0E0,9.513926E-5,7.335149E-4,2.1722857E-3,0E0,0E0,0E0,0E0,0E0,0E0],"parents":[2147483647,0,0,1,1,2,2,3,3,4,4,5,5,7,7,8,8,9,9,10,10,18,18,19,19,20,20],"right_children":[2,4,6,8,10,12,-1,14,16,18,20,-1,-1,-1,-1,-1,-1,-1,22,24,26,-1,-1,-1,-1,-1,-1],"split_conditions":[1.277E1,1.249E1,1.309E1,1.24E1,1.258E1,1.279E1,1.1275017E-2,1.235E1,1.245E1,1.255E1,1.263E1,2.6263872E-3,8.727836E-3,-6.9698147E-3,-5.5425637E-3,-4.415859E-3,-3.3714466E-3,-2.2532651E-3,1.258E1,1.262E1,1.268E1,-1.3392568E-3,-7.4476516E-4,-3.7834828E-4,1.3631821E-4,7.298656E-4,1.6962767E-3],"split_indices":[0,3,3,3,1,1,0,3,3,3,1,0,0,0,0,0,0,0,3,3,3,0,0,0,0,0,0],"split_type":[0,0,0,0,0,0,0,0,0,0,0,0,0,0,0,0,0,0,0,0,0,0,0,0,0,0,0],"sum_hessian":[4.75E2,3.42E2,1.33E2,2.36E2,1.06E2,7.1E1,6.2E1,1.44E2,9.2E1,4.9E1,5.7E1,2E0,6.9E1,7.2E1,7.2E1,5.7E1,3.5E1,3.2E1,1.7E1,2.6E1,3.1E1,1.1E1,6E0,1.2E1,1.4E1,2.2E1,9E0],"tree_param":{"num_deleted":"0","num_feature":"11","num_nodes":"27","size_leaf_vector":"1"}},{"base_weights":[-2.1013083E-4,-7.557821E-2,1.8420263E-1,-1.07031666E-1,-1.9363884E-2,1.336258E-1,9.862066E-3,-1.3012336E-1,-9.017383E-2,-4.4147618E-2,4.192602E-3,2.6040555E-3,7.0132785E-3,-7.6340376E-3,-6.0124183E-3,-5.096921E-3,-3.888759E-3,-2.7506023E-3,-3.1087304E-2,-8.132083E-3,1.3163617E-2,-1.6338073E-3,-8.303928E-4,-6.368339E-4,-9.196722E-5,4.5775855E-4,1.108512E-3],"categories":[],"categories_nodes":[],"categories_segments":[],"categories_sizes":[],"default_left":[0,0,0,0,0,0,0,0,0,0,0,0,0,0,0,0,0,0,0,0,0,0,0,0,0,0,0],"id":17,"left_children":[1,3,5,7,9,11,-1,13,15,17,19,-1,-1,-1,-1,-1,-1,-1,21,23,25,-1,-1,-1,-1,-1,-1],"loss_changes":[6.754857E0,6.079341E-1,6.6627026E-2,7.4296236E-2,7.31623E-2,1.00207925E-2,0E0,1.9110441E-3,1.1179924E-2,6.945275E-3,7.293768E-3,0E0,0E0,0E0,0E0,0E0,0E0,0E0,1.4748424E-4,7.878874E-4,1.1689248E-3,0E0,0E0,0E0,0E0,0E0,0E0],"parents":[2147483647,0,0,1,1,2,2,3,3,4,4,5,5,7,7,8,8,9,9,10,10,18,18,19,19,20,20],"right_children":[2,4,6,8,10,12,-1,14,16,18,20,-1,-1,-1,-1,-1,-1,-1,22,24,26,-1,-1,-1,-1,-1,-1],"split_conditions":[1.271E1,1.247E1,1.302E1,1.236E1,1.258E1,1.282E1,9.862066E-3,1.23E1,1.241E1,1.252E1,1.263E1,2.6040555E-3,7.0132785E-3,-7.6340376E-3,-6.0124183E-3,-5.096921E-3,-3.888759E-3,-2.7506023E-3,1.257E1,1.261E1,1.267E1,-1.6338073E-3,-8.303928E-4,-6.368339E-4,-9.196722E-5,4.5775855E-4,1.108512E-3],"split_indices":[3,3,3,3,3,3,0,3,3,3,3,0,0,0,0,0,0,0,3,3,3,0,0,0,0,0,0],"split_type":[0,0,0,0,0,0,0,0,0,0,0,0,0,0,0,0,0,0,0,0,0,0,0,0,0,0,0],"sum_hessian":[4.84E2,3.44E2,1.4E2,2.2E2,1.24E2,3.1E1,1.09E2,9E1,1.3E2,6E1,6.4E1,3E0,2.8E1,2.3E1,6.7E1,6.3E1,6.7E1,3.1E1,2.9E1,2.7E1,3.7E1,2.5E1,4E0,1.5E1,1.2E1,2.7E1,1E1],"tree_param":{"num_deleted":"0","num_feature":"11","num_nodes":"27","size_leaf_vector":"1"}},{"base_weights":[1.9534223E-3,-7.20875E-2,1.7612197E-1,-9.867821E-2,-9.851542E-3,1.4869936E-1,9.753349E-3,-1.1619831E-1,-7.407278E-2,-3.2867473E-2,9.937056E-3,5.261342E-3,7.807939E-3,-7.400052E-3,-5.424615E-3,-4.01166E-3,-3.0617237E-3,-1.9652515E-3,-1.0334942E-3,1.8767188E-3,2.2513935E-2,-2.1403538E-4,3.7939017E-4,7.179187E-4,1.589632E-3],"categories":[],"categories_nodes":[],"categories_segments":[],"categories_sizes":[],"default_left":[0,0,0,0,0,0,0,0,0,0,0,0,0,0,0,0,0,0,0,0,0,0,0,0,0],"id":18,"left_children":[1,3,5,7,9,11,-1,13,15,17,19,-1,-1,-1,-1,-1,-1,-1,-1,21,23,-1,-1,-1,-1],"loss_changes":[6.00915E0,5.401796E-1,4.320717E-2,9.011245E-2,4.5416456E-2,3.3489466E-3,0E0,1.6292572E-2,2.8377175E-3,2.7996115E-3,5.431938E-3,0E0,0E0,0E0,0E0,0E0,0E0,0E0,0E0,1.228111E-3,1.1326429E-3,0E0,0E0,0E0,0E0],"parents":[2147483647,0,0,1,1,2,2,3,3,4,4,5,5,7,7,8,8,9,9,10,10,19,19,20,20],"right_children":[2,4,6,8,10,12,-1,14,16,18,20,-1,-1,-1,-1,-1,-1,-1,-1,22,24,-1,-1,-1,-1],"split_conditions":[1.277E1,1.25E1,1.307E1,1.239E1,1.258E1,1.297E1,9.753349E-3,1.23E1,1.245E1,1.255E1,1.266E1,5.261342E-3,7.807939E-3,-7.400052E-3,-5.424615E-3,-4.01166E-3,-3.0617237E-3,-1.9652515E-3,-1.0334942E-3,1.263E1,1.268E1,-2.1403538E-4,3.7939017E-4,7.179187E-4,1.589632E-3],"split_indices":[3,3,3,3,1,3,0,3,3,3,3,0,0,0,0,0,0,0,0,3,3,0,0,0,0],"split_type":[0,0,0,0,0,0,0,0,0,0,0,0,0,0,0,0,0,0,0,0,0,0,0,0,0],"sum_hessian":[4.64E2,3.26E2,1.38E2,2.28E2,9.8E1,6E1,7.8E1,1.31E2,9.7E1,4.5E1,5.3E1,1.1E1,4.9E1,2.2E1,1.09E2,6.2E1,3.5E1,2.8E1,1.7E1,3.3E1,2E1,1.6E1,1.7E1,1.2E1,8E0],"tree_param":{"num_deleted":"0","num_feature":"11","num_nodes":"25","size_leaf_vector":"1"}},{"base_weights":[2.1406754E-3,-6.68226E-2,1.6865838E-1,-9.420875E-2,-8.28407E-3,1.4277533E-1,9.532648E-3,-1.1154267E-1,-7.072129E-2,-3.1205643E-2,8.761093E-3,5.203278E-3,7.5153345E-3,-6.8583647E-3,-5.12338E-3,-3.8379894E-3,-2.8637338E-3,-1.9456448E-3,-2.2141622E-2,-2.762724E-3,1.7400578E-2,-1.2099267E-3,-6.1403116E-4,-3.9942082E-4,9.751956E-5,5.557819E-4,1.3017007E-3],"categories":[],"categories_nodes":[],"categories_segments":[],"categories_sizes":[],"default_left":[0,0,0,0,0,0,0,0,0,0,0,0,0,0,0,0,0,0,0,0,0,0,0,0,0,0,0],"id":19,"left_children":[1,3,5,7,9,11,-1,13,15,17,19,-1,-1,-1,-1,-1,-1,-1,21,23,25,-1,-1,-1,-1,-1,-1],"loss_changes":[5.293729E0,5.2184474E-1,4.9633503E-2,8.249438E-2,4.12971E-2,3.5996437E-3,0E0,1.5245438E-2,3.4797788E-3,2.2820458E-3,6.1212224E-3,0E0,0E0,0E0,0E0,0E0,0E0,0E0,1.6933959E-4,6.8057136E-4,1.609737E-3,0E0,0E0,0E0,0E0,0E0,0E0],"parents":[2147483647,0,0,1,1,2,2,3,3,4,4,5,5,7,7,8,8,9,9,10,10,18,18,19,19,20,20],"right_children":[2,4,6,8,10,12,-1,14,16,18,20,-1,-1,-1,-1,-1,-1,-1,22,24,26,-1,-1,-1,-1,-1,-1],"split_conditions":[1.284E1,1.248E1,1.308E1,1.239E1,1.258E1,1.298E1,9.532648E-3,1.231E1,1.245E1,1.254E1,1.266E1,5.203278E-3,7.5153345E-3,-6.8583647E-3,-5.12338E-3,-3.8379894E-3,-2.8637338E-3,-1.9456448E-3,1.258E1,1.262E1,1.267E1,-1.2099267E-3,-6.1403116E-4,-3.9942082E-4,9.751956E-5,5.557819E-4,1.3017007E-3],"split_indices":[2,1,3,3,1,3,0,3,3,3,2,0,0,0,0,0,0,0,3,3,3,0,0,0,0,0,0],"split_type":[0,0,0,0,0,0,0,0,0,0,0,0,0,0,0,0,0,0,0,0,0,0,0,0,0,0,0],"sum_hessian":[4.59E2,3.25E2,1.34E2,2.21E2,1.04E2,6.5E1,6.9E1,1.25E2,9.6E1,4.4E1,6E1,1.3E1,5.2E1,2.9E1,9.6E1,6.3E1,3.3E1,2.2E1,2.2E1,2.6E1,3.4E1,1.7E1,5E0,1.2E1,1.4E1,2.1E1,1.3E1],"tree_param":{"num_deleted":"0","num_feature":"11","num_nodes":"27","size_leaf_vector":"1"}},{"base_weights":[-2.9699474E-3,-6.3000485E-2,1.6033688E-1,-8.9858934E-2,-1.0361244E-2,1.232139E-1,8.849479E-3,-1.118771E-1,-7.489926E-2,-2.9777339E-2,1.09734535E-2,2.6444555E-3,6.363369E-3,-6.709973E-3,-5.1032384E-3,-4.3080705E-3,-3.2073439E-3,-1.982975E-3,-1.824379E-2,9.7545626E-4,1.8441468E-2,-1.1004674E-3,-5.38067E-4,-1.4539107E-4,2.7123292E-4,6.6332816E-4,1.4249802E-3],"categories":[],"categories_nodes":[],"categories_segments":[],"categories_sizes":[],"default_left":[0,0,0,0,0,0,0,0,0,0,0,0,0,0,0,0,0,0,0,0,0,0,0,0,0,0,0],"id":20,"left_children":[1,3,5,7,9,11,-1,13,15,17,19,-1,-1,-1,-1,-1,-1,-1,21,23,25,-1,-1,-1,-1,-1,-1],"loss_changes":[4.5588775E0,4.7976375E-1,5.546713E-2,6.5732E-2,4.83782E-2,5.2414536E-3,0E0,5.7970285E-3,1.1063039E-2,6.2290207E-3,4.1632615E-3,0E0,0E0,0E0,0E0,0E0,0E0,0E0,6.0841814E-4,4.477111E-4,1.287505E-3,0E0,0E0,0E0,0E0,0E0,0E0],"parents":[2147483647,0,0,1,1,2,2,3,3,4,4,5,5,7,7,8,8,9,9,10,10,18,18,19,19,20,20],"right_children":[2,4,6,8,10,12,-1,14,16,18,20,-1,-1,-1,-1,-1,-1,-1,22,24,26,-1,-1,-1,-1,-1,-1],"split_conditions":[1.284E1,1.251E1,1.307E1,1.236E1,1.262E1,1.294E1,8.849479E-3,1.23E1,1.242E1,1.254E1,1.265E1,2.6444555E-3,6.363369E-3,-6.709973E-3,-5.1032384E-3,-4.3080705E-3,-3.2073439E-3,-1.982975E-3,1.258E1,1.263E1,1.268E1,-1.1004674E-3,-5.38067E-4,-1.4539107E-4,2.7123292E-4,6.6332816E-4,1.4249802E-3],"split_indices":[2,2,2,3,2,2,0,3,3,3,3,0,0,0,0,0,0,0,3,3,3,0,0,0,0,0,0],"split_type":[0,0,0,0,0,0,0,0,0,0,0,0,0,0,0,0,0,0,0,0,0,0,0,0,0,0,0],"sum_hessian":[4.63E2,3.39E2,1.24E2,2.24E2,1.15E2,4.1E1,8.3E1,8.8E1,1.36E2,6E1,5.5E1,3E0,3.8E1,2.3E1,6.5E1,6.3E1,7.3E1,3.1E1,2.9E1,2.4E1,3.1E1,1.8E1,1.1E1,1.3E1,1.1E1,2.2E1,9E0],"tree_param":{"num_deleted":"0","num_feature":"11","num_nodes":"27","size_leaf_vector":"1"}},{"base_weights":[-2.1374007E-3,-6.1820127E-2,1.5114494E-1,-8.4503874E-2,-1.0099979E-2,1.2952562E-1,8.585208E-3,-1.063369E-1,-7.080045E-2,-2.7931891E-2,9.428342E-3,2.5452853E-3,6.625437E-3,-6.2930435E-3,-4.891556E-3,-3.8708735E-3,-2.7555402E-3,-1.8319519E-3,-1.7815553E-2,1.8826484E-3,2.0846367E-2,-1.0565817E-3,-5.686283E-4,-1.2527837E-4,3.9069104E-4,4.8261485E-4,1.2077399E-3],"categories":[],"categories_nodes":[],"categories_segments":[],"categories_sizes":[],"default_left":[0,0,0,0,0,0,0,0,0,0,0,0,0,0,0,0,0,0,0,0,0,0,0,0,0,0,0],"id":21,"left_children":[1,3,5,7,9,11,-1,13,15,17,19,-1,-1,-1,-1,-1,-1,-1,21,23,25,-1,-1,-1,-1,-1,-1],"loss_changes":[4.0803413E0,3.7574577E-1,3.3319473E-2,5.9190035E-2,3.4737855E-2,8.499265E-3,0E0,1.6365051E-3,1.0268033E-2,3.927648E-3,4.0962864E-3,0E0,0E0,0E0,0E0,0E0,0E0,0E0,3.1518098E-4,8.003959E-4,4.7051162E-4,0E0,0E0,0E0,0E0,0E0,0E0],"parents":[2147483647,0,0,1,1,2,2,3,3,4,4,5,5,7,7,8,8,9,9,10,10,18,18,19,19,20,20],"right_children":[2,4,6,8,10,12,-1,14,16,18,20,-1,-1,-1,-1,-1,-1,-1,22,24,26,-1,-1,-1,-1,-1,-1],"split_conditions":[1.284E1,1.249E1,1.308E1,1.236E1,1.26E1,1.279E1,8.585208E-3,1.23E1,1.244E1,1.254E1,1.267E1,2.5452853E-3,6.625437E-3,-6.2930435E-3,-4.891556E-3,-3.8708735E-3,-2.7555402E-3,-1.8319519E-3,1.258E1,1.264E1,1.5E1,-1.0565817E-3,-5.686283E-4,-1.2527837E-4,3.9069104E-4,4.8261485E-4,1.2077399E-3],"split_indices":[2,3,3,3,3,1,0,3,3,3,2,0,0,0,0,0,0,0,3,3,9,0,0,0,0,0,0],"split_type":[0,0,0,0,0,0,0,0,0,0,0,0,0,0,0,0,0,0,0,0,0,0,0,0,0,0,0],"sum_hessian":[4.44E2,3.2E2,1.24E2,2.22E2,9.8E1,6.4E1,6E1,8.3E1,1.39E2,5.1E1,4.7E1,3E0,6.1E1,2.1E1,6.2E1,9.5E1,4.4E1,2.6E1,2.5E1,2.9E1,1.8E1,1.5E1,1E1,1.7E1,1.2E1,5E0,1.3E1],"tree_param":{"num_deleted":"0","num_feature":"11","num_nodes":"27","size_leaf_vector":"1"}},{"base_weights":[4.3668197E-3,-5.8001485E-2,1.4477625E-1,-8.28377E-2,-1.4519666E-2,1.287186E-1,8.67348E-3,-5.223547E-3,-7.106575E-2,-3.1920347E-2,8.739624E-3,3.4846724E-3,6.6356296E-3,-3.9965366E-3,-3.0043875E-3,-2.0619202E-3,-2.073121E-2,4.4038636E-3,1.4001052E-3,-1.1580696E-3,-6.534338E-4,-2.2632918E-4,4.5153755E-4],"categories":[],"categories_nodes":[],"categories_segments":[],"categories_sizes":[],"default_left":[0,0,0,0,0,0,0,0,0,0,0,0,0,0,0,0,0,0,0,0,0,0,0],"id":22,"left_children":[1,3,5,7,9,11,-1,-1,13,15,17,-1,-1,-1,-1,-1,19,21,-1,-1,-1,-1,-1],"loss_changes":[3.9578488E0,3.3681345E-1,4.1715145E-2,4.3254137E-2,4.682263E-2,1.2675285E-2,0E0,0E0,8.043349E-3,6.026298E-3,4.052557E-3,0E0,0E0,0E0,0E0,0E0,2.9319432E-4,1.7763255E-3,0E0,0E0,0E0,0E0,0E0],"parents":[2147483647,0,0,1,1,2,2,3,3,4,4,5,5,8,8,9,9,10,10,16,16,17,17],"right_children":[2,4,6,8,10,12,-1,-1,14,16,18,-1,-1,-1,-1,-1,20,22,-1,-1,-1,-1,-1],"split_conditions":[1.284E1,1.247E1,1.31E1,1.235E1,1.258E1,1.296E1,8.67348E-3,-5.223547E-3,1.241E1,1.253E1,1.268E1,3.4846724E-3,6.6356296E-3,-3.9965366E-3,-3.0043875E-3,-2.0619202E-3,1.256E1,1.263E1,1.4001052E-3,-1.1580696E-3,-6.534338E-4,-2.2632918E-4,4.5153755E-4],"split_indices":[2,3,3,3,1,3,0,0,3,3,3,0,0,0,0,0,1,3,0,0,0,0,0],"split_type":[0,0,0,0,0,0,0,0,0,0,0,0,0,0,0,0,0,0,0,0,0,0,0],"sum_hessian":[4.5E2,3.12E2,1.38E2,1.98E2,1.14E2,9.2E1,4.6E1,6.7E1,1.31E2,6.5E1,4.9E1,7E0,8.5E1,6.9E1,6.2E1,3.4E1,3.1E1,4.1E1,8E0,2.2E1,9E0,1.4E1,2.7E1],"tree_param":{"num_deleted":"0","num_feature":"11","num_nodes":"23","size_leaf_vector":"1"}},{"base_weights":[2.1527226E-3,-5.2759506E-2,1.3623437E-1,-7.498757E-2,-6.207154E-3,1.1535306E-1,7.7435593E-3,-8.676184E-2,-5.4537475E-2,-2.3254124E-2,9.47727E-3,2.3191571E-3,5.8892644E-3,-4.911015E-3,-3.8389289E-3,-2.9297885E-3,-2.2019148E-3,-3.0253904E-2,-1.4204216E-2,2.4959901E-3,1.859272E-2,-1.6575154E-3,-1.0067039E-3,-8.190632E-4,-3.7651657E-4,-3.1893593E-5,3.509249E-4,1.6550064E-3,7.554943E-4],"categories":[],"categories_nodes":[],"categories_segments":[],"categories_sizes":[],"default_left":[0,0,0,0,0,0,0,0,0,0,0,0,0,0,0,0,0,0,0,0,0,0,0,0,0,0,0,0,0],"id":23,"left_children":[1,3,5,7,9,11,-1,13,15,17,19,-1,-1,-1,-1,-1,-1,21,23,25,27,-1,-1,-1,-1,-1,-1,-1,-1],"loss_changes":[3.497118E0,3.4825152E-1,3.583932E-2,5.0167084E-2,2.9631296E-2,6.1115623E-3,0E0,8.817077E-3,1.0838807E-3,2.9276777E-3,3.6445688E-3,0E0,0E0,0E0,0E0,0E0,0E0,1.8257089E-4,2.3987796E-4,4.8635603E-4,7.630335E-4,0E0,0E0,0E0,0E0,0E0,0E0,0E0,0E0],"parents":[2147483647,0,0,1,1,2,2,3,3,4,4,5,5,7,7,8,8,9,9,10,10,17,17,18,18,19,19,20,20],"right_children":[2,4,6,8,10,12,-1,14,16,18,20,-1,-1,-1,-1,-1,-1,22,24,26,28,-1,-1,-1,-1,-1,-1,-1,-1],"split_conditions":[1.284E1,1.25E1,1.31E1,1.243E1,1.262E1,1.292E1,7.7435593E-3,1.233E1,1.248E1,1.257E1,1.267E1,2.3191571E-3,5.8892644E-3,-4.911015E-3,-3.8389289E-3,-2.9297885E-3,-2.2019148E-3,1.253E1,3.963932E-3,1.266E1,2.5654498E-3,-1.6575154E-3,-1.0067039E-3,-8.190632E-4,-3.7651657E-4,-3.1893593E-5,3.509249E-4,1.6550064E-3,7.554943E-4],"split_indices":[2,0,2,2,2,0,0,1,2,2,2,0,0,0,0,0,0,1,5,2,5,0,0,0,0,0,0,0,0],"split_type":[0,0,0,0,0,0,0,0,0,0,0,0,0,0,0,0,0,0,0,0,0,0,0,0,0,0,0,0,0],"sum_hessian":[4.73E2,3.36E2,1.37E2,2.27E2,1.09E2,6.8E1,6.9E1,1.42E2,8.5E1,5.2E1,5.7E1,3E0,6.5E1,6.2E1,8E1,5.8E1,2.7E1,2.8E1,2.4E1,3.3E1,2.4E1,2E1,8E0,1.7E1,7E0,2E1,1.3E1,3E0,2.1E1],"tree_param":{"num_deleted":"0","num_feature":"11","num_nodes":"29","size_leaf_vector":"1"}},{"base_weights":[-3.1155257E-3,-5.266926E-2,1.2779064E-1,-7.226587E-2,-6.3745975E-3,7.478881E-2,1.339996E-1,-8.9374535E-2,-5.6956366E-2,-2.0482207E-2,8.1269005E-3,1.529646E-3,4.1317283E-3,6.095357E-3,7.6573305E-3,-5.846183E-3,-4.1639046E-3,-3.3145125E-3,-2.3937772E-3,-1.4019391E-3,-1.0897293E-2,1.444941E-3,1.297884E-2,-7.200321E-4,-3.5580227E-4,-6.336066E-5,2.259428E-4,4.7136872E-4,1.0109054E-3],"categories":[],"categories_nodes":[],"categories_segments":[],"categories_sizes":[],"default_left":[0,0,0,0,0,0,0,0,0,0,0,0,0,0,0,0,0,0,0,0,0,0,0,0,0,0,0,0,0],"id":24,"left_children":[1,3,5,7,9,11,13,15,17,19,21,-1,-1,-1,-1,-1,-1,-1,-1,-1,23,25,27,-1,-1,-1,-1,-1,-1],"loss_changes":[3.09449E0,3.1343693E-1,3.3088446E-2,5.855739E-2,2.1442931E-2,3.0199662E-3,8.188486E-3,9.241283E-3,7.929802E-3,3.5331976E-3,1.6671107E-3,0E0,0E0,0E0,0E0,0E0,0E0,0E0,0E0,0E0,2.287E-4,1.9747575E-4,5.8069685E-4,0E0,0E0,0E0,0E0,0E0,0E0],"parents":[2147483647,0,0,1,1,2,2,3,3,4,4,5,5,6,6,7,7,8,8,9,9,10,10,20,20,21,21,22,22],"right_children":[2,4,6,8,10,12,14,16,18,20,22,-1,-1,-1,-1,-1,-1,-1,-1,-1,24,26,28,-1,-1,-1,-1,-1,-1],"split_conditions":[1.271E1,1.25E1,1.299E1,1.237E1,1.263E1,1.28E1,1.31E1,1.229E1,1.243E1,1.256E1,1.265E1,1.529646E-3,4.1317283E-3,6.095357E-3,7.6573305E-3,-5.846183E-3,-4.1639046E-3,-3.3145125E-3,-2.3937772E-3,-1.4019391E-3,1.259E1,1.263E1,4.942E5,-7.200321E-4,-3.5580227E-4,-6.336066E-5,2.259428E-4,4.7136872E-4,1.0109054E-3],"split_indices":[3,3,3,3,2,3,3,3,3,3,3,0,0,0,0,0,0,0,0,0,2,3,4,0,0,0,0,0,0],"split_type":[0,0,0,0,0,0,0,0,0,0,0,0,0,0,0,0,0,0,0,0,0,0,0,0,0,0,0,0,0],"sum_hessian":[4.75E2,3.45E2,1.3E2,2.42E2,1.03E2,1.5E1,1.15E2,1.12E2,1.3E2,5.2E1,5.1E1,3E0,1.2E1,7.5E1,4E1,1.7E1,9.5E1,6.1E1,6.9E1,2.8E1,2.4E1,2.2E1,2.9E1,1.1E1,1.3E1,1.2E1,1E1,2.1E1,8E0],"tree_param":{"num_deleted":"0","num_feature":"11","num_nodes":"29","size_leaf_vector":"1"}},{"base_weights":[5.3665723E-4,-5.1278997E-2,1.21929504E-1,-7.296837E-2,-1.2572722E-2,7.016145E-2,1.2851402E-1,-8.935426E-2,-6.088336E-2,-2.9298862E-2,4.3629645E-3,1.4722825E-3,3.8170782E-3,5.8743805E-3,7.8099445E-3,-5.6229695E-3,-4.0848497E-3,-3.3936866E-3,-2.6147866E-3,-1.8295766E-3,-2.0786475E-2,-3.3021139E-3,1.1173099E-2,-1.0768467E-3,-5.2621367E-4,-3.221652E-4,5.2980275E-5,4.5614626E-4,8.0916286E-4],"categories":[],"categories_nodes":[],"categories_segments":[],"categories_sizes":[],"default_left":[0,0,0,0,0,0,0,0,0,0,0,0,0,0,0,0,0,0,0,0,0,0,0,0,0,0,0,0,0],"id":25,"left_children":[1,3,5,7,9,11,13,15,17,19,21,-1,-1,-1,-1,-1,-1,-1,-1,-1,23,25,27,-1,-1,-1,-1,-1,-1],"loss_changes":[2.9437056E0,2.744435E-1,3.8704634E-2,3.6144733E-2,3.3836804E-2,2.2813827E-3,1.9196272E-2,6.2046647E-3,3.8942993E-3,2.9640682E-3,3.168908E-3,0E0,0E0,0E0,0E0,0E0,0E0,0E0,0E0,0E0,4.3809414E-6,4.0415608E-4,1.8105563E-4,0E0,0E0,0E0,0E0,0E0,0E0],"parents":[2147483647,0,0,1,1,2,2,3,3,4,4,5,5,6,6,7,7,8,8,9,9,10,10,20,20,21,21,22,22],"right_children":[2,4,6,8,10,12,14,16,18,20,22,-1,-1,-1,-1,-1,-1,-1,-1,-1,24,26,28,-1,-1,-1,-1,-1,-1],"split_conditions":[1.271E1,1.247E1,1.299E1,1.234E1,1.258E1,1.28E1,1.311E1,1.229E1,1.241E1,1.252E1,1.264E1,1.4722825E-3,3.8170782E-3,5.8743805E-3,7.8099445E-3,-5.6229695E-3,-4.0848497E-3,-3.3936866E-3,-2.6147866E-3,-1.8295766E-3,1.256E1,1.262E1,5E1,-1.0768467E-3,-5.2621367E-4,-3.221652E-4,5.2980275E-5,4.5614626E-4,8.0916286E-4],"split_indices":[3,3,3,1,3,3,3,3,3,3,3,0,0,0,0,0,0,0,0,0,1,3,9,0,0,0,0,0,0],"split_type":[0,0,0,0,0,0,0,0,0,0,0,0,0,0,0,0,0,0,0,0,0,0,0,0,0,0,0,0,0],"sum_hessian":[4.66E2,3.27E2,1.39E2,2.09E2,1.18E2,1.7E1,1.22E2,8.6E1,1.23E2,5.9E1,5.9E1,3E0,1.4E1,9.1E1,3.1E1,1.8E1,6.8E1,6.4E1,5.9E1,3E1,2.9E1,2.8E1,3.1E1,2.6E1,3E0,1.6E1,1.2E1,2.4E1,7E0],"tree_param":{"num_deleted":"0","num_feature":"11","num_nodes":"29","size_leaf_vector":"1"}},{"base_weights":[-2.9428158E-4,-4.8430342E-2,1.18278325E-1,-6.55059E-2,-7.063297E-3,1.0402379E-1,7.239627E-3,-7.5526744E-2,-4.7032945E-2,-2.0683425E-2,6.1612036E-3,3.071181E-3,5.452534E-3,-4.7388314E-3,-3.469605E-3,-2.5327117E-3,-1.8861311E-3,-2.4293635E-2,-9.92264E-3,-1.3393055E-3,1.1456204E-2,-1.4730868E-3,-9.832837E-4,-5.137737E-4,-1.333952E-4,-1.9863607E-4,3.9471113E-5,4.5946744E-4,1.0476303E-3],"categories":[],"categories_nodes":[],"categories_segments":[],"categories_sizes":[],"default_left":[0,0,0,0,0,0,0,0,0,0,0,0,0,0,0,0,0,0,0,0,0,0,0,0,0,0,0,0,0],"id":26,"left_children":[1,3,5,7,9,11,-1,13,15,17,19,-1,-1,-1,-1,-1,-1,21,23,25,27,-1,-1,-1,-1,-1,-1,-1,-1],"loss_changes":[2.688309E0,2.3616958E-1,3.6338925E-2,4.031992E-2,1.7959252E-2,1.3003111E-2,0E0,1.1373162E-2,9.88707E-4,1.6625281E-3,2.0408186E-3,0E0,0E0,0E0,0E0,0E0,0E0,2.816543E-4,8.42195E-6,1.264643E-4,4.5326818E-4,0E0,0E0,0E0,0E0,0E0,0E0,0E0,0E0],"parents":[2147483647,0,0,1,1,2,2,3,3,4,4,5,5,7,7,8,8,9,9,10,10,17,17,18,18,19,19,20,20],"right_children":[2,4,6,8,10,12,-1,14,16,18,20,-1,-1,-1,-1,-1,-1,22,24,26,28,-1,-1,-1,-1,-1,-1,-1,-1],"split_conditions":[1.271E1,1.25E1,1.31E1,1.241E1,1.262E1,1.297E1,7.239627E-3,1.232E1,1.246E1,1.257E1,1.263E1,3.071181E-3,5.452534E-3,-4.7388314E-3,-3.469605E-3,-2.5327117E-3,-1.8861311E-3,1.253E1,1.26E1,1.262E1,1.268E1,-1.4730868E-3,-9.832837E-4,-5.137737E-4,-1.333952E-4,-1.9863607E-4,3.9471113E-5,4.5946744E-4,1.0476303E-3],"split_indices":[3,3,3,3,2,3,0,3,3,3,1,0,0,0,0,0,0,3,1,3,3,0,0,0,0,0,0,0,0],"split_type":[0,0,0,0,0,0,0,0,0,0,0,0,0,0,0,0,0,0,0,0,0,0,0,0,0,0,0,0,0],"sum_hessian":[4.69E2,3.34E2,1.35E2,2.36E2,9.8E1,9.1E1,4.4E1,1.51E2,8.5E1,4.8E1,5E1,1.1E1,8E1,3.3E1,1.18E2,5.8E1,2.7E1,3.5E1,1.3E1,2.1E1,2.9E1,1.4E1,2.1E1,1.2E1,1E0,9E0,1.2E1,2.5E1,4E0],"tree_param":{"num_deleted":"0","num_feature":"11","num_nodes":"29","size_leaf_vector":"1"}},{"base_weights":[-3.1436663E-3,-4.5606546E-2,1.103364E-1,-6.4255305E-2,-1.1450955E-2,7.512701E-2,1.1944376E-1,-8.252903E-2,-5.487116E-2,-2.4216853E-2,6.1996165E-3,1.5398025E-3,4.0494064E-3,5.3851185E-3,7.000932E-3,-4.94193E-3,-3.7906468E-3,-3.0736409E-3,-2.281884E-3,-1.6607732E-3,-1.6412545E-2,-1.850991E-3,1.128909E-2,-9.965355E-4,-5.737531E-4,-2.2388459E-4,2.4608771E-5,3.1565985E-4,7.404248E-4],"categories":[],"categories_nodes":[],"categories_segments":[],"categories_sizes":[],"default_left":[0,0,0,0,0,0,0,0,0,0,0,0,0,0,0,0,0,0,0,0,0,0,0,0,0,0,0,0,0],"id":27,"left_children":[1,3,5,7,9,11,13,15,17,19,21,-1,-1,-1,-1,-1,-1,-1,-1,-1,23,25,27,-1,-1,-1,-1,-1,-1],"loss_changes":[2.264998E0,2.1710432E-1,3.207159E-2,3.3369303E-2,2.7639834E-2,5.040914E-3,9.07743E-3,5.028844E-4,6.276995E-3,4.4410303E-3,2.15151E-3,0E0,0E0,0E0,0E0,0E0,0E0,0E0,0E0,0E0,4.661288E-4,1.3145452E-4,4.6690134E-4,0E0,0E0,0E0,0E0,0E0,0E0],"parents":[2147483647,0,0,1,1,2,2,3,3,4,4,5,5,6,6,7,7,8,8,9,9,10,10,20,20,21,21,22,22],"right_children":[2,4,6,8,10,12,14,16,18,20,22,-1,-1,-1,-1,-1,-1,-1,-1,-1,24,26,28,-1,-1,-1,-1,-1,-1],"split_conditions":[1.271E1,1.247E1,1.302E1,1.235E1,1.26E1,1.282E1,1.311E1,1.229E1,1.242E1,1.252E1,1.264E1,1.5398025E-3,4.0494064E-3,5.3851185E-3,7.000932E-3,-4.94193E-3,-3.7906468E-3,-3.0736409E-3,-2.281884E-3,-1.6607732E-3,1.256E1,1.262E1,2.5E1,-9.965355E-4,-5.737531E-4,-2.2388459E-4,2.4608771E-5,3.1565985E-4,7.404248E-4],"split_indices":[3,3,3,3,3,3,3,3,3,3,3,0,0,0,0,0,0,0,0,0,3,3,9,0,0,0,0,0,0],"split_type":[0,0,0,0,0,0,0,0,0,0,0,0,0,0,0,0,0,0,0,0,0,0,0,0,0,0,0,0,0],"sum_hessian":[4.68E2,3.41E2,1.27E2,2.2E2,1.21E2,2.8E1,9.9E1,7.2E1,1.48E2,7E1,5.1E1,4E0,2.4E1,6.7E1,3.2E1,1.7E1,5.5E1,8.3E1,6.5E1,3.1E1,3.9E1,2E1,3.1E1,2.1E1,1.8E1,9E0,1.1E1,1.4E1,1.7E1],"tree_param":{"num_deleted":"0","num_feature":"11","num_nodes":"29","size_leaf_vector":"1"}},{"base_weights":[-2.1782184E-3,-4.3361787E-2,1.08519636E-1,-6.33135E-2,-1.4187948E-2,9.820305E-2,6.8200277E-3,-7.871427E-2,-5.4130517E-2,-2.8469902E-2,2.4729064E-3,3.8135857E-3,5.11173E-3,-4.9765166E-3,-3.5627931E-3,-2.9303203E-3,-2.3331465E-3,-1.6830045E-3,-9.185144E-4,-6.265509E-3,9.07662E-3,-4.256585E-4,-1.4221485E-4,2.7910937E-4,6.7662896E-4],"categories":[],"categories_nodes":[],"categories_segments":[],"categories_sizes":[],"default_left":[0,0,0,0,0,0,0,0,0,0,0,0,0,0,0,0,0,0,0,0,0,0,0,0,0],"id":28,"left_children":[1,3,5,7,9,11,-1,13,15,17,19,-1,-1,-1,-1,-1,-1,-1,-1,21,23,-1,-1,-1,-1],"loss_changes":[2.151963E0,1.9933313E-1,2.342236E-2,2.4589837E-2,3.3621285E-2,7.788539E-4,0E0,4.3967366E-3,1.6438365E-3,3.3654943E-3,3.8654653E-3,0E0,0E0,0E0,0E0,0E0,0E0,0E0,0E0,1.9878801E-4,5.161583E-4,0E0,0E0,0E0,0E0],"parents":[2147483647,0,0,1,1,2,2,3,3,4,4,5,5,7,7,8,8,9,9,10,10,19,19,20,20],"right_children":[2,4,6,8,10,12,-1,14,16,18,20,-1,-1,-1,-1,-1,-1,-1,-1,22,24,-1,-1,-1,-1],"split_conditions":[1.284E1,1.245E1,1.311E1,1.235E1,1.257E1,1.303E1,6.8200277E-3,1.227E1,1.241E1,1.252E1,1.263E1,3.8135857E-3,5.11173E-3,-4.9765166E-3,-3.5627931E-3,-2.9303203E-3,-2.3331465E-3,-1.6830045E-3,-9.185144E-4,1.262E1,1.268E1,-4.256585E-4,-1.4221485E-4,2.7910937E-4,6.7662896E-4],"split_indices":[2,3,3,3,3,2,0,1,3,3,3,0,0,0,0,0,0,0,0,2,2,0,0,0,0],"split_type":[0,0,0,0,0,0,0,0,0,0,0,0,0,0,0,0,0,0,0,0,0,0,0,0,0],"sum_hessian":[4.7E2,3.43E2,1.27E2,2.03E2,1.4E2,9.6E1,3.1E1,7.3E1,1.3E2,7.5E1,6.5E1,1.8E1,7.8E1,1.6E1,5.7E1,7.7E1,5.3E1,4.8E1,2.7E1,2.8E1,3.7E1,1.6E1,1.2E1,2.2E1,1.5E1],"tree_param":{"num_deleted":"0","num_feature":"11","num_nodes":"25","size_leaf_vector":"1"}},{"base_weights":[4.3147444E-4,-4.1286156E-2,1.0152506E-1,-5.6708544E-2,-5.451693E-3,6.933982E-2,1.0952536E-1,-7.012644E-2,-4.506284E-2,-1.8940078E-2,5.292675E-3,1.3883973E-3,3.7333746E-3,5.01551E-3,6.613595E-3,-4.872955E-3,-3.3132043E-3,-2.4942257E-3,-1.8449737E-3,-1.1202847E-3,-1.2496895E-2,-1.2975375E-3,1.2164593E-2,-7.2070904E-4,-4.1492583E-4,-2.0730836E-4,5.623593E-5,4.4154E-4,7.9368753E-4],"categories":[],"categories_nodes":[],"categories_segments":[],"categories_sizes":[],"default_left":[0,0,0,0,0,0,0,0,0,0,0,0,0,0,0,0,0,0,0,0,0,0,0,0,0,0,0,0,0],"id":29,"left_children":[1,3,5,7,9,11,13,15,17,19,21,-1,-1,-1,-1,-1,-1,-1,-1,-1,23,25,27,-1,-1,-1,-1,-1,-1],"loss_changes":[1.9779276E0,1.8317169E-1,2.7681828E-2,3.309238E-2,1.4737586E-2,4.5710653E-3,9.369969E-3,4.732251E-3,3.158152E-3,7.248316E-4,2.5971658E-3,0E0,0E0,0E0,0E0,0E0,0E0,0E0,0E0,0E0,2.5274465E-5,2.1166659E-4,2.0605745E-4,0E0,0E0,0E0,0E0,0E0,0E0],"parents":[2147483647,0,0,1,1,2,2,3,3,4,4,5,5,6,6,7,7,8,8,9,9,10,10,20,20,21,21,22,22],"right_children":[2,4,6,8,10,12,14,16,18,20,22,-1,-1,-1,-1,-1,-1,-1,-1,-1,24,26,28,-1,-1,-1,-1,-1,-1],"split_conditions":[1.271E1,1.25E1,1.302E1,1.237E1,1.258E1,1.282E1,1.312E1,1.228E1,1.244E1,1.255E1,1.265E1,1.3883973E-3,3.7333746E-3,5.01551E-3,6.613595E-3,-4.872955E-3,-3.3132043E-3,-2.4942257E-3,-1.8449737E-3,-1.1202847E-3,2.7147685E-3,1.262E1,1.267E1,-7.2070904E-4,-4.1492583E-4,-2.0730836E-4,5.623593E-5,4.4154E-4,7.9368753E-4],"split_indices":[3,3,3,3,1,3,3,3,3,3,3,0,0,0,0,0,0,0,0,0,5,3,3,0,0,0,0,0,0],"split_type":[0,0,0,0,0,0,0,0,0,0,0,0,0,0,0,0,0,0,0,0,0,0,0,0,0,0,0,0,0],"sum_hessian":[4.67E2,3.31E2,1.36E2,2.31E2,1E2,2.9E1,1.07E2,1.05E2,1.26E2,4.4E1,5.6E1,4E0,2.5E1,8E1,2.7E1,1E1,9.5E1,7.6E1,5E1,2.7E1,1.7E1,2.9E1,2.7E1,1E1,7E0,1.3E1,1.6E1,1.6E1,1.1E1],"tree_param":{"num_deleted":"0","num_feature":"11","num_nodes":"29","size_leaf_vector":"1"}},{"base_weights":[3.2205373E-4,-3.8046397E-2,9.697294E-2,-5.4049116E-2,-7.6582786E-3,8.228864E-2,5.674903E-3,-6.733623E-2,-4.557806E-2,-2.2161601E-2,3.0629314E-3,1.2842894E-3,4.2173765E-3,-3.8449464E-3,-2.9839068E-3,-4.8646048E-2,-1.7711244E-3,-1.3005931E-3,-7.89463E-4,-3.4368336E-3,8.755419E-3,-2.4428708E-3,-6.8774226E-4,-3.0007065E-4,-4.1047268E-5,3.4407777E-4,7.7677454E-4],"categories":[],"categories_nodes":[],"categories_segments":[],"categories_sizes":[],"default_left":[0,0,0,0,0,0,0,0,0,0,0,0,0,0,0,0,0,0,0,0,0,0,0,0,0,0,0],"id":30,"left_children":[1,3,5,7,9,11,-1,13,15,17,19,-1,-1,-1,-1,21,-1,-1,-1,23,25,-1,-1,-1,-1,-1,-1],"loss_changes":[1.7095282E0,1.6006264E-1,2.2448897E-2,2.1243036E-2,1.7949596E-2,6.3408017E-3,0E0,1.4158487E-3,2.4830103E-3,7.915143E-4,2.5090796E-3,0E0,0E0,0E0,0E0,7.2836876E-5,0E0,0E0,0E0,2.0975011E-4,3.504695E-4,0E0,0E0,0E0,0E0,0E0,0E0],"parents":[2147483647,0,0,1,1,2,2,3,3,4,4,5,5,7,7,8,8,9,9,10,10,15,15,19,19,20,20],"right_children":[2,4,6,8,10,12,-1,14,16,18,20,-1,-1,-1,-1,22,-1,-1,-1,24,26,-1,-1,-1,-1,-1,-1],"split_conditions":[1.271E1,1.248E1,1.309E1,1.234E1,1.257E1,1.279E1,5.674903E-3,1.232E1,1.244E1,1.253E1,1.264E1,1.2842894E-3,4.2173765E-3,-3.8449464E-3,-2.9839068E-3,1.243E1,-1.7711244E-3,-1.3005931E-3,-7.89463E-4,1.261E1,1.268E1,-2.4428708E-3,-6.8774226E-4,-3.0007065E-4,-4.1047268E-5,3.4407777E-4,7.7677454E-4],"split_indices":[3,3,3,1,3,1,0,3,3,3,3,0,0,0,0,1,0,0,0,3,3,0,0,0,0,0,0],"split_type":[0,0,0,0,0,0,0,0,0,0,0,0,0,0,0,0,0,0,0,0,0,0,0,0,0,0,0],"sum_hessian":[4.59E2,3.29E2,1.3E2,2.15E2,1.14E2,7.2E1,5.8E1,8.1E1,1.34E2,4.8E1,6.6E1,3E0,6.9E1,3.2E1,4.9E1,1E2,3.4E1,2.8E1,2E1,3.1E1,3.5E1,9.9E1,1E0,1.5E1,1.6E1,2.9E1,6E0],"tree_param":{"num_deleted":"0","num_feature":"11","num_nodes":"27","size_leaf_vector":"1"}},{"base_weights":[1.1454627E-3,-3.765562E-2,9.1398016E-2,-5.335128E-2,-1.0363453E-2,8.0810964E-2,5.481327E-3,-6.6972375E-2,-4.610791E-2,-2.2941686E-2,1.5806622E-3,4.9955923E-2,4.217042E-3,-4.3222946E-3,-3.093827E-3,-2.528014E-3,-1.9881434E-3,-1.3745553E-3,-7.827415E-4,-4.3803104E-3,8.283743E-3,9.514809E-4,2.7119112E-3,-3.3667326E-4,-4.7537487E-5,1.967963E-4,6.485769E-4],"categories":[],"categories_nodes":[],"categories_segments":[],"categories_sizes":[],"default_left":[0,0,0,0,0,0,0,0,0,0,0,0,0,0,0,0,0,0,0,0,0,0,0,0,0,0,0],"id":31,"left_children":[1,3,5,7,9,11,-1,13,15,17,19,21,-1,-1,-1,-1,-1,-1,-1,23,25,-1,-1,-1,-1,-1,-1],"loss_changes":[1.6423293E0,1.39952E-1,1.8352032E-2,1.7433882E-2,1.8214803E-2,5.9157014E-3,0E0,1.5973747E-3,1.9163787E-3,1.525538E-3,2.5535685E-3,5.570948E-4,0E0,0E0,0E0,0E0,0E0,0E0,0E0,2.679879E-4,5.6039495E-4,0E0,0E0,0E0,0E0,0E0,0E0],"parents":[2147483647,0,0,1,1,2,2,3,3,4,4,5,5,7,7,8,8,9,9,10,10,11,11,19,19,20,20],"right_children":[2,4,6,8,10,12,-1,14,16,18,20,22,-1,-1,-1,-1,-1,-1,-1,24,26,-1,-1,-1,-1,-1,-1],"split_conditions":[1.271E1,1.246E1,1.31E1,1.235E1,1.257E1,1.298E1,5.481327E-3,1.228E1,1.241E1,1.252E1,1.264E1,1.277E1,4.217042E-3,-4.3222946E-3,-3.093827E-3,-2.528014E-3,-1.9881434E-3,-1.3745553E-3,-7.827415E-4,1.261E1,2.5E1,9.514809E-4,2.7119112E-3,-3.3667326E-4,-4.7537487E-5,1.967963E-4,6.485769E-4],"split_indices":[3,3,3,3,3,3,0,3,3,3,3,3,0,0,0,0,0,0,0,3,9,0,0,0,0,0,0],"split_type":[0,0,0,0,0,0,0,0,0,0,0,0,0,0,0,0,0,0,0,0,0,0,0,0,0,0,0],"sum_hessian":[4.67E2,3.27E2,1.4E2,2.07E2,1.2E2,9.2E1,4.8E1,6.9E1,1.38E2,5.8E1,6.2E1,1.1E1,8.1E1,1.1E1,5.8E1,7.7E1,6.1E1,3.4E1,2.4E1,3.3E1,2.9E1,2E0,9E0,1.9E1,1.4E1,1.6E1,1.3E1],"tree_param":{"num_deleted":"0","num_feature":"11","num_nodes":"27","size_leaf_vector":"1"}},{"base_weights":[-7.201515E-4,-3.5632655E-2,8.759324E-2,-5.120646E-2,-1.0232254E-2,7.868568E-2,5.600082E-3,-6.632182E-2,-4.4984847E-2,-2.232086E-2,2.5717076E-3,5.0834823E-2,4.1611684E-3,-4.1242004E-3,-3.0505112E-3,-2.4894306E-3,-1.8912727E-3,-1.3265064E-3,-1.5360117E-2,-2.5041103E-3,1.0281746E-2,9.907087E-4,2.6824984E-3,-8.3187065E-4,-4.5757295E-4,-3.153977E-4,4.4742497E-5,3.5935163E-4,8.827482E-4],"categories":[],"categories_nodes":[],"categories_segments":[],"categories_sizes":[],"default_left":[0,0,0,0,0,0,0,0,0,0,0,0,0,0,0,0,0,0,0,0,0,0,0,0,0,0,0,0,0],"id":32,"left_children":[1,3,5,7,9,11,-1,13,15,17,19,21,-1,-1,-1,-1,-1,-1,23,25,27,-1,-1,-1,-1,-1,-1,-1,-1],"loss_changes":[1.4799938E0,1.355559E-1,2.0756125E-2,1.7047405E-2,2.048863E-2,8.786321E-3,0E0,1.1846423E-4,3.4131408E-3,1.5848689E-3,2.5695055E-3,4.2153895E-4,0E0,0E0,0E0,0E0,0E0,0E0,6.979145E-5,5.2280916E-4,4.6638143E-4,0E0,0E0,0E0,0E0,0E0,0E0,0E0,0E0],"parents":[2147483647,0,0,1,1,2,2,3,3,4,4,5,5,7,7,8,8,9,9,10,10,11,11,18,18,19,19,20,20],"right_children":[2,4,6,8,10,12,-1,14,16,18,20,22,-1,-1,-1,-1,-1,-1,24,26,28,-1,-1,-1,-1,-1,-1,-1,-1],"split_conditions":[1.271E1,1.246E1,1.311E1,1.234E1,1.257E1,1.299E1,5.600082E-3,1.228E1,1.24E1,1.252E1,1.265E1,1.276E1,4.1611684E-3,-4.1242004E-3,-3.0505112E-3,-2.4894306E-3,-1.8912727E-3,-1.3265064E-3,1.254E1,1.261E1,4.942E5,9.907087E-4,2.6824984E-3,-8.3187065E-4,-4.5757295E-4,-3.153977E-4,4.4742497E-5,3.5935163E-4,8.827482E-4],"split_indices":[3,3,3,3,3,3,0,3,3,3,3,1,0,0,0,0,0,0,1,3,4,0,0,0,0,0,0,0,0],"split_type":[0,0,0,0,0,0,0,0,0,0,0,0,0,0,0,0,0,0,0,0,0,0,0,0,0,0,0,0,0],"sum_hessian":[4.78E2,3.43E2,1.35E2,2.12E2,1.31E2,1.02E2,3.3E1,5.9E1,1.53E2,6.7E1,6.4E1,1.6E1,8.6E1,1.1E1,4.8E1,8.8E1,6.5E1,4E1,2.7E1,3.9E1,2.5E1,2E0,1.4E1,2.1E1,6E0,1.8E1,2.1E1,1.9E1,6E0],"tree_param":{"num_deleted":"0","num_feature":"11","num_nodes":"29","size_leaf_vector":"1"}},{"base_weights":[-1.2176422E-4,-3.2545656E-2,8.282402E-2,-4.698218E-2,-3.639522E-3,7.542394E-2,5.189239E-3,-5.87364E-2,-3.6512326E-2,-1.312854E-2,6.992394E-3,4.315302E-2,3.889337E-3,-3.8158942E-3,-2.7030197E-3,-2.0245716E-3,-1.4404752E-3,-1.746548E-2,-6.952212E-3,1.7597764E-3,1.1966034E-2,2.3099245E-3,4.697323E-4,-1.0995519E-3,-7.331769E-4,-2.3400485E-4,-4.8125442E-4,-5.4495677E-6,1.751423E-4,4.673459E-4,9.78756E-4],"categories":[],"categories_nodes":[],"categories_segments":[],"categories_sizes":[],"default_left":[0,0,0,0,0,0,0,0,0,0,0,0,0,0,0,0,0,0,0,0,0,0,0,0,0,0,0,0,0,0,0],"id":33,"left_children":[1,3,5,7,9,11,-1,13,15,17,19,21,-1,-1,-1,-1,-1,23,25,27,29,-1,-1,-1,-1,-1,-1,-1,-1,-1,-1],"loss_changes":[1.2344522E0,1.3753936E-1,1.2181461E-2,2.4929702E-2,1.1290195E-2,4.1919947E-3,0E0,4.2597353E-3,2.4808496E-3,1.4589699E-3,1.3582758E-3,4.9127266E-4,0E0,0E0,0E0,0E0,0E0,1.0866579E-4,1.1285383E-4,8.833136E-5,3.5511772E-4,0E0,0E0,0E0,0E0,0E0,0E0,0E0,0E0,0E0,0E0],"parents":[2147483647,0,0,1,1,2,2,3,3,4,4,5,5,7,7,8,8,9,9,10,10,11,11,17,17,18,18,19,19,20,20],"right_children":[2,4,6,8,10,12,-1,14,16,18,20,22,-1,-1,-1,-1,-1,24,26,28,30,-1,-1,-1,-1,-1,-1,-1,-1,-1,-1],"split_conditions":[1.284E1,1.248E1,1.313E1,1.238E1,1.263E1,1.299E1,5.189239E-3,1.227E1,1.246E1,1.254E1,1.267E1,4.5E1,3.889337E-3,-3.8158942E-3,-2.7030197E-3,-2.0245716E-3,-1.4404752E-3,1.253E1,1E0,3.143E5,1.27E1,2.3099245E-3,4.697323E-4,-1.0995519E-3,-7.331769E-4,-2.3400485E-4,-4.8125442E-4,-5.4495677E-6,1.751423E-4,4.673459E-4,9.78756E-4],"split_indices":[2,1,2,2,2,2,0,1,2,1,2,9,0,0,0,0,0,2,7,4,2,0,0,0,0,0,0,0,0,0,0],"split_type":[0,0,0,0,0,0,0,0,0,0,0,0,0,0,0,0,0,0,0,0,0,0,0,0,0,0,0,0,0,0,0],"sum_hessian":[4.57E2,3.29E2,1.28E2,2.19E2,1.1E2,9.8E1,3E1,1.01E2,1.18E2,5.8E1,5.2E1,8E0,9E1,1.8E1,8.3E1,7.5E1,4.3E1,3.3E1,2.5E1,2.6E1,2.6E1,7E0,1E0,1E1,2.3E1,1.5E1,1E1,1.3E1,1.3E1,2.1E1,5E0],"tree_param":{"num_deleted":"0","num_feature":"11","num_nodes":"31","size_leaf_vector":"1"}},{"base_weights":[1.8821957E-3,-3.3159573E-2,7.7994436E-2,-4.7416326E-2,-1.1109978E-2,5.2818008E-2,8.465663E-2,-6.1597988E-2,-4.0924143E-2,-2.2246912E-2,5.654058E-4,1.0858726E-3,2.8179432E-3,3.947999E-3,5.4342146E-3,-3.9686086E-3,-2.7874652E-3,-2.1912018E-3,-1.7107467E-3,-1.2656234E-3,-1.4764468E-2,-5.1599434E-3,4.843712E-3,-7.834965E-4,-3.4993887E-4,-3.0050072E-4,-1.0881424E-5,1.4947922E-4,6.8080425E-4],"categories":[],"categories_nodes":[],"categories_segments":[],"categories_sizes":[],"default_left":[0,0,0,0,0,0,0,0,0,0,0,0,0,0,0,0,0,0,0,0,0,0,0,0,0,0,0,0,0],"id":34,"left_children":[1,3,5,7,9,11,13,15,17,19,21,-1,-1,-1,-1,-1,-1,-1,-1,-1,23,25,27,-1,-1,-1,-1,-1,-1],"loss_changes":[1.2267886E0,9.8495245E-2,1.9849539E-2,1.5064508E-2,1.6266074E-2,2.410069E-3,6.8854094E-3,1.6044974E-3,1.1076629E-3,1.0942966E-3,1.5436705E-3,0E0,0E0,0E0,0E0,0E0,0E0,0E0,0E0,0E0,3.7991907E-5,1.1212769E-4,5.448371E-4,0E0,0E0,0E0,0E0,0E0,0E0],"parents":[2147483647,0,0,1,1,2,2,3,3,4,4,5,5,6,6,7,7,8,8,9,9,10,10,20,20,21,21,22,22],"right_children":[2,4,6,8,10,12,14,16,18,20,22,-1,-1,-1,-1,-1,-1,-1,-1,-1,24,26,28,-1,-1,-1,-1,-1,-1],"split_conditions":[1.271E1,1.245E1,1.302E1,1.234E1,1.256E1,1.282E1,1.313E1,1.228E1,1.243E1,1.252E1,1.264E1,1.0858726E-3,2.8179432E-3,3.947999E-3,5.4342146E-3,-3.9686086E-3,-2.7874652E-3,-2.1912018E-3,-1.7107467E-3,-1.2656234E-3,1.6E1,1.262E1,1.268E1,-7.834965E-4,-3.4993887E-4,-3.0050072E-4,-1.0881424E-5,1.4947922E-4,6.8080425E-4],"split_indices":[3,3,3,3,3,3,3,3,2,3,2,0,0,0,0,0,0,0,0,0,8,3,3,0,0,0,0,0,0],"split_type":[0,0,0,0,0,0,0,0,0,0,0,0,0,0,0,0,0,0,0,0,0,0,0,0,0,0,0,0,0],"sum_hessian":[4.58E2,3.14E2,1.44E2,1.9E2,1.24E2,3.2E1,1.12E2,5.7E1,1.33E2,6.3E1,6.1E1,4E0,2.8E1,9.4E1,1.8E1,1.1E1,4.6E1,8.9E1,4.4E1,4.3E1,2E1,2.6E1,3.5E1,1.7E1,3E0,2.2E1,4E0,3E1,5E0],"tree_param":{"num_deleted":"0","num_feature":"11","num_nodes":"29","size_leaf_vector":"1"}},{"base_weights":[4.320936E-4,-3.0762391E-2,7.493667E-2,-4.2546462E-2,-5.5851713E-3,5.181414E-2,8.136758E-2,-5.4522894E-2,-3.5077848E-2,-1.4560301E-2,3.8340227E-3,1.0424232E-3,2.7683177E-3,3.7747994E-3,5.229443E-3,-3.4005218E-3,-2.507543E-3,-2.0265467E-3,-1.4833006E-3,-1.7191982E-2,-7.071078E-3,1.62617E-3,1.2116172E-2,-9.0624945E-4,-4.4420562E-4,-1.0406176E-4,-3.8176266E-4,-6.18367E-5,2.0847113E-4,3.602505E-5,6.591845E-4],"categories":[],"categories_nodes":[],"categories_segments":[],"categories_sizes":[],"default_left":[0,0,0,0,0,0,0,0,0,0,0,0,0,0,0,0,0,0,0,0,0,0,0,0,0,0,0,0,0,0,0],"id":35,"left_children":[1,3,5,7,9,11,13,15,17,19,21,-1,-1,-1,-1,-1,-1,-1,-1,23,25,27,29,-1,-1,-1,-1,-1,-1,-1,-1],"loss_changes":[1.0946473E0,9.826347E-2,1.6453147E-2,1.830253E-2,9.101443E-3,2.475582E-3,6.692946E-3,1.6015172E-3,2.9882044E-3,9.624427E-4,9.494426E-4,0E0,0E0,0E0,0E0,0E0,0E0,0E0,0E0,1.4902744E-4,2.9151619E-5,3.1824323E-4,1.243169E-4,0E0,0E0,0E0,0E0,0E0,0E0,0E0,0E0],"parents":[2147483647,0,0,1,1,2,2,3,3,4,4,5,5,6,6,7,7,8,8,9,9,10,10,19,19,20,20,21,21,22,22],"right_children":[2,4,6,8,10,12,14,16,18,20,22,-1,-1,-1,-1,-1,-1,-1,-1,24,26,28,30,-1,-1,-1,-1,-1,-1,-1,-1],"split_conditions":[1.271E1,1.251E1,1.305E1,1.237E1,1.26E1,1.279E1,1.313E1,1.229E1,1.243E1,1.256E1,1.267E1,1.0424232E-3,2.7683177E-3,3.7747994E-3,5.229443E-3,-3.4005218E-3,-2.507543E-3,-2.0265467E-3,-1.4833006E-3,1.6E1,1.1E1,1.266E1,1.265E1,-9.0624945E-4,-4.4420562E-4,-1.0406176E-4,-3.8176266E-4,-6.18367E-5,2.0847113E-4,3.602505E-5,6.591845E-4],"split_indices":[3,2,2,2,3,1,3,3,2,3,3,0,0,0,0,0,0,0,0,8,8,2,0,0,0,0,0,0,0,0,0],"split_type":[0,0,0,0,0,0,0,0,0,0,0,0,0,0,0,0,0,0,0,0,0,0,0,0,0,0,0,0,0,0,0],"sum_hessian":[4.69E2,3.31E2,1.38E2,2.25E2,1.06E2,3.2E1,1.06E2,8.4E1,1.41E2,5.4E1,5.2E1,4E0,2.8E1,8.8E1,1.8E1,1.7E1,6.7E1,6.7E1,7.4E1,3.9E1,1.5E1,4.2E1,1E1,3.4E1,5E0,2E0,1.3E1,2E1,2.2E1,1E0,9E0],"tree_param":{"num_deleted":"0","num_feature":"11","num_nodes":"31","size_leaf_vector":"1"}},{"base_weights":[-5.0688203E-4,-2.8518837E-2,7.237193E-2,-3.9242744E-2,-2.7750286E-3,6.663148E-2,4.7840658E-3,-5.1591657E-2,-3.2658413E-2,-1.0469761E-2,5.961053E-3,2.0849323E-3,3.4257476E-3,-3.2295648E-3,-2.3666255E-3,-1.8614192E-3,-1.3016103E-3,-1.3846468E-2,-6.705284E-3,3.5696533E-3,1.44522665E-2,-3.725052E-4,-7.3174806E-4,-4.8908714E-4,-2.3118126E-4,7.750591E-5,3.2814662E-4,3.5119057E-5,7.9509954E-4],"categories":[],"categories_nodes":[],"categories_segments":[],"categories_sizes":[],"default_left":[0,0,0,0,0,0,0,0,0,0,0,0,0,0,0,0,0,0,0,0,0,0,0,0,0,0,0,0,0],"id":36,"left_children":[1,3,5,7,9,11,-1,13,15,17,19,-1,-1,-1,-1,-1,-1,21,23,25,27,-1,-1,-1,-1,-1,-1,-1,-1],"loss_changes":[9.411438E-1,9.182382E-2,1.0751784E-2,1.7422795E-2,6.7173694E-3,2.1208525E-3,0E0,1.3720989E-3,3.7547946E-3,5.808673E-4,9.027871E-4,0E0,0E0,0E0,0E0,0E0,0E0,2.7142465E-5,1.2768467E-4,2.1953785E-4,1.8816581E-4,0E0,0E0,0E0,0E0,0E0,0E0,0E0,0E0],"parents":[2147483647,0,0,1,1,2,2,3,3,4,4,5,5,7,7,8,8,9,9,10,10,17,17,18,18,19,19,20,20],"right_children":[2,4,6,8,10,12,-1,14,16,18,20,-1,-1,-1,-1,-1,-1,22,24,26,28,-1,-1,-1,-1,-1,-1,-1,-1],"split_conditions":[1.276E1,1.251E1,1.312E1,1.234E1,1.263E1,1.298E1,4.7840658E-3,1.231E1,1.243E1,1.256E1,1.268E1,2.0849323E-3,3.4257476E-3,-3.2295648E-3,-2.3666255E-3,-1.8614192E-3,-1.3016103E-3,2.1367571E-3,2.2562065E-3,4E1,1.265E1,-3.725052E-4,-7.3174806E-4,-4.8908714E-4,-2.3118126E-4,7.750591E-5,3.2814662E-4,3.5119057E-5,7.9509954E-4],"split_indices":[1,3,3,1,2,3,0,2,3,3,3,0,0,0,0,0,0,5,5,9,0,0,0,0,0,0,0,0,0],"split_type":[0,0,0,0,0,0,0,0,0,0,0,0,0,0,0,0,0,0,0,0,0,0,0,0,0,0,0,0,0],"sum_hessian":[4.59E2,3.32E2,1.27E2,2.34E2,9.8E1,1.05E2,2.2E1,7.9E1,1.55E2,5.2E1,4.6E1,9E0,9.6E1,1.6E1,6.3E1,8.9E1,6.6E1,2.6E1,2.6E1,3.7E1,9E0,4E0,2.2E1,9E0,1.7E1,2.3E1,1.4E1,1E0,8E0],"tree_param":{"num_deleted":"0","num_feature":"11","num_nodes":"29","size_leaf_vector":"1"}},{"base_weights":[6.1844045E-4,-2.7503232E-2,6.58324E-2,-3.765972E-2,-3.7321323E-3,5.1798835E-2,7.6190405E-2,-4.9900226E-2,-3.1728406E-2,-1.2589233E-2,3.0150162E-3,1.0828137E-3,2.7589968E-3,3.5287098E-3,5.2246484E-3,-3.1045664E-3,-2.2390739E-3,-1.8544737E-3,-2.6372677E-2,-7.9020666E-4,-9.879332E-3,-1.8856215E-3,6.149292E-3,-1.4153412E-3,-1.0815791E-3,-2.3782253E-4,-5.1703665E-4,3.2442807E-5,-1.5175044E-4,2.3066152E-4,7.221508E-4],"categories":[],"categories_nodes":[],"categories_segments":[],"categories_sizes":[],"default_left":[0,0,0,0,0,0,0,0,0,0,0,0,0,0,0,0,0,0,0,0,0,0,0,0,0,0,0,0,0,0,0],"id":37,"left_children":[1,3,5,7,9,11,13,15,17,19,21,-1,-1,-1,-1,-1,-1,-1,23,-1,25,27,29,-1,-1,-1,-1,-1,-1,-1,-1],"loss_changes":[8.582539E-1,7.880737E-2,1.654911E-2,1.5042663E-2,5.9542134E-3,5.2256435E-3,5.182773E-3,1.7748922E-3,3.5297126E-3,2.1848409E-4,8.8711234E-4,0E0,0E0,0E0,0E0,0E0,0E0,0E0,1.3962016E-4,0E0,1.2270873E-5,6.8970505E-5,3.7925947E-4,0E0,0E0,0E0,0E0,0E0,0E0,0E0,0E0],"parents":[2147483647,0,0,1,1,2,2,3,3,4,4,5,5,6,6,7,7,8,8,9,9,10,10,18,18,20,20,21,21,22,22],"right_children":[2,4,6,8,10,12,14,16,18,20,22,-1,-1,-1,-1,-1,-1,-1,24,-1,26,28,30,-1,-1,-1,-1,-1,-1,-1,-1],"split_conditions":[1.271E1,1.252E1,1.309E1,1.237E1,1.258E1,1.279E1,1.315E1,1.231E1,1.243E1,1.255E1,1.266E1,1.0828137E-3,2.7589968E-3,3.5287098E-3,5.2246484E-3,-3.1045664E-3,-2.2390739E-3,-1.8544737E-3,1.248E1,-7.9020666E-4,1.1E1,2.2425398E-3,5E1,-1.4153412E-3,-1.0815791E-3,-2.3782253E-4,-5.1703665E-4,3.2442807E-5,-1.5175044E-4,2.3066152E-4,7.221508E-4],"split_indices":[2,2,2,2,1,1,2,2,2,2,2,0,0,0,0,0,0,0,2,0,8,5,9,0,0,0,0,0,0,0,0],"split_type":[0,0,0,0,0,0,0,0,0,0,0,0,0,0,0,0,0,0,0,0,0,0,0,0,0,0,0,0,0,0,0],"sum_hessian":[4.66E2,3.26E2,1.4E2,2.28E2,9.8E1,6.2E1,7.8E1,7.2E1,1.56E2,4.2E1,5.6E1,7E0,5.5E1,6.8E1,1E1,1.8E1,5.4E1,7.5E1,8.1E1,1.7E1,2.5E1,2.2E1,3.4E1,5.4E1,2.7E1,3E0,2.2E1,7E0,1.5E1,3E1,4E0],"tree_param":{"num_deleted":"0","num_feature":"11","num_nodes":"31","size_leaf_vector":"1"}},{"base_weights":[7.910185E-4,-2.5370417E-2,6.5603E-2,-3.7907016E-2,-6.088394E-3,5.7498813E-2,4.1934825E-3,-4.765044E-2,-3.2219063E-2,-1.4561598E-2,3.4229187E-3,1.7936378E-3,3.0080597E-3,-3.2934807E-3,-2.2001078E-3,-1.7757632E-3,-2.7514901E-2,-9.1255E-4,-9.034029E-3,1.5439742E-4,8.3848955E-3,-1.4190867E-3,-8.5724425E-4,-1.2497902E-4,-4.8337513E-4,-9.304881E-5,1.5839041E-4,2.2643506E-4,6.858158E-4],"categories":[],"categories_nodes":[],"categories_segments":[],"categories_sizes":[],"default_left":[0,0,0,0,0,0,0,0,0,0,0,0,0,0,0,0,0,0,0,0,0,0,0,0,0,0,0,0,0],"id":38,"left_children":[1,3,5,7,9,11,-1,13,15,17,19,-1,-1,-1,-1,-1,21,-1,23,25,27,-1,-1,-1,-1,-1,-1,-1,-1],"loss_changes":[7.901065E-1,8.00239E-2,1.5014529E-2,9.604216E-3,1.0687896E-2,3.369242E-3,0E0,1.8873364E-3,1.0385662E-3,1.2626573E-3,1.0204599E-3,0E0,0E0,0E0,0E0,0E0,3.476441E-5,0E0,1.0001706E-4,2.4274799E-4,4.518578E-4,0E0,0E0,0E0,0E0,0E0,0E0,0E0,0E0],"parents":[2147483647,0,0,1,1,2,2,3,3,4,4,5,5,7,7,8,8,9,9,10,10,16,16,18,18,19,19,20,20],"right_children":[2,4,6,8,10,12,-1,14,16,18,20,-1,-1,-1,-1,-1,22,-1,24,26,28,-1,-1,-1,-1,-1,-1,-1,-1],"split_conditions":[1.28E1,1.246E1,1.311E1,1.235E1,1.258E1,1.299E1,4.1934825E-3,1.228E1,1.241E1,1.253E1,1.267E1,1.7936378E-3,3.0080597E-3,-3.2934807E-3,-2.2001078E-3,-1.7757632E-3,1.244E1,-9.1255E-4,2.349E5,1.264E1,4.686E5,-1.4190867E-3,-8.5724425E-4,-1.2497902E-4,-4.8337513E-4,-9.304881E-5,1.5839041E-4,2.2643506E-4,6.858158E-4],"split_indices":[3,3,3,3,1,3,0,3,3,3,2,0,0,0,0,0,1,0,4,3,4,0,0,0,0,0,0,0,0],"split_type":[0,0,0,0,0,0,0,0,0,0,0,0,0,0,0,0,0,0,0,0,0,0,0,0,0,0,0,0,0],"sum_hessian":[4.64E2,3.31E2,1.33E2,2E2,1.31E2,9.5E1,3.8E1,7.1E1,1.29E2,6.9E1,6.2E1,1.2E1,8.3E1,9E0,6.2E1,7.2E1,5.7E1,4E1,2.9E1,3.8E1,2.4E1,5.1E1,6E0,3E0,2.6E1,2.3E1,1.5E1,1.5E1,9E0],"tree_param":{"num_deleted":"0","num_feature":"11","num_nodes":"29","size_leaf_vector":"1"}},{"base_weights":[4.7397398E-4,-2.4565585E-2,6.0679983E-2,-3.472568E-2,-6.5938868E-3,4.509025E-2,6.804617E-2,-4.1356754E-2,-2.8749395E-2,-1.53315915E-2,1.671203E-3,8.974314E-4,2.3300794E-3,3.2331664E-3,5.146861E-3,-2.5667874E-3,-1.8770816E-3,-1.6230168E-3,-1.2816474E-3,-8.894037E-4,-1.103368E-2,-3.2860893E-3,5.826748E-3,-1.2311936E-4,-5.655679E-4,-2.3649288E-4,-9.538233E-5,1.9631562E-4,6.162303E-4],"categories":[],"categories_nodes":[],"categories_segments":[],"categories_sizes":[],"default_left":[0,0,0,0,0,0,0,0,0,0,0,0,0,0,0,0,0,0,0,0,0,0,0,0,0,0,0,0,0],"id":39,"left_children":[1,3,5,7,9,11,13,15,17,19,21,-1,-1,-1,-1,-1,-1,-1,-1,-1,23,25,27,-1,-1,-1,-1,-1,-1],"loss_changes":[6.7234236E-1,5.7288185E-2,1.1975378E-2,6.7765117E-3,8.330682E-3,1.0094792E-3,3.612429E-3,1.6133785E-3,4.2852014E-4,3.9496552E-4,1.2551622E-3,0E0,0E0,0E0,0E0,0E0,0E0,0E0,0E0,0E0,2.6888447E-5,4.6701345E-5,3.5911868E-4,0E0,0E0,0E0,0E0,0E0,0E0],"parents":[2147483647,0,0,1,1,2,2,3,3,4,4,5,5,6,6,7,7,8,8,9,9,10,10,20,20,21,21,22,22],"right_children":[2,4,6,8,10,12,14,16,18,20,22,-1,-1,-1,-1,-1,-1,-1,-1,-1,24,26,28,-1,-1,-1,-1,-1,-1],"split_conditions":[1.271E1,1.246E1,1.305E1,1.237E1,1.256E1,1.282E1,1.316E1,1.232E1,1.243E1,1.252E1,1.264E1,8.974314E-4,2.3300794E-3,3.2331664E-3,5.146861E-3,-2.5667874E-3,-1.8770816E-3,-1.6230168E-3,-1.2816474E-3,-8.894037E-4,1.249E1,1.259E1,1.268E1,-1.2311936E-4,-5.655679E-4,-2.3649288E-4,-9.538233E-5,1.9631562E-4,6.162303E-4],"split_indices":[3,3,3,3,1,3,3,2,2,3,3,0,0,0,0,0,0,0,0,0,1,1,3,0,0,0,0,0,0],"split_type":[0,0,0,0,0,0,0,0,0,0,0,0,0,0,0,0,0,0,0,0,0,0,0,0,0,0,0,0,0],"sum_hessian":[4.44E2,3.14E2,1.3E2,2E2,1.14E2,4.4E1,8.6E1,9.2E1,1.08E2,5.5E1,5.9E1,3E0,4.1E1,8.1E1,5E0,2.2E1,7E1,4.5E1,6.3E1,3.3E1,2.2E1,2.7E1,3.2E1,1E0,2.1E1,1.2E1,1.5E1,2.6E1,6E0],"tree_param":{"num_deleted":"0","num_feature":"11","num_nodes":"29","size_leaf_vector":"1"}},{"base_weights":[-9.189768E-5,-2.4305271E-2,5.600875E-2,-3.4334686E-2,-5.838859E-3,4.1233063E-2,6.408767E-2,-4.3217584E-2,-2.9091487E-2,-1.2288455E-2,2.4594527E-3,8.3634857E-4,2.229931E-3,2.9536744E-3,3.934181E-3,-3.0918932E-3,-1.992188E-3,-1.5859203E-3,-1.242406E-3,-1.5686743E-2,-8.187562E-3,-1.797941E-3,4.5786994E-3,-1.1675358E-4,-8.0053805E-4,-4.750562E-4,-2.7684434E-4,-1.392798E-4,-1.0758638E-5,9.500255E-5,4.4828196E-4],"categories":[],"categories_nodes":[],"categories_segments":[],"categories_sizes":[],"default_left":[0,0,0,0,0,0,0,0,0,0,0,0,0,0,0,0,0,0,0,0,0,0,0,0,0,0,0,0,0,0,0],"id":40,"left_children":[1,3,5,7,9,11,13,15,17,19,21,-1,-1,-1,-1,-1,-1,-1,-1,23,25,27,29,-1,-1,-1,-1,-1,-1,-1,-1],"loss_changes":[6.3980263E-1,6.0732707E-2,1.4308244E-2,8.6631775E-3,6.2921513E-3,3.6252588E-3,1.9387007E-3,2.3734123E-3,7.389933E-4,7.91342E-4,4.7740055E-4,0E0,0E0,0E0,0E0,0E0,0E0,0E0,0E0,1.1402834E-4,5.8811624E-5,2.7538736E-5,3.942522E-4,0E0,0E0,0E0,0E0,0E0,0E0,0E0,0E0],"parents":[2147483647,0,0,1,1,2,2,3,3,4,4,5,5,6,6,7,7,8,8,9,9,10,10,19,19,20,20,21,21,22,22],"right_children":[2,4,6,8,10,12,14,16,18,20,22,-1,-1,-1,-1,-1,-1,-1,-1,24,26,28,30,-1,-1,-1,-1,-1,-1,-1,-1],"split_conditions":[1.269E1,1.246E1,1.305E1,1.235E1,1.26E1,1.282E1,1.313E1,1.228E1,1.242E1,1.253E1,1.263E1,8.3634857E-4,2.229931E-3,2.9536744E-3,3.934181E-3,-3.0918932E-3,-1.992188E-3,-1.5859203E-3,-1.242406E-3,1.471E5,1.257E1,1.262E1,3.268E5,-1.1675358E-4,-8.0053805E-4,-4.750562E-4,-2.7684434E-4,-1.392798E-4,-1.0758638E-5,9.500255E-5,4.4828196E-4],"split_indices":[3,3,3,3,3,3,3,3,3,3,3,0,0,0,0,0,0,0,0,4,3,3,4,0,0,0,0,0,0,0,0],"split_type":[0,0,0,0,0,0,0,0,0,0,0,0,0,0,0,0,0,0,0,0,0,0,0,0,0,0,0,0,0,0,0],"sum_hessian":[4.69E2,3.28E2,1.41E2,2.12E2,1.16E2,5.2E1,8.9E1,7.6E1,1.36E2,6.5E1,5.1E1,7E0,4.5E1,7E1,1.9E1,9E0,6.7E1,8E1,5.6E1,3.4E1,3.1E1,1.7E1,3.4E1,1E0,3.3E1,1.9E1,1.2E1,1E1,7E0,2.2E1,1.2E1],"tree_param":{"num_deleted":"0","num_feature":"11","num_nodes":"31","size_leaf_vector":"1"}},{"base_weights":[-6.2415405E-4,-2.3849657E-2,5.5657826E-2,-3.1417318E-2,-2.3181525E-3,4.4857796E-2,6.6431545E-2,-4.249618E-2,-2.649697E-2,-7.856239E-3,3.8316965E-3,1.0284305E-3,2.3653945E-3,3.0388474E-3,4.3818606E-3,-2.8587047E-3,-3.8473606E-2,-2.8606767E-2,-9.374255E-4,-1.077656E-2,-4.144623E-3,2.694406E-3,8.480072E-4,-1.9416241E-3,-4.5044423E-4,-1.437792E-3,-2.4559497E-4,-2.2200584E-4,-5.910921E-4,-8.5774336E-5,-3.0984878E-4,9.079116E-5,4.8542023E-4],"categories":[],"categories_nodes":[],"categories_segments":[],"categories_sizes":[],"default_left":[0,0,0,0,0,0,0,0,0,0,0,0,0,0,0,0,0,0,0,0,0,0,0,0,0,0,0,0,0,0,0,0,0],"id":41,"left_children":[1,3,5,7,9,11,13,15,17,19,21,-1,-1,-1,-1,-1,23,25,-1,27,29,31,-1,-1,-1,-1,-1,-1,-1,-1,-1,-1,-1],"loss_changes":[5.8171415E-1,5.1254258E-2,1.2146354E-2,1.1575222E-2,2.8569493E-3,3.0736923E-3,2.2279918E-3,1.9333214E-3,2.1446943E-3,4.322559E-4,5.5153685E-4,0E0,0E0,0E0,0E0,0E0,2.6345253E-4,3.073439E-4,0E0,1.0647089E-4,9.406352E-5,2.1654161E-4,0E0,0E0,0E0,0E0,0E0,0E0,0E0,0E0,0E0,0E0,0E0],"parents":[2147483647,0,0,1,1,2,2,3,3,4,4,5,5,6,6,7,7,8,8,9,9,10,10,16,16,17,17,19,19,20,20,21,21],"right_children":[2,4,6,8,10,12,14,16,18,20,22,-1,-1,-1,-1,-1,24,26,-1,28,30,32,-1,-1,-1,-1,-1,-1,-1,-1,-1,-1,-1],"split_conditions":[1.269E1,1.251E1,1.309E1,1.233E1,1.262E1,1.292E1,1.314E1,1.228E1,1.243E1,1.254E1,7.308E5,1.0284305E-3,2.3653945E-3,3.0388474E-3,4.3818606E-3,-2.8587047E-3,1.1429E6,1.247E1,-9.374255E-4,1E1,1.5E1,1.268E1,8.480072E-4,-1.9416241E-3,-4.5044423E-4,-1.437792E-3,-2.4559497E-4,-2.2200584E-4,-5.910921E-4,-8.5774336E-5,-3.0984878E-4,9.079116E-5,4.8542023E-4],"split_indices":[3,3,3,1,0,0,3,3,1,1,4,0,0,0,0,0,4,3,0,9,8,3,0,0,0,0,0,0,0,0,0,0,0],"split_type":[0,0,0,0,0,0,0,0,0,0,0,0,0,0,0,0,0,0,0,0,0,0,0,0,0,0,0,0,0,0,0,0,0],"sum_hessian":[4.43E2,3.14E2,1.29E2,2.32E2,8.2E1,6.7E1,6.2E1,6.9E1,1.63E2,4.3E1,3.9E1,7E0,6E1,5.2E1,1E1,1.2E1,5.7E1,1.26E2,3.7E1,2.3E1,2E1,3.7E1,2E0,5.6E1,1E0,1.25E2,1E0,4E0,1.9E1,1E1,1E1,3.4E1,3E0],"tree_param":{"num_deleted":"0","num_feature":"11","num_nodes":"33","size_leaf_vector":"1"}},{"base_weights":[-8.642279E-4,-2.1243013E-2,5.2380074E-2,-2.9526278E-2,-2.4014069E-3,4.01126E-2,5.825838E-2,-3.6819257E-2,-2.252929E-2,-8.891124E-3,4.0111723E-3,1.0050853E-3,2.105571E-3,2.649661E-3,3.4716309E-3,-2.5796245E-3,-1.6925276E-3,-1.3080185E-3,-1.8829867E-2,-1.1125475E-2,-5.0630113E-3,1.139487E-3,7.7073057E-3,-5.213201E-4,-9.839477E-4,-5.9211696E-4,-3.022671E-4,-3.4961224E-4,-1.5166998E-4,-4.5594574E-5,1.5598237E-4,9.588957E-4,3.1570956E-4],"categories":[],"categories_nodes":[],"categories_segments":[],"categories_sizes":[],"default_left":[0,0,0,0,0,0,0,0,0,0,0,0,0,0,0,0,0,0,0,0,0,0,0,0,0,0,0,0,0,0,0,0,0],"id":42,"left_children":[1,3,5,7,9,11,13,15,17,19,21,-1,-1,-1,-1,-1,-1,-1,23,25,27,29,31,-1,-1,-1,-1,-1,-1,-1,-1,-1,-1],"loss_changes":[5.0566286E-1,5.25247E-2,6.9655776E-3,1.1111245E-2,4.3637096E-3,9.534061E-4,1.321435E-3,3.209442E-3,1.146216E-3,3.884458E-4,5.537665E-4,0E0,0E0,0E0,0E0,0E0,0E0,0E0,2.5147386E-4,4.4945627E-5,6.1017286E-5,1.2876862E-4,2.4644402E-4,0E0,0E0,0E0,0E0,0E0,0E0,0E0,0E0,0E0,0E0],"parents":[2147483647,0,0,1,1,2,2,3,3,4,4,5,5,6,6,7,7,8,8,9,9,10,10,18,18,19,19,20,20,21,21,22,22],"right_children":[2,4,6,8,10,12,14,16,18,20,22,-1,-1,-1,-1,-1,-1,-1,24,26,28,30,32,-1,-1,-1,-1,-1,-1,-1,-1,-1,-1],"split_conditions":[1.271E1,1.25E1,1.305E1,1.237E1,1.263E1,1.296E1,1.312E1,1.229E1,1.243E1,1.256E1,1.267E1,1.0050853E-3,2.105571E-3,2.649661E-3,3.4716309E-3,-2.5796245E-3,-1.6925276E-3,-1.3080185E-3,1.1E1,1.6E1,1.257E1,1.264E1,2.305369E-3,-5.213201E-4,-9.839477E-4,-5.9211696E-4,-3.022671E-4,-3.4961224E-4,-1.5166998E-4,-4.5594574E-5,1.5598237E-4,9.588957E-4,3.1570956E-4],"split_indices":[3,0,3,3,2,3,3,3,3,3,2,0,0,0,0,0,0,0,8,8,0,3,5,0,0,0,0,0,0,0,0,0,0],"split_type":[0,0,0,0,0,0,0,0,0,0,0,0,0,0,0,0,0,0,0,0,0,0,0,0,0,0,0,0,0,0,0,0,0],"sum_hessian":[4.64E2,3.36E2,1.28E2,2.33E2,1.03E2,4.4E1,8.4E1,1.12E2,1.21E2,5.1E1,5.2E1,5E0,3.9E1,6.1E1,2.3E1,1.6E1,9.6E1,5.8E1,6.3E1,3.1E1,2E1,3E1,2.2E1,7E0,5.6E1,2.6E1,5E0,9E0,1.1E1,1.5E1,1.5E1,1E0,2.1E1],"tree_param":{"num_deleted":"0","num_feature":"11","num_nodes":"33","size_leaf_vector":"1"}},{"base_weights":[-8.6655346E-4,-2.147053E-2,5.0262608E-2,-3.0703628E-2,-6.0826186E-3,3.2888602E-2,5.479105E-2,-2.304605E-3,-2.8024025E-2,-1.26529895E-2,1.2461662E-3,6.6891673E-4,1.7687817E-3,2.534842E-3,3.5219495E-3,-1.5452028E-3,-2.3354756E-2,-1.5894832E-2,-9.1343485E-3,-1.9020541E-3,4.060298E-3,-1.2138336E-3,-8.3610613E-4,-8.0542715E-4,-2.2640229E-4,-4.766837E-4,-9.1505055E-5,-1.90192E-4,-1.6793083E-5,1.21463265E-4,4.7691888E-4],"categories":[],"categories_nodes":[],"categories_segments":[],"categories_sizes":[],"default_left":[0,0,0,0,0,0,0,0,0,0,0,0,0,0,0,0,0,0,0,0,0,0,0,0,0,0,0,0,0,0,0],"id":43,"left_children":[1,3,5,7,9,11,13,-1,15,17,19,-1,-1,-1,-1,-1,21,23,25,27,29,-1,-1,-1,-1,-1,-1,-1,-1,-1,-1],"loss_changes":[4.8777953E-1,4.6699017E-2,8.662045E-3,7.2027147E-3,6.0348725E-3,9.824149E-4,3.091842E-3,0E0,1.6719401E-3,6.076647E-4,5.392934E-4,0E0,0E0,0E0,0E0,0E0,3.4302473E-5,7.223338E-6,8.172239E-5,8.5100764E-5,2.6274647E-4,0E0,0E0,0E0,0E0,0E0,0E0,0E0,0E0,0E0,0E0],"parents":[2147483647,0,0,1,1,2,2,3,3,4,4,5,5,6,6,8,8,9,9,10,10,16,16,17,17,18,18,19,19,20,20],"right_children":[2,4,6,8,10,12,14,-1,16,18,20,-1,-1,-1,-1,-1,22,24,26,28,30,-1,-1,-1,-1,-1,-1,-1,-1,-1,-1],"split_conditions":[1.27E1,1.248E1,1.305E1,1.231E1,1.258E1,1.28E1,1.313E1,-2.304605E-3,1.239E1,1.251E1,1.266E1,6.6891673E-4,1.7687817E-3,2.534842E-3,3.5219495E-3,-1.5452028E-3,4E0,1.037E6,1.256E1,3.5E1,7.205E5,-1.2138336E-3,-8.3610613E-4,-8.0542715E-4,-2.2640229E-4,-4.766837E-4,-9.1505055E-5,-1.90192E-4,-1.6793083E-5,1.21463265E-4,4.7691888E-4],"split_indices":[2,2,2,3,3,3,3,0,3,3,2,0,0,0,0,0,7,4,1,9,4,0,0,0,0,0,0,0,0,0,0],"split_type":[0,0,0,0,0,0,0,0,0,0,0,0,0,0,0,0,0,0,0,0,0,0,0,0,0,0,0,0,0,0,0],"sum_hessian":[4.61E2,3.29E2,1.32E2,2.05E2,1.24E2,2.9E1,1.03E2,2.8E1,1.77E2,6.5E1,5.9E1,4E0,2.5E1,8.5E1,1.8E1,1.06E2,7.1E1,3.2E1,3.3E1,2.8E1,3.1E1,6E1,1.1E1,3.1E1,1E0,3.1E1,2E0,1.2E1,1.6E1,2.5E1,6E0],"tree_param":{"num_deleted":"0","num_feature":"11","num_nodes":"31","size_leaf_vector":"1"}},{"base_weights":[-5.996409E-4,-1.9649133E-2,4.6240836E-2,-2.8776662E-2,-5.7730055E-3,2.8456472E-2,5.114447E-2,-3.913047E-2,-2.563157E-2,-1.2589006E-2,1.5591979E-3,6.876052E-4,3.2172244E-2,2.4114088E-3,3.8122442E-3,-2.5478576E-3,-1.7543422E-3,-1.4066374E-3,-2.2054601E-2,-1.3904988E-2,-6.5198625E-3,-1.1873747E-3,5.3669964E-3,1.7417086E-3,2.0731244E-2,-1.1096079E-3,-3.209591E-4,-3.1768085E-4,-7.1092293E-4,-3.3775842E-4,-8.65221E-5,-1.5677845E-4,1.8600984E-5,1.311711E-4,6.4155034E-4,-9.009838E-5,1.2393554E-3],"categories":[],"categories_nodes":[],"categories_segments":[],"categories_sizes":[],"default_left":[0,0,0,0,0,0,0,0,0,0,0,0,0,0,0,0,0,0,0,0,0,0,0,0,0,0,0,0,0,0,0,0,0,0,0,0,0],"id":44,"left_children":[1,3,5,7,9,11,13,15,17,19,21,-1,23,-1,-1,-1,-1,-1,25,27,29,31,33,-1,35,-1,-1,-1,-1,-1,-1,-1,-1,-1,-1,-1,-1],"loss_changes":[4.1046846E-1,4.1249976E-2,1.014325E-2,5.412087E-3,6.5665245E-3,1.2513436E-3,3.8625002E-3,3.1626225E-4,7.573217E-4,4.5244955E-4,6.757099E-4,0E0,8.767471E-6,0E0,0E0,0E0,0E0,0E0,3.7960708E-6,3.9853156E-5,4.0882733E-6,1.1661061E-4,5.192467E-4,0E0,6.844071E-4,0E0,0E0,0E0,0E0,0E0,0E0,0E0,0E0,0E0,0E0,0E0,0E0],"parents":[2147483647,0,0,1,1,2,2,3,3,4,4,5,5,6,6,7,7,8,8,9,9,10,10,12,12,18,18,19,19,20,20,21,21,22,22,24,24],"right_children":[2,4,6,8,10,12,14,16,18,20,22,-1,24,-1,-1,-1,-1,-1,26,28,30,32,34,-1,36,-1,-1,-1,-1,-1,-1,-1,-1,-1,-1,-1,-1],"split_conditions":[1.269E1,1.245E1,1.302E1,1.233E1,1.257E1,1.292E1,1.314E1,1.227E1,1.237E1,1.253E1,1.265E1,6.876052E-4,7.886E5,2.4114088E-3,3.8122442E-3,-2.5478576E-3,-1.7543422E-3,-1.4066374E-3,3.996748E-3,1.24E1,1.037E6,1.261E1,4.686E5,1.7417086E-3,1.295E1,-1.1096079E-3,-3.209591E-4,-3.1768085E-4,-7.1092293E-4,-3.3775842E-4,-8.65221E-5,-1.5677845E-4,1.8600984E-5,1.311711E-4,6.4155034E-4,-9.009838E-5,1.2393554E-3],"split_indices":[3,3,3,3,3,0,3,3,1,1,3,0,4,0,0,0,0,0,5,1,4,3,4,0,3,0,0,0,0,0,0,0,0,0,0,0,0],"split_type":[0,0,0,0,0,0,0,0,0,0,0,0,0,0,0,0,0,0,0,0,0,0,0,0,0,0,0,0,0,0,0,0,0,0,0,0,0],"sum_hessian":[4.58E2,3.26E2,1.32E2,1.96E2,1.3E2,3E1,1.02E2,4.3E1,1.53E2,6.7E1,6.3E1,7E0,2.3E1,9.4E1,8E0,8E0,3.5E1,8.6E1,6.7E1,5.4E1,1.3E1,3.7E1,2.6E1,1.7E1,6E0,6.6E1,1E0,3E0,5.1E1,1.2E1,1E0,1.6E1,2.1E1,2E1,6E0,1E0,5E0],"tree_param":{"num_deleted":"0","num_feature":"11","num_nodes":"37","size_leaf_vector":"1"}},{"base_weights":[-4.120427E-4,-1.7602026E-2,4.5976896E-2,-2.4877818E-2,-1.7421952E-3,4.0904537E-2,2.9799342E-3,-3.4479395E-2,-2.0794777E-2,-7.2142784E-3,4.2895535E-3,1.4685125E-3,2.1350046E-3,-2.4399497E-3,-3.1169135E-2,-2.3037735E-2,-1.5577946E-2,-9.224766E-3,-3.033638E-3,2.1853447E-3,1.0434077E-2,-1.5744619E-3,-3.23081E-4,-1.1590638E-3,-1.7044545E-4,-6.834708E-4,-9.5685426E-4,-5.453666E-4,-3.671646E-4,-4.0352345E-5,-1.6895463E-4,2.6601012E-4,4.8152604E-5,5.7982205E-4,-8.785725E-5],"categories":[],"categories_nodes":[],"categories_segments":[],"categories_sizes":[],"default_left":[0,0,0,0,0,0,0,0,0,0,0,0,0,0,0,0,0,0,0,0,0,0,0,0,0,0,0,0,0,0,0,0,0,0,0],"id":45,"left_children":[1,3,5,7,9,11,-1,13,15,17,19,-1,-1,-1,21,23,25,27,29,31,33,-1,-1,-1,-1,-1,-1,-1,-1,-1,-1,-1,-1,-1,-1],"loss_changes":[3.7161192E-1,3.9190233E-2,6.2680542E-3,8.417457E-3,3.5956195E-3,7.133782E-4,0E0,1.7022863E-3,1.5835091E-3,4.5110728E-4,6.495248E-4,0E0,0E0,0E0,2.5524944E-4,2.421774E-4,9.842217E-5,4.0201005E-5,1.2656645E-5,1.481449E-4,2.0459504E-4,0E0,0E0,0E0,0E0,0E0,0E0,0E0,0E0,0E0,0E0,0E0,0E0,0E0,0E0],"parents":[2147483647,0,0,1,1,2,2,3,3,4,4,5,5,7,7,8,8,9,9,10,10,14,14,15,15,16,16,17,17,18,18,19,19,20,20],"right_children":[2,4,6,8,10,12,-1,14,16,18,20,-1,-1,-1,22,24,26,28,30,32,34,-1,-1,-1,-1,-1,-1,-1,-1,-1,-1,-1,-1,-1,-1],"split_conditions":[1.295E1,1.25E1,1.311E1,1.235E1,1.262E1,1.301E1,2.9799342E-3,1.228E1,1.244E1,1.257E1,1.268E1,1.4685125E-3,2.1350046E-3,-2.4399497E-3,7.218E5,1.243E1,1.4E1,1.253E1,1.1E1,2.328758E-3,1.279E1,-1.5744619E-3,-3.23081E-4,-1.1590638E-3,-1.7044545E-4,-6.834708E-4,-9.5685426E-4,-5.453666E-4,-3.671646E-4,-4.0352345E-5,-1.6895463E-4,2.6601012E-4,4.8152604E-5,5.7982205E-4,-8.785725E-5],"split_indices":[3,3,3,3,3,3,0,3,3,3,3,0,0,0,4,1,8,3,8,5,1,0,0,0,0,0,0,0,0,0,0,0,0,0,0],"split_type":[0,0,0,0,0,0,0,0,0,0,0,0,0,0,0,0,0,0,0,0,0,0,0,0,0,0,0,0,0,0,0,0,0,0,0],"sum_hessian":[4.64E2,3.39E2,1.25E2,2.32E2,1.07E2,9.4E1,3.1E1,6.7E1,1.65E2,5.6E1,5.1E1,1.5E1,7.9E1,1E1,5.7E1,1.13E2,5.2E1,3.7E1,1.9E1,3.9E1,1.2E1,5.6E1,1E0,1.12E2,1E0,3.7E1,1.5E1,1.7E1,2E1,3E0,1.6E1,1E1,2.9E1,1.1E1,1E0],"tree_param":{"num_deleted":"0","num_feature":"11","num_nodes":"35","size_leaf_vector":"1"}},{"base_weights":[-4.8335738E-4,-1.7517712E-2,4.289245E-2,-2.4198871E-2,-2.0636E-3,3.45849E-2,2.5333962E-3,-3.461299E-2,-2.0903582E-2,-7.627314E-3,2.1927275E-3,1.919489E-2,3.6678147E-2,-2.4015475E-3,-3.0862045E-2,-2.2364564E-2,-1.4058113E-2,-9.827513E-3,-5.726117E-3,-8.455658E-4,4.3622744E-3,2.1035075E-2,7.88943E-3,4.8046114E-4,1.8494964E-3,-1.5578703E-3,-4.4665337E-4,-1.145714E-3,-6.7924586E-4,-2.8185846E-4,-7.3455996E-4,-2.0599366E-5,-5.163855E-4,-3.4934282E-4,-2.1678924E-4,2.7656555E-5,-9.920256E-5,1.3804436E-4,5.0723215E-4,1.1812289E-3,4.422188E-4,-8.56638E-5,6.7737105E-4],"categories":[],"categories_nodes":[],"categories_segments":[],"categories_sizes":[],"default_left":[0,0,0,0,0,0,0,0,0,0,0,0,0,0,0,0,0,0,0,0,0,0,0,0,0,0,0,0,0,0,0,0,0,0,0,0,0,0,0,0,0,0,0],"id":46,"left_children":[1,3,5,7,9,11,-1,13,15,17,19,21,23,-1,25,27,29,31,33,35,37,39,41,-1,-1,-1,-1,-1,-1,-1,-1,-1,-1,-1,-1,-1,-1,-1,-1,-1,-1,-1,-1],"loss_changes":[3.4063566E-1,3.4126267E-2,6.6450387E-3,7.2038174E-3,2.4085045E-3,1.4221668E-3,0E0,1.2354851E-3,1.4657974E-3,1.2777909E-4,3.8600838E-4,4.20867E-5,1.2560934E-4,0E0,1.3131648E-5,3.8853288E-4,9.844359E-5,8.522777E-5,1.5280442E-5,4.0907347E-5,2.8682535E-4,4.3598004E-5,1.8620651E-4,0E0,0E0,0E0,0E0,0E0,0E0,0E0,0E0,0E0,0E0,0E0,0E0,0E0,0E0,0E0,0E0,0E0,0E0,0E0,0E0],"parents":[2147483647,0,0,1,1,2,2,3,3,4,4,5,5,7,7,8,8,9,9,10,10,11,11,12,12,14,14,15,15,16,16,17,17,18,18,19,19,20,20,21,21,22,22],"right_children":[2,4,6,8,10,12,-1,14,16,18,20,22,24,-1,26,28,30,32,34,36,38,40,42,-1,-1,-1,-1,-1,-1,-1,-1,-1,-1,-1,-1,-1,-1,-1,-1,-1,-1,-1,-1],"split_conditions":[1.271E1,1.249E1,1.31E1,1.234E1,1.258E1,1.298E1,2.5333962E-3,1.226E1,1.247E1,1.253E1,1.266E1,1.296E1,1.296E1,-2.4015475E-3,1.238E1,1.243E1,1.24E1,1.471E5,2.1555566E-3,2.2425398E-3,7.205E5,5.320879E-3,1.294E1,4.8046114E-4,1.8494964E-3,-1.5578703E-3,-4.4665337E-4,-1.145714E-3,-6.7924586E-4,-2.8185846E-4,-7.3455996E-4,-2.0599366E-5,-5.163855E-4,-3.4934282E-4,-2.1678924E-4,2.7656555E-5,-9.920256E-5,1.3804436E-4,5.0723215E-4,1.1812289E-3,4.422188E-4,-8.56638E-5,6.7737105E-4],"split_indices":[2,1,2,0,1,2,0,1,2,1,2,0,0,0,2,1,1,4,5,5,4,5,1,0,0,0,0,0,0,0,0,0,0,0,0,0,0,0,0,0,0,0,0],"split_type":[0,0,0,0,0,0,0,0,0,0,0,0,0,0,0,0,0,0,0,0,0,0,0,0,0,0,0,0,0,0,0,0,0,0,0,0,0,0,0,0,0,0,0],"sum_hessian":[4.59E2,3.3E2,1.29E2,2.3E2,1E2,6.5E1,6.4E1,5.3E1,1.77E2,4.3E1,5.7E1,9E0,5.6E1,9E0,4.4E1,1.44E2,3.3E1,1.8E1,2.5E1,2.4E1,3.3E1,7E0,2E0,1E0,5.5E1,4.3E1,1E0,1.34E2,1E1,3E0,3E1,1E0,1.7E1,1.1E1,1.4E1,1.1E1,1.3E1,2.7E1,6E0,5E0,2E0,1E0,1E0],"tree_param":{"num_deleted":"0","num_feature":"11","num_nodes":"43","size_leaf_vector":"1"}},{"base_weights":[3.3115948E-4,-1.6304107E-2,4.0914144E-2,-2.3751471E-2,-3.8618967E-3,2.9311135E-2,4.554056E-2,-3.238889E-2,-2.050566E-2,-1.0267788E-2,6.807005E-4,6.0720445E-4,1.5380236E-3,2.0794617E-3,2.7037333E-3,-2.2178793E-3,-1.4610321E-3,-1.1477086E-3,-1.6800923E-2,-1.1474445E-2,-7.642746E-3,-2.4835686E-3,3.6697388E-3,-7.650011E-4,-1.0929256E-3,-5.971983E-4,-2.4248361E-4,-1.8000603E-5,-4.00355E-4,-1.6156038E-4,1.4225642E-5,1.15953386E-4,4.0321882E-4],"categories":[],"categories_nodes":[],"categories_segments":[],"categories_sizes":[],"default_left":[0,0,0,0,0,0,0,0,0,0,0,0,0,0,0,0,0,0,0,0,0,0,0,0,0,0,0,0,0,0,0,0,0],"id":47,"left_children":[1,3,5,7,9,11,13,15,17,19,21,-1,-1,-1,-1,-1,-1,-1,23,25,27,29,31,-1,-1,-1,-1,-1,-1,-1,-1,-1,-1],"loss_changes":[3.274197E-1,3.1783894E-2,6.2340945E-3,5.363457E-3,3.789909E-3,6.9631636E-4,1.0894686E-3,8.652732E-4,1.0566488E-3,8.335011E-5,7.373894E-4,0E0,0E0,0E0,0E0,0E0,0E0,0E0,1.7415732E-4,5.0941948E-5,5.0187227E-5,7.956129E-5,2.1872652E-4,0E0,0E0,0E0,0E0,0E0,0E0,0E0,0E0,0E0,0E0],"parents":[2147483647,0,0,1,1,2,2,3,3,4,4,5,5,6,6,7,7,8,8,9,9,10,10,18,18,19,19,20,20,21,21,22,22],"right_children":[2,4,6,8,10,12,14,16,18,20,22,-1,-1,-1,-1,-1,-1,-1,24,26,28,30,32,-1,-1,-1,-1,-1,-1,-1,-1,-1,-1],"split_conditions":[1.271E1,1.246E1,1.304E1,1.234E1,1.255E1,1.282E1,1.312E1,1.228E1,1.243E1,1.252E1,1.263E1,6.0720445E-4,1.5380236E-3,2.0794617E-3,2.7037333E-3,-2.2178793E-3,-1.4610321E-3,-1.1477086E-3,3.959E5,5.5E1,1.254E1,1.262E1,7.205E5,-7.650011E-4,-1.0929256E-3,-5.971983E-4,-2.4248361E-4,-1.8000603E-5,-4.00355E-4,-1.6156038E-4,1.4225642E-5,1.15953386E-4,4.0321882E-4],"split_indices":[3,3,0,3,3,3,3,3,2,3,3,0,0,0,0,0,0,0,4,9,2,0,4,0,0,0,0,0,0,0,0,0,0],"split_type":[0,0,0,0,0,0,0,0,0,0,0,0,0,0,0,0,0,0,0,0,0,0,0,0,0,0,0,0,0,0,0,0,0],"sum_hessian":[4.83E2,3.43E2,1.4E2,2.14E2,1.29E2,4.2E1,9.8E1,5.6E1,1.58E2,5.3E1,7.6E1,4E0,3.8E1,7.1E1,2.7E1,9E0,4.7E1,9.2E1,6.6E1,3.4E1,1.9E1,3.7E1,3.9E1,5.4E1,1.2E1,3.1E1,3E0,1E0,1.8E1,2.9E1,8E0,3.1E1,8E0],"tree_param":{"num_deleted":"0","num_feature":"11","num_nodes":"33","size_leaf_vector":"1"}},{"base_weights":[1.0286835E-3,-1.548088E-2,3.977315E-2,-2.1836888E-2,-2.2858283E-3,3.4403995E-2,5.2422408E-2,-2.8281342E-2,-1.8162308E-2,-6.2891035E-3,3.953002E-3,2.379973E-2,3.69588E-2,1.9311171E-3,2.8400486E-3,-1.8920362E-3,-1.2767705E-3,-1.9468004E-2,-6.779684E-4,-9.287008E-3,-3.8217641E-3,2.2407472E-3,7.863705E-3,1.4302254E-2,1.3155236E-3,4.764557E-4,1.8589897E-3,-9.85281E-4,-2.0934742E-4,-4.893727E-4,-1.793623E-4,-8.097795E-5,-2.3702694E-4,5.125823E-5,3.6687058E-4,1.6968515E-4,7.168484E-4,8.7495643E-4,-1.2197495E-4],"categories":[],"categories_nodes":[],"categories_segments":[],"categories_sizes":[],"default_left":[0,0,0,0,0,0,0,0,0,0,0,0,0,0,0,0,0,0,0,0,0,0,0,0,0,0,0,0,0,0,0,0,0,0,0,0,0,0,0],"id":48,"left_children":[1,3,5,7,9,11,13,15,17,19,21,23,25,-1,-1,-1,-1,27,-1,29,31,33,35,37,-1,-1,-1,-1,-1,-1,-1,-1,-1,-1,-1,-1,-1,-1,-1],"loss_changes":[3.0828944E-1,2.8297417E-2,7.976323E-3,4.8855394E-3,2.7971694E-3,1.9379407E-3,2.8362125E-4,1.1599287E-3,6.2550977E-4,4.6749297E-4,2.7700874E-4,1.7215218E-4,1.4277548E-4,0E0,0E0,0E0,0E0,3.2779574E-4,0E0,5.0462782E-5,7.123221E-5,1.9073125E-4,3.27506E-4,4.173381E-4,0E0,0E0,0E0,0E0,0E0,0E0,0E0,0E0,0E0,0E0,0E0,0E0,0E0,0E0,0E0],"parents":[2147483647,0,0,1,1,2,2,3,3,4,4,5,5,6,6,7,7,8,8,9,9,10,10,11,11,12,12,17,17,19,19,20,20,21,21,22,22,23,23],"right_children":[2,4,6,8,10,12,14,16,18,20,22,24,26,-1,-1,-1,-1,28,-1,30,32,34,36,38,-1,-1,-1,-1,-1,-1,-1,-1,-1,-1,-1,-1,-1,-1,-1],"split_conditions":[1.284E1,1.251E1,1.313E1,1.234E1,1.264E1,1.304E1,3.3562956E-3,1.227E1,1.243E1,1.253E1,3.52E5,1.298E1,1.297E1,1.9311171E-3,2.8400486E-3,-1.8920362E-3,-1.2767705E-3,1.248E1,-6.779684E-4,1.037E6,2.349E5,1.268E1,1.6E1,3E1,1.3155236E-3,4.764557E-4,1.8589897E-3,-9.85281E-4,-2.0934742E-4,-4.893727E-4,-1.793623E-4,-8.097795E-5,-2.3702694E-4,5.125823E-5,3.6687058E-4,1.6968515E-4,7.168484E-4,8.7495643E-4,-1.2197495E-4],"split_indices":[2,2,2,1,2,2,5,1,1,1,4,2,1,0,0,0,0,2,0,4,4,0,8,9,0,0,0,0,0,0,0,0,0,0,0,0,0,0,0],"split_type":[0,0,0,0,0,0,0,0,0,0,0,0,0,0,0,0,0,0,0,0,0,0,0,0,0,0,0,0,0,0,0,0,0,0,0,0,0,0,0],"sum_hessian":[4.8E2,3.37E2,1.43E2,2.27E2,1.1E2,1.03E2,4E1,8E1,1.47E2,6.7E1,4.3E1,2.2E1,8.1E1,1.2E1,2.8E1,1.5E1,6.5E1,1.12E2,3.5E1,2.9E1,3.8E1,3.1E1,1.2E1,6E0,1.6E1,1E0,8E1,1.1E2,2E0,2.6E1,3E0,1.2E1,2.6E1,2.6E1,5E0,8E0,4E0,5E0,1E0],"tree_param":{"num_deleted":"0","num_feature":"11","num_nodes":"39","size_leaf_vector":"1"}},{"base_weights":[2.1074596E-4,-1.4207903E-2,3.8181916E-2,-2.011483E-2,-1.4056986E-3,3.545673E-2,3.234395E-3,-2.36085E-2,-1.3511896E-2,-5.373401E-3,3.6433472E-3,2.1036597E-2,3.7453733E-2,-1.9079816E-3,-2.2324089E-2,-6.843747E-4,-2.1041234E-4,-7.772907E-3,-2.8809607E-3,1.7198793E-3,7.1628233E-3,4.4668518E-4,1.1027368E-3,1.6745469E-3,2.0730912E-3,-1.2928172E-3,-1.0423602E-3,-1.0499954E-4,-4.0458646E-4,-2.196153E-4,-9.4007315E-5,4.3490956E-5,2.7000904E-4,8.596182E-4,2.730727E-4],"categories":[],"categories_nodes":[],"categories_segments":[],"categories_sizes":[],"default_left":[0,0,0,0,0,0,0,0,0,0,0,0,0,0,0,0,0,0,0,0,0,0,0,0,0,0,0,0,0,0,0,0,0,0,0],"id":49,"left_children":[1,3,5,7,9,11,-1,13,15,17,19,21,23,-1,25,-1,-1,27,29,31,33,-1,-1,-1,-1,-1,-1,-1,-1,-1,-1,-1,-1,-1,-1],"loss_changes":[2.6060164E-1,2.6061207E-2,7.1690083E-3,5.1251575E-3,2.2232195E-3,2.696544E-3,0E0,2.0076483E-3,7.9630874E-5,3.4840533E-4,3.193912E-4,1.24508515E-5,2.7914345E-4,0E0,2.0695478E-4,0E0,0E0,3.9075734E-5,4.0144252E-5,9.85426E-5,1.9619183E-4,0E0,0E0,0E0,0E0,0E0,0E0,0E0,0E0,0E0,0E0,0E0,0E0,0E0,0E0],"parents":[2147483647,0,0,1,1,2,2,3,3,4,4,5,5,7,7,8,8,9,9,10,10,11,11,12,12,14,14,17,17,18,18,19,19,20,20],"right_children":[2,4,6,8,10,12,-1,14,16,18,20,22,24,-1,26,-1,-1,28,30,32,34,-1,-1,-1,-1,-1,-1,-1,-1,-1,-1,-1,-1,-1,-1],"split_conditions":[1.271E1,1.25E1,1.314E1,1.242E1,1.264E1,1.299E1,3.234395E-3,1.228E1,1.252E1,1.256E1,1.268E1,1.277E1,1.309E1,-1.9079816E-3,1.233E1,-6.843747E-4,-2.1041234E-4,5E0,1.259E1,1.266E1,1.266E1,4.4668518E-4,1.1027368E-3,1.6745469E-3,2.0730912E-3,-1.2928172E-3,-1.0423602E-3,-1.0499954E-4,-4.0458646E-4,-2.196153E-4,-9.4007315E-5,4.3490956E-5,2.7000904E-4,8.596182E-4,2.730727E-4],"split_indices":[3,0,3,3,2,3,0,3,2,3,2,0,3,0,3,0,0,9,2,3,3,0,0,0,0,0,0,0,0,0,0,0,0,0,0],"split_type":[0,0,0,0,0,0,0,0,0,0,0,0,0,0,0,0,0,0,0,0,0,0,0,0,0,0,0,0,0,0,0,0,0,0,0],"sum_hessian":[4.74E2,3.44E2,1.3E2,2.35E2,1.09E2,1.2E2,1E1,1.52E2,8.3E1,6.1E1,4.8E1,1.6E1,1.04E2,1E1,1.42E2,8.1E1,2E0,3E1,3.1E1,3.2E1,1.6E1,2E0,1.4E1,5.7E1,4.7E1,3.7E1,1.05E2,2E0,2.8E1,1.1E1,2E1,2.7E1,5E0,1E0,1.5E1],"tree_param":{"num_deleted":"0","num_feature":"11","num_nodes":"35","size_leaf_vector":"1"}},{"base_weights":[-2.1060517E-4,-1.4676071E-2,3.4659214E-2,-2.2116406E-2,-5.273733E-3,2.9746639E-2,4.5460105E-2,-1.8414414E-3,-2.0456484E-2,-1.0303386E-2,4.9916434E-4,7.2275073E-4,3.1375594E-2,1.6006253E-3,4.8875555E-2,-1.1555338E-3,-1.8744977E-2,-1.21514695E-2,-7.324785E-3,-2.535253E-3,3.9921105E-3,1.3341354E-3,1.6852793E-3,1.9900005E-3,2.8841018E-3,-9.094041E-4,-1.9165516E-3,-3.1456267E-4,-6.43661E-4,-4.4261615E-4,-3.0515535E-4,-2.9405355E-4,-7.7926314E-5,6.2613486E-4,1.5029908E-4],"categories":[],"categories_nodes":[],"categories_segments":[],"categories_sizes":[],"default_left":[0,0,0,0,0,0,0,0,0,0,0,0,0,0,0,0,0,0,0,0,0,0,0,0,0,0,0,0,0,0,0,0,0,0,0],"id":50,"left_children":[1,3,5,7,9,11,13,-1,15,17,19,-1,21,-1,23,-1,25,27,29,31,33,-1,-1,-1,-1,-1,-1,-1,-1,-1,-1,-1,-1,-1,-1],"loss_changes":[2.3051877E-1,2.2479326E-2,5.757794E-3,3.6424845E-3,4.1862805E-3,1.9128546E-3,2.725497E-4,0E0,3.117919E-4,3.3485517E-4,7.3085685E-4,0E0,3.0070543E-5,0E0,1.01961195E-4,0E0,4.48104E-4,1.1357339E-4,5.690381E-6,1.1174833E-4,2.3154932E-4,0E0,0E0,0E0,0E0,0E0,0E0,0E0,0E0,0E0,0E0,0E0,0E0,0E0,0E0],"parents":[2147483647,0,0,1,1,2,2,3,3,4,4,5,5,6,6,8,8,9,9,10,10,12,12,14,14,16,16,17,17,18,18,19,19,20,20],"right_children":[2,4,6,8,10,12,14,-1,16,18,20,-1,22,-1,24,-1,26,28,30,32,34,-1,-1,-1,-1,-1,-1,-1,-1,-1,-1,-1,-1,-1,-1],"split_conditions":[1.271E1,1.246E1,1.312E1,1.227E1,1.254E1,1.296E1,3.3541298E-3,-1.8414414E-3,1.237E1,1.25E1,1.266E1,7.2275073E-4,1.304E1,1.6006253E-3,1.315E1,-1.1555338E-3,1.245E1,1.1E1,1.2E1,2.1725704E-3,2.305369E-3,1.3341354E-3,1.6852793E-3,1.9900005E-3,2.8841018E-3,-9.094041E-4,-1.9165516E-3,-3.1456267E-4,-6.43661E-4,-4.4261615E-4,-3.0515535E-4,-2.9405355E-4,-7.7926314E-5,6.2613486E-4,1.5029908E-4],"split_indices":[2,2,2,1,1,0,5,0,2,0,2,0,0,0,2,0,0,8,8,5,5,0,0,0,0,0,0,0,0,0,0,0,0,0,0],"split_type":[0,0,0,0,0,0,0,0,0,0,0,0,0,0,0,0,0,0,0,0,0,0,0,0,0,0,0,0,0,0,0,0,0,0,0],"sum_hessian":[4.55E2,3.22E2,1.33E2,1.79E2,1.43E2,9.4E1,3.9E1,1.6E1,1.63E2,7.6E1,6.7E1,1E1,8.4E1,1E1,2.9E1,5.9E1,1.04E2,4.5E1,3.1E1,3.6E1,3.1E1,3.2E1,5.2E1,1.7E1,1.2E1,1.03E2,1E0,6E0,3.9E1,1.1E1,2E1,7E0,2.9E1,2E0,2.9E1],"tree_param":{"num_deleted":"0","num_feature":"11","num_nodes":"35","size_leaf_vector":"1"}},{"base_weights":[2.375132E-5,-1.4026994E-2,3.3987973E-2,-2.024447E-2,-3.765434E-3,2.9836118E-2,4.462724E-2,-2.5905915E-2,-1.6532676E-2,-8.802146E-3,1.2517195E-3,1.9868216E-2,1.5590432E-3,4.5234017E-2,5.69582E-4,-1.6742658E-3,-2.304311E-2,-1.873688E-2,-1.3768368E-2,-1.0452924E-2,-6.5828324E-3,-6.3641864E-4,5.238124E-3,1.0318689E-3,2.2749901E-4,1.9170701E-3,2.7239653E-3,-1.1657816E-3,-1.6047955E-4,-9.6623256E-4,-5.3851266E-4,-6.029207E-4,-9.577238E-4,-7.414818E-5,-5.4758106E-4,-9.5733005E-5,-3.4239463E-4,-1.0583712E-4,4.357877E-5,1.2892835E-4,6.616497E-4],"categories":[],"categories_nodes":[],"categories_segments":[],"categories_sizes":[],"default_left":[0,0,0,0,0,0,0,0,0,0,0,0,0,0,0,0,0,0,0,0,0,0,0,0,0,0,0,0,0,0,0,0,0,0,0,0,0,0,0,0,0],"id":51,"left_children":[1,3,5,7,9,11,13,15,17,19,21,23,-1,25,-1,-1,27,29,31,33,35,37,39,-1,-1,-1,-1,-1,-1,-1,-1,-1,-1,-1,-1,-1,-1,-1,-1,-1,-1],"loss_changes":[2.2668025E-1,2.1360911E-2,4.8085153E-3,3.9636567E-3,3.2455723E-3,7.611364E-4,2.3087114E-4,9.859614E-4,5.280338E-4,1.656604E-4,4.9258105E-4,8.283323E-5,0E0,2.0525604E-4,0E0,0E0,2.602823E-4,1.1496432E-4,3.3083744E-4,1.4032354E-4,2.4008914E-5,1.0229928E-4,4.123969E-4,0E0,0E0,0E0,0E0,0E0,0E0,0E0,0E0,0E0,0E0,0E0,0E0,0E0,0E0,0E0,0E0,0E0,0E0],"parents":[2147483647,0,0,1,1,2,2,3,3,4,4,5,5,6,6,7,7,8,8,9,9,10,10,11,11,13,13,16,16,17,17,18,18,19,19,20,20,21,21,22,22],"right_children":[2,4,6,8,10,12,14,16,18,20,22,24,-1,26,-1,-1,28,30,32,34,36,38,40,-1,-1,-1,-1,-1,-1,-1,-1,-1,-1,-1,-1,-1,-1,-1,-1,-1,-1],"split_conditions":[1.284E1,1.248E1,1.313E1,1.237E1,1.257E1,1.298E1,1.318E1,1.231E1,1.243E1,1.253E1,1.267E1,5.320879E-3,1.5590432E-3,1.315E1,5.69582E-4,-1.6742658E-3,1.1429E6,4.302E5,3.751E5,1.512E5,1.254E1,1.264E1,4.686E5,1.0318689E-3,2.2749901E-4,1.9170701E-3,2.7239653E-3,-1.1657816E-3,-1.6047955E-4,-9.6623256E-4,-5.3851266E-4,-6.029207E-4,-9.577238E-4,-7.414818E-5,-5.4758106E-4,-9.5733005E-5,-3.4239463E-4,-1.0583712E-4,4.357877E-5,1.2892835E-4,6.616497E-4],"split_indices":[2,2,2,2,0,0,0,2,2,2,2,5,0,2,0,0,4,4,4,4,2,2,4,0,0,0,0,0,0,0,0,0,0,0,0,0,0,0,0,0,0],"split_type":[0,0,0,0,0,0,0,0,0,0,0,0,0,0,0,0,0,0,0,0,0,0,0,0,0,0,0,0,0,0,0,0,0,0,0,0,0,0,0,0,0],"sum_hessian":[4.73E2,3.35E2,1.38E2,2.08E2,1.27E2,1.02E2,3.6E1,8E1,1.28E2,6.3E1,6.4E1,1.4E1,8.8E1,3.5E1,1E0,1.9E1,6.1E1,6.8E1,6E1,3.4E1,2.9E1,4.4E1,2E1,1.3E1,1E0,2.3E1,1.2E1,6E1,1E0,6.2E1,6E0,4.8E1,1.2E1,2E0,3.2E1,2E0,2.7E1,2.2E1,2.2E1,1.6E1,4E0],"tree_param":{"num_deleted":"0","num_feature":"11","num_nodes":"41","size_leaf_vector":"1"}},{"base_weights":[6.0591893E-4,-1.315021E-2,3.2113887E-2,-1.7922102E-2,-2.011455E-3,2.993263E-2,2.8847551E-3,-2.207855E-2,-1.38611505E-2,-6.3211443E-3,1.6172021E-3,2.3724556E-2,1.6383535E-3,-2.690792E-2,-1.9563988E-2,-1.4962634E-2,-1.06039625E-2,-7.999166E-3,-5.30529E-3,6.925159E-4,5.6165694E-3,4.8768995E-4,1.2424829E-3,-1.7326832E-3,-1.1866927E-3,-3.904462E-4,-9.970051E-4,-6.88434E-4,-1.0258089E-3,-5.810877E-4,-3.5504342E-4,-5.2285195E-5,-4.2105743E-4,-2.7752746E-4,-5.8301288E-5,3.6600475E-6,1.5808211E-4,4.2745047E-5,6.2726735E-4],"categories":[],"categories_nodes":[],"categories_segments":[],"categories_sizes":[],"default_left":[0,0,0,0,0,0,0,0,0,0,0,0,0,0,0,0,0,0,0,0,0,0,0,0,0,0,0,0,0,0,0,0,0,0,0,0,0,0,0],"id":52,"left_children":[1,3,5,7,9,11,-1,13,15,17,19,21,-1,23,25,27,29,31,33,35,37,-1,-1,-1,-1,-1,-1,-1,-1,-1,-1,-1,-1,-1,-1,-1,-1,-1,-1],"loss_changes":[2.0109932E-1,1.7132357E-2,6.140724E-3,3.5086423E-3,1.5427843E-3,1.5453398E-3,0E0,8.093864E-4,2.6110187E-4,3.4270226E-5,1.9581107E-4,4.6495348E-4,0E0,3.8027763E-5,1.8030219E-4,2.8112717E-4,